solver_type L1R_L2LOSS_SVC
nr_class 5
label 1 2 3 4 5
nr_feature 6473
bias -1.000000000000000
w
0.1759724491175397 -0.2973166055328836 -0.1251574576693508 -0.3091068718749926 -0.5842190344691323 
0 0 0 0 0 
0.1819475634799257 -0.1757285883145804 -0.001672628175215673 -0.2708818641611679 -0.2322851463701765 
0 0 0 0 0 
0.01546329328107144 -0.3304611826303182 -0.1665869091002599 -0.06294930936206883 0 
0 0 0 0 0 
0 0 -0.06412733904102260 0 0 
0.02349068890046721 0 -0.008657640127507138 -0.1021361613102284 0 
-0.009514811420046652 0 0 0.01471750988553363 0 
0 0 0 0 0 
0.08174180613492960 0 0 -0.004506125243337246 0 
0.2398778136062870 -0.03141964738800560 -0.01372759351099444 -0.08877809852549301 0 
0.07208926593247612 -0.04879696763185511 0 -0.3250918821414300 0 
0.1133748524579163 -0.2812597912643026 -0.6009631756462757 -0.3360763458829313 -0.6572533489331045 
0.07191110134842685 0 0 0 0 
0.01370287572233515 -0.005700605153286563 -0.06865087461728987 -0.1650663827794222 0 
0.001510439036119628 -0.004070892714840376 0.0004838050024863081 0 0 
0.0002098312041511133 0.002420413492681094 0.008200653745083510 0 0 
0 0 0 0 0 
0.2699916166755014 -0.005120394268391015 -0.1389115341860810 -0.1429489762330796 0 
0.01043847228670896 -0.06951391886088173 -0.03961445826901134 -0.03038229423296490 0 
0.05328815863876685 0 0 0 0 
-0.01120881338921885 0 0.01066054740294567 -0.002824018280229710 0 
-0.01353780915719363 0.02634525853222099 0.004190526625262904 0 0 
-0.005365079863354366 0 0.004104952946593236 0 0 
-0.1547516164566832 -0.1359522734252084 0 0.09781585595907150 0 
-0.002472277723055048 0.007549719084694023 0.01217783660964094 0.07373098681560973 0 
0 0.002931768229428304 0.01244920834595155 0 0 
0 0.02797606483555421 0 0 0 
0 0 0 0 0 
-0.001099043103461714 0.02644861432959962 0.0005433313098532674 0 0 
0 0 0 0 0 
0 0 0 0 0 
0 0 -0.02186019399148967 0 0 
0 0 0 0 0 
0 0 0 0 0 
0.1397380480414945 -0.08436669958382745 -0.05559575954065719 -0.2419233986637288 0 
0.4705503112243289 -0.06045561505733078 -0.03073781797914398 -0.1705137223570551 0 
-0.2003242267639359 0 0.02391020425229773 0 0 
0 0 0 0.3609868889074421 0 
0 0 0 0 0 
0.009540944050207520 0 0 0 0 
0 0 0 0 0 
0.03802404445953393 -0.09887419569078067 -0.002078464662421485 -0.04892635045657813 0 
0 0 0 0 0 
0.09379757256383720 -0.2176613848722375 -0.1071487976175493 -0.2141802647646574 0 
0 0 0 0 0 
0 0 0 0 0 
0.006755420653543973 0 0 -0.03534902742978742 0 
0.01868469875005014 0 -0.01174391589906780 0 0 
0 0 0 0 0 
0 0 0 0 0 
0 0 0 0 0 
0 0 0 0 0 
0 0 0 0 0 
0 0 0 0 0 
0 0 0 0 0 
0 0 0 0 0 
0 0.09919610973031771 0 0 0 
0 0 0 0 0 
0 0 0 0 0 
-0.1809598724292687 0.09212963684747105 -0.002145450318521918 0 0 
0 0 -0.08191848961214111 0.06547709014859535 0 
0 -0.001510120811005949 0 0.1297656467438014 0 
0.005575364461142218 0 0 0 0 
0 0 0 0 0 
0 0 0 0 0 
0 0 0 0 0 
0 0.3114719072083038 0 0 0 
0 0 0 0 0 
0 0 0 0 0 
0.05448847560815182 0 0 0 0 
0.03259745154585175 0 0 0 0 
0 0 0 0 0 
0 0 0 0 0 
0 0 0 0 0 
0 0 0 0 0 
0.1669466758967308 0 -0.06454575599850161 0 0 
0.1523004499379890 -0.1556023927605176 0 0 0 
0 -0.05099007036314918 -0.08500081427631669 0.1204882371404714 0 
0 0 0 0.009576115080757341 0 
0.06425931780630348 0 -0.009023952796255653 0 0 
0.1284970983635669 0 0 0 0 
0 0 0 0 0 
0 0 0 0 0 
0 0 0 0 0 
0 0 0 0 0 
0.06846596255131797 0 0.005521726696802591 0 0 
-0.07686287607275402 0 0.001063165922217169 -0.001507184429088797 0 
0 0 0 0 0 
0 0 0 0 0 
0 0 0 0 0 
-0.01653565132260518 0 -0.04685952993057817 0.3506393948218577 0.2569491030198099 
0 0 0 0 0 
0.1447504284768263 0 -0.1742034542629385 0 -0.01127286883083181 
0.09277160593817932 0 0 -0.06958881506434171 0 
0.04204035294260464 0 0 0 0 
-0.08194278567179200 0 0 0 0 
0.2475853740716604 -0.07433603603357526 -0.07233946768798741 -0.1852170834660225 0 
0 -0.06844481231778615 0.04429026569800393 0 0 
0 0 0 0 0 
0.1016574874759941 0 0.04659265214385825 0 0 
0.02725856837882578 0 0 0 0 
0.1386407440528160 0 0 -0.1456358366018598 0 
0.1341012094818760 -0.1106796374227987 0.01585807081652339 0 0 
0.09742319726945360 -0.1612581153324150 -0.01052938854527840 -0.05430723939524726 0 
0.02671286533763679 -0.07940738967878655 0 0 0 
0.06451027319451352 0.004947090758030768 -0.1479142719983251 -0.1002714683670518 0 
-0.01685947686582014 0 0.003566708788607562 -0.03136971623023316 0 
0 -0.01315798654439551 0 -0.01017640141654047 0 
0 0 0 0 0 
0 0.1032579503015510 0 0.0002958093158071870 0 
0 -0.2548333454926138 0.06014760234242483 0 0 
0.02149685774641463 -0.06580916526122388 -0.04473145734191216 -0.04449755798055450 0.1156566502370097 
0 0 0 0 0 
0 0 0 0 0 
0 0 0 0 0 
0.1245372202282445 0 0 0 0 
-0.07560880609942708 0 0 -0.02656266088126776 0 
0 -0.1477038431713802 -0.1813265538949894 0 0 
0 0 0 0 0 
0 0 0 0 0 
0.01771931992286849 0.07493080021739378 0 -0.04356972631738257 0 
0.1806859248158857 0 0 0 0 
0 0 0 0 0 
0.05763131445318560 -0.06637644786616599 -0.0008508129698914981 0 0 
0.01278872761158427 0 -0.04248205452828974 -0.06195278921139018 -0.05126836767850876 
0 0 0 0 0 
0.1018189846410288 0 0 -0.02276797525990967 0 
0.2389790176268443 -0.4651598295770233 -0.1462417996524628 -0.3338066730934993 0 
-0.02014815772358010 0 0 0 0 
0.005870812772699117 0 0 0 0 
0 0 -0.07272641693318248 0 0 
0.1059139380308210 0 0 0 0 
0 0 0 0 0 
-0.07524225770450790 0.1126532696653502 0.04092241339802348 0.06862930442609126 0.002157117191664744 
0.1432242666479132 -0.1611588660168498 -0.1537936611382376 -0.08726027284855102 0 
0.3735613432914811 0 -0.05853542503176496 -0.0002618709599618140 0 
-0.004780158869408673 0.01292052132992026 -0.07734037888473806 0.03386963552563741 0 
-0.08135518013500288 0.0003768125874092636 -0.006022592519212517 -0.02323247907371733 0.01769490292588176 
0.2405358746714596 -0.4378186684266039 -0.4369320413562505 -0.8390442754435031 0 
-0.04207130878518463 0.03465507547318035 0.1350193908648460 0 0 
0.2687784110938566 -0.3359843632733625 -0.1425736696206227 -0.2447577619834464 -0.2193494872224173 
0.007293241537643968 -0.003983497040282427 -0.01378459659016421 -0.04851099651495919 0.1130972193771549 
0.03054692007077377 -0.03533567714356358 -0.06991894921176825 -0.1017928788658947 0 
0 0 0 0 0 
0.1259227312178981 0 0 0 0 
0 -0.01217597311644800 0 0 0 
0.3321120456799147 0 -0.03475416065344956 0 -0.1532704601014321 
0.07485997947407877 0.6991974171770792 -1.110544256534640 -0.5502002493632303 0 
-0.02815089927037634 0.1876233058590727 -0.3121602716879601 -0.3324703590035051 0 
0 0 0 0 0 
0 0 0 0 0 
0 0 0 0 0 
0.01002858019734469 -0.02905264785183714 -0.01677182792885633 -0.009394053130522193 -0.09242012106508290 
0.0008625724748123079 -0.008603877631020093 -0.001630669164435258 -0.05761866662492927 0.03365469525409774 
0 0 0 0 -0.1684334787937697 
-0.006268671420804754 0.01357242795538776 0.003763122580894412 0.03133778849799798 0 
-0.001341588906939949 0.03121104763290779 0.01045134718150090 0.03009655694259570 0.01142598807267131 
0.01764357292514336 0.002024627552344519 -0.01482332638835397 0 0 
-0.02015388817771328 0 -0.04075598747464647 -0.008020413800971786 0 
-0.1255053620488036 0.01823940615441934 0.3481513499809120 0.08249571715193142 0 
0.1366023832983208 0 -0.3000480059632483 0 0 
-0.03934855448257357 0 0 0 0 
-0.1411213745320628 0 0.1681146838717831 0.01669366503592932 0 
-0.05678697741529076 0.08202213629921122 0 0 0 
0 0 0 0 0 
0 0 0 0 0 
-0.01903878303707310 0.01395374522974051 0.02363215476172815 -0.03648244388636115 0 
0 0 0 0 0 
0 0 0 0 0 
0.06082361883877572 0 -0.07225290445414619 0 0 
0.005039052989280221 0 -0.06380253685154313 0.002902638019618897 0 
0 0 -0.1062822644184413 0 0 
-0.02715874040079731 0.003434658566351977 0.07987862041693843 -0.04449892390871436 0 
-0.01342345056665725 0 0 -0.06810119174242203 -0.9340377690596542 
-0.3181853418870599 -0.09689356082109582 0.01198898190488238 -0.1121734386710112 0.01560390097559868 
0.2083349968950403 -0.4323523751103289 -0.05744505915833109 -0.3543662256678419 0 
-0.1534604513220816 0.005420125536091097 0.05571924349583012 0 -0.001381521118878940 
0 0 0 0 0 
0 0 -0.05085434331978612 0 0 
0.05311251234929727 -0.009080220462066937 0 0 0 
0 0 0 0 0 
0.03249765127701211 0.02108533284804953 0 -0.2015809587204887 0 
0 0 0.1159923224234287 0.003056126539054827 0 
-0.1451562636705804 -0.7175547012421564 0.3454091932555681 -0.7577813890554055 0 
0 0 0 0 0 
0 0 0 0 0 
0 0 0.04511480521398181 0 0 
0 0.07938538542632925 -0.004077389173536556 0.06506911320711671 0 
0.08551039727414068 -0.08661935301908462 0.01451302978930780 -0.01990927496288551 0 
-0.002771732265182852 0.05324185029700068 -0.02700228432490687 0.02869217851787759 0 
-0.009096516670607520 -0.007341931057284150 0 0.01610434525129174 0 
0.004410554257754432 -0.002293190479980723 -0.001638536944247447 -0.009001173008281203 -0.02736203513856922 
-0.004514257542800607 -0.04913411151928075 0 0 0 
0 0 0 0 0 
0 0 0 0 0 
0.1370374704524106 0 -0.03672942681784028 0 0 
0 0 0 0 0 
-0.01336987809295557 -0.02108552024168434 -0.01896618685484118 0.05275386882803444 -0.0002871140461164555 
0.004274586964982229 0.02123312037244566 0.01513474139899435 -0.01915624712806301 0.03469783360306318 
-0.01344307104405102 0.01286051711589303 -0.03803397798299071 -0.05646319188515395 -0.01213964988195294 
0.2756636361139310 0 -0.2135427450766212 0 -0.1039202382236442 
0 0 0 0 0 
0.06165214445775458 0.1221098404176684 -0.1759570663503773 -0.2567927542051584 0 
0 0 0 0 0 
0 0 0 0 0 
0 0 0 0 0 
0.01403422995076381 0 0 0 0 
0.2531827082792635 -0.04149381720985524 0 0 0 
0 0 0 0 0 
0 0 0 0 0 
0 0 0 0 0 
0.01032041792556262 0 -0.04504604337597457 0 0 
0 0 0 0 0 
0 0 0 0 0 
-0.002217457985474462 0.003331449475500705 0 0 -0.1184427088647386 
0.01337876538115854 0 0 0 0 
0 -0.01105956587127943 0 0.1956192768564370 0 
0.05138512597078066 0 0 0 0 
0 0 0 0 0 
0 0.1738332171228628 0 0 0 
0 0 0 0 0 
0 0 -0.0002568692679018794 0 0 
0 0 0 0 0 
0 -0.01971929177401436 0 0 0 
0 0 0 0 0 
0 0 0 0 0 
0 0 0 0 0 
0 0 0 0 0 
0 0 0 0 0 
0 -0.008947978870941980 0 -0.002750441788624465 0 
0 0 0 0 0 
0.2928614512455371 -0.04503418945837582 -0.07953890026164366 -0.2393051891545079 0 
0 0 0 0 0 
0 0 0 0 0 
0 0 0 0 0 
0 -0.2562396955483883 0 -0.003453162608941018 0 
0.0008485348916896229 0.3409632975257410 0 -0.1061409654236198 0 
0 0 0 0 0 
0 0 0 0 0 
0 0 0 0 0 
-0.02403445029773305 0 0.04066109139932318 0 -0.008477605924301372 
0.09213515098259965 -0.6809441512119891 -1.097682901726433 0.09618775211735340 0 
-0.1236889337902322 -0.03796661817864554 0 0.2567796946913734 0 
0.04456493493922098 0 0 0 0.1191592946647627 
0.05684880423043555 0 0 0 0 
0 0 0 0 0 
0 0 0 0 0 
0.01867243832527172 0 0 -0.1714452314925206 0 
0.1415902180157480 0 -0.2808144800022213 0 0 
0 0 0 0 0 
-0.02718360378913083 0 -0.7672612660771615 0.7753451198958278 0 
0 0 0 0 0 
0 0 0 0 0 
0 0 0 0 0 
0 -0.1186380693092958 0 0 0 
0.05818622110671972 0 -0.05833495191177937 0 0 
0.5145841071268319 -0.01323188414442005 -0.08052200001683607 -0.1349517468295471 0 
0 0 0 0 0 
0 0 0 0 0 
0 -0.04458255279513596 0 0 0 
0 0 0 0 0 
0 0 0 0 0 
-0.002197720572530648 0 -0.05913653122622715 0.2269167501997991 0 
0 0 0 0 0 
0 0 -0.01773651792136377 0 0 
0 0 0 0 0 
0.1485466997368859 -0.1394655831273627 -0.02658274459557541 -0.02669905444901346 0 
0.06246338816996418 -0.04699894574552036 0 -0.07366040783900822 0 
0 0.2774068530711328 0 0 0 
0 0 0 0 0 
0 0 0 0 0 
0 0 0 0 0 
-0.009268148031262677 0 0.04396099567386175 -0.1365434201703857 0 
0 0.0001773801136628433 -0.008198707474401195 0 0 
0 0 0 0 0 
0.08982374888626696 0 0 0 0 
0.05388029038832468 -0.2643477407632229 0 0 0 
0 0 0 0 0 
0 0.05535872755550283 0 0 0 
-0.02282470105773071 0 0 0 0 
0.01276245448839818 0.1384966229186332 0.07790639395237690 0.04417557843468123 -0.1164228068401062 
-0.004287101551195821 -0.02774363709584071 0.1701172832269595 0.005734205470924078 -0.04537456585829548 
0 0 0 0 0 
0.1328296179270310 -0.2048371356728515 -0.07710951328027732 -0.1007676128899133 0 
0.03656189797248699 0.2496827453181047 0 0 0 
-0.06279140130889933 0.006924794825625153 -0.006659614591525348 0 0 
-0.1996262617462916 0.001342846187711588 0.02278914217234851 0.01378271184543637 0 
0 0 0 0 0 
0.07386520409598185 0 -0.2471138659814958 -0.09232906394798567 0 
0 0.08688801315921153 0.1050425239584901 -0.02822277406897412 0 
0 0 0 0 0 
-0.02325763938157296 0 0 0.2517235917642689 0 
0 0 0 0 0 
0.02640085576134700 0 0 0 0 
0 0 0 0 0 
0.1225517619863929 -0.006351626476089722 -0.1642132567434507 -0.06470859607047616 0 
0 0.02032283165253766 -0.002410611751528280 0 0 
0.1183520331930004 0 0 0 0 
0 0 0 0 0 
0 0 0 0 0 
0 0 0 0 0 
0.2679641788100218 0 -0.005767587250191497 0 0 
0 0 -0.08737032643356663 0 0 
0.1287839422319065 -0.2213085394160701 0 -0.002844690065784875 0 
0 0 0 0 0 
-0.06573229791421986 0 0 0 0 
0 0 0 0 0 
0.06022033821211423 0 -0.02584930436480528 0 0 
0.1787925610285631 0 0 0 0 
0 0 0 0 0 
0 0 0 0 0 
0 0 0 0 0 
0 0 0 0 0 
0 0 0 0 0 
0.1329262980860793 0 0 -0.0001575768692974266 0 
-0.04718219539557303 -0.08817077326410305 0.01059588081167433 0 0 
0 0 0 0 0 
0.008070739192390847 0 0 -0.1300466654357120 0 
0 0 0 0 0 
0 0 0 0 0 
0 0 0 0 0 
0 0 0 0 0 
0 0 0 0 0 
0 0 0 0 0 
0 0 0 0 0 
0 0 0 0 0 
0 -0.1212234253397010 0 0 0 
0 0 0 0 0 
0 0 0 0 0 
0 0 0 0 0 
0 0 0 0 0 
0 0 0 0 0 
0.01192354057316289 -0.1145630917993559 -0.1392970902343754 0 0.01110740918122410 
0 0 0 0 0 
0 0 0 0 0 
0 0 0 0 0 
0.1368289659817415 0 0 0 0 
0.06913309621420559 0 -0.04106496408253432 0.1894520953338023 0 
0 0 0 0 0 
-0.03156406140686968 0.01807040707871840 0.02947159154807290 0.04734801444993574 0 
0.004888310841295271 0.01597276154670028 0.008709950092193074 0.03998634177776517 0 
0 0 0 0 0 
0 0 0 0 0 
-0.04072793157782754 -0.1601354376293554 0 0 0.2058857480594889 
0 0 0 0 0 
0.08148034728408285 0 0 0 0 
0 0 0 0 0 
0 0 0 0 0 
0.4376409104679886 0 0 0 0 
0.03214189297370208 0 -0.1097176126872096 0 0 
0 0 0 0 0 
0 0 0 0 0 
0 0 0 0 0 
0 0 0 0 0 
0 0 0 0 0 
0.1019191292878713 0 0 -0.03935269252679005 0 
0 0 0 0 0 
0.03148837867818310 0 0 0 0 
0 0 0 0 0 
0 0 0 0 0 
0.03264352749174261 0 0 0 0 
0 0 0 0 0 
0 0 0 0 0 
0 0 0 0 0 
0.001099852073300783 0 -0.03654401735982824 -0.01538732567676331 0.1605476091297124 
0 0 0 0 0 
0 0 0 0 0 
0 0 0 0 0 
0 0 0 0 0 
0 0 0 0 0 
0 0 0 0 0 
0 0 0 0 0 
0 0 0 0 0 
0 0 0 0 0 
0 0 0 0 0 
0 0 0 0 0 
0 0 0 0 0 
-0.04477504815873919 0.01358516767061672 0 0.01758322844464759 0 
0.0007472687843239992 0 0 0 0 
0.05678195685424922 0 -0.04633327852470620 0 0 
0 0 0 0 0 
0 0 0 0 0 
0 0 0 0 0 
0 0 0 0 0 
0 0 0 0 0 
0 0 0 0 0 
0.05511600054166332 0 0 0 0 
-0.01310985922189154 -0.1559820718719797 0.03694050943964723 0.001410100160421871 0.005024413778898410 
0 0 0 0 0 
0.01136208046643742 0 -0.1342125486678059 0.1530301436755194 0 
0 0 -0.1388695518411778 0 0 
0 0 0 0 0 
0 0 0 0 0 
0 0 0 0 0 
0 0 0 0 0 
0 0 0 0 0 
0 0 0 0 0 
0.01015515501591886 -0.09915031651122826 -0.02194836216848899 0.1590808056867854 0.1311322034228417 
0 0 0 0 0 
0 0 0 0 0 
0 0 0 0 0 
0.02751583776153895 0 0.07507584551010134 0 0 
0 0 0 0 0 
0 -0.005806667026077384 0 -0.005171950604026369 0.08940931470974231 
0.01380903901241830 0 0 0 0 
0.06726051402717330 0 0 0 0 
0 0 0 0 0 
0 0 0 0 0 
0.02957771220075380 0 0 0 0 
0 0 0 0 0 
0 0 0 0 0 
0 0 0 0 0 
0 0 0 0 0 
0 0 0 0 0 
0.1479070232141329 -0.4649417696174548 -0.06878813154881840 -0.1227671773129262 0 
0 0 0 -0.005957348272333369 0 
0.3476202062337748 0 0 0 0 
-0.008894309923495027 -0.08693024518039624 -0.05506227038146371 0 -0.07913889478176868 
0 0 0 0 0 
0.09408059310245709 0 0 -0.03465069002566935 0.1897410471430193 
0 0 0 -0.03076761757983162 0 
0 0 0 0 0 
0 0 0 0 0 
0 0 0 0 0 
0 0 0 0 0 
0 0 0 0 0 
0 0 0 0 0 
0 0 0 0 0 
0 0 0 0 0 
0 0 0 0 0 
0.1447257540821643 0 -0.2134274892810329 0 0 
0.01353024435152500 -0.0002464143349641240 0.009860815339757125 -0.1852266161723326 0 
0 0 0 0 0 
0 0 0 0 0 
0.02790129856808916 -0.02616465801455387 -0.01256278462604693 0 -0.06702392349415714 
0 0 0 0 0 
0 0 0 0 0 
-0.01516126660095103 0.03796985429463224 0 0.02219888342806535 0.2019016823805194 
0.07160147738323236 0 0 0 0 
0 0 0 0 0 
0 0 0 0 0 
0.2078377051330853 -0.09989307842140026 -0.2776402961044545 0 0 
0.005207922248481264 0 0 -0.1549891899183749 0 
0.006628591692353377 0 0 0 0 
0 0 0 0 0 
0 0 0 0 0 
0 0 0 0 0 
0.4757842964223973 0 0 0 0 
0 0 0 0 0 
0 0 0 0 0 
0 0.1065817083856819 0 0 0 
0.1346009768505261 0 0 0 0 
0 0 0 0 0 
0 0 0 0 0 
0 0 0 0 0 
0 0 0.07449829215735370 0 0 
0.1399189623069728 0 0 0 0 
0 0 0 -0.005249951061805577 0 
0 0 0 0 0 
0.1167907367932216 0 0 0 0 
0 0 0 0 0 
0 0 0 0 0 
0 0 0 0 0 
0.1260034671194698 0 0 0 0 
0.02360116332877068 0 0 0 0 
0 0 0 0 0 
0 0 0 0 0 
0.02620413552477522 0 -0.06623377819190257 -0.2184250307677371 0 
0 0 0 0 0 
0.03948204211992067 0 0 0 0 
0 0 0 0 0 
0 0 0 0 0 
0.08024229797533233 0 -0.07693754278291487 0 0 
0 0 0 0 0 
0 0 0 0 0 
0 0 0 0 0 
0 0 0 0 0 
0 0 0 0 0 
0.5013176358375495 0 0 0 0 
0 0 0 0 0 
0 0 0 0 0 
-0.03818003405803139 0 0 0 5.689554531196350e-05 
0 0 0 0 0 
0 0 0 0 0 
0 0 0 0 0 
0 0 0 0 0 
0 0 0 0 0 
0 0 0 0 0 
0 0 0 0 0 
0 0 0 0 0 
0 0 0 0 0 
0.3906560808181357 0 0 0 0 
0 0 0 0 0 
0 0 -0.06603200663018183 0 0 
0 0 0 0 0 
0 0 0 0 0 
0 0 0 0 0 
0 0 0 0 0 
0.05020396152939435 0 0.1162250717022760 -0.1216891820685687 0 
-0.04636568026620815 0 0.009680632084621424 -0.03806698655755064 0 
0 0 0 0 0 
0 0 0 0 0 
0 0 0 0 0 
0 0 0 0 0 
0 0 0 0 0 
0 0 0 0 0 
0 0 0 0 0 
0 0 0 0 0 
0 0 0 0 0 
0 0 0 0 0 
0 0 0 0 0 
0 0 0 0 0 
0 0 0 0 0 
0 0 0 0 0 
0.2422498607696574 -0.06133162381640150 0 0 0 
-0.02649981264647429 0 -0.1222797322983297 0 0 
0 0 0 0 0 
0 0 0 0 0 
0 0 0 0 0 
0 0 -0.008837176416993811 0 0 
0 0 -0.05627460922643673 0 0 
0 0 0 0 0 
0 0 0 0 0 
0 0 0 0 0 
0 0 0 0 0 
0 0 0 0 0 
0.1214522120382965 0 -0.4157770254813388 -0.04842333385355055 0 
-0.07587374472936051 -0.07513472076926261 0.07944897545971066 -0.1739119958310271 0.0001811050532906503 
0 0 0 0 0 
0 0 0 0 0 
-0.09556219852180584 0 -0.03842902905695574 0.09527048931924666 0 
0.009307042044917505 0 0.07711115498749899 -0.001133737854804286 0.01276349596076299 
-0.009489954646032639 0 0 0 0 
0 0 0 0 0 
0 0 0 0 0 
0 0.01921619490651283 0 0 0 
0 0 0 0 0 
-0.005480147628225412 0 0.03941296127051869 0 0 
0 0 0 0 0 
0 0 0 0 0 
0.04645646360379141 -0.1296524129305356 0.007407745313029142 -4.818512753537318e-05 0.1210151484862448 
0 0 0 0 0 
0 0 0 0 0 
0 0 0 0 0 
0 0 0 0 0 
0 0 0 0 0 
0 0 0 0 0 
0 0 0 0 0 
0 0 0 0 0 
0 0 0 0 0 
0.04464009750825100 0 0 0 0 
0.1010474286033890 -0.1911717763174740 0.1374705798255745 0 0 
0.05137501420959378 -0.2017915104303107 -0.09760622510809863 0 0.1939835907485849 
0 0 -0.1237670948999438 0 0 
-0.01676731869733165 0 0 0 0 
0 0 0 -0.007854465848106533 0 
0.005459540763059448 -0.7122700072996344 -0.07907476445170566 0.5725921662762272 0 
0 0 0 0 0 
0 0 0 0 0 
0 0 0 0 0 
0.02803056583353075 0 0 0 0 
0 0 -0.1430691469977345 -0.1392934461746553 0 
0.1088519469784727 0 0 -0.1869607758389979 0 
0 0 0 0 0 
0 0 0 0 0 
0 0 0 0 0 
0 0 0 0 0 
0 0 0 0 0 
0 0 0 0 0 
0 0 0 0 0 
0 0 0 0 0 
0 0 0 0 0 
0 0 0 0 0 
0 0 0 0 0 
0 0 0 0.01432353567900052 0 
0 0 0 0 0 
0 0 0 0 0 
0 0 0 0 0 
0 0 0 0 0 
0.09843470540512453 0.1108506040162160 -0.02875701668049657 -0.06746664282035514 0 
0.1160131052130792 0 0 0 0 
-0.01844158091854414 0 0 0.04293893549390659 0 
0 0 0 0.04586830222522664 0 
0 0 0 0 0 
0 0 0 0 0 
-0.1069830953712762 0 0 0 0 
-0.1052338653091622 0.06222648746916094 -0.06901385454450154 0 0 
0.1353653318800156 -0.02709014077838937 0 0 0 
0 0 0 0 0 
0 0 0 0 0 
0 0 0 0 0 
0 0 0 0 0 
0 0 0 0 0 
0 0 -0.006419704528817238 0 0 
0 0 0 0 0 
0 0 0 0 0 
0 0 0 0 0 
0 0 0 0 0 
0 -0.01423316895853249 -0.01778617113475912 0.1534695049313620 0 
0 0 -0.03776783655129772 0 0 
0 0 -0.03093854832015058 0.1170852788900595 0 
0 0 -0.03117251984086242 0 0 
0 0 -0.01785077757070405 0 0 
0 0 0 0 0 
0 0 0 0 0 
0 0 0 0 0 
0 0 0 0 0 
0 0 0 0 0 
0 0 0 0 0 
0 0 0 0 0 
0 0 0 0 0 
0 0 0 0 0 
0.1200286075691106 0 0 0 0 
0 0 0 0 0 
0 0 0 0 0 
0 0 0 0 0 
0 0.1516251434821573 0 0 0 
0 0 0 0 0 
0 0 0 0 0 
0 0 0 0 0 
0 0 0 0 0 
0.02903825986771234 0 0 -0.05459993452289016 0 
-0.1482611708953336 0.5709544981166813 0 0 0 
-0.7632175125152384 0.03996659903776728 0 0 0 
0 0 0 0 0 
0.005901709307514713 0 0 0 0 
0 0 0 0 0 
0 0 0 0 0 
0.04405005207607826 0 0 0 0 
0.1860691652808932 0 -0.005687514438946924 0 0 
0 0 0.009532642497957128 0 0 
0 0 0 0 0 
-0.1742215525928176 0.02672630474719927 0.1967551858988114 0.3339796549555878 0 
0.002574816270357910 0.01027426363482098 0.1444940955640758 0 0 
0.06924677379161666 0 0 0 0 
-0.1217154273133626 0.05683193499667323 0 0.01974716836846381 0 
0 0 0 0 0 
0 0 0 0 0 
0 0.07574983557419014 0.04880437194480766 0 0 
0 0 0 0 0 
0 0 0 0 0 
0 0 0 0 0 
-0.03771370718875633 0 0.06556466634017713 0 0 
-0.1398025919843444 0 0 0 0 
0 0 0 0 0 
0 0 0 0 0 
0.04667509008057022 0 -0.1156359722198980 0 0 
0 0 0 0 0 
0 0 0 0 0 
0 0 0 0 0 
0 0 0 0 0 
0 0 0 0 0 
0 0 0 0 0 
0 0 0 0 0 
0.1316579475450962 0 -0.6278036817847140 0 0 
0 0 -0.1974595712949321 -0.01183365962532791 0 
0.02694887372572938 0 0 0 0 
0.02311185861564116 0 0 0 0 
0 0 0 0 0 
0 0 0 0 0 
0 0 0 0 0 
0 0 0 0 0 
0 0 0 0 0 
0 0 0 0 0 
0 0 0 0 0 
0 0 0 0 0 
0 0 0 0 0 
0.1012808264280253 0 0 0 0 
0 0 0 0 0 
0 0 0 0 0 
0 0 0 0 0 
0 0 0.3500589274594501 0 0 
-0.1939363088913502 0.2555790039392497 0.009819828418335232 0.4508645208225234 0 
-0.6088893904532086 0.5784967255827040 0.08739087379922832 0.5239234457964910 0 
-0.03518143215558911 0 0 0 0 
-0.03991619445291490 0 0 0 0 
0 0 0 0 0 
0 1.195755148247986 0 0 0 
0.001847309872329162 0 0 -0.1040534531279894 0 
-0.4789452833089334 0.2041465171854340 0.2215819068338109 0.2878744955140850 0.8595089613607456 
0 0 0 0 0 
0 0 0.8614417522038501 0 0 
0 0 0 0.007238143478219050 0 
0 0 0 0.3435770377756524 0 
0 0 0 0 0 
0 0 0 0 0 
0.2323543793576323 0 0 0 0 
0.02543802677199931 -0.02608430517676377 -0.007656723571684449 0 0 
-0.03970561879653425 0.07975823349678089 0.001717897763629418 0.06502369565802193 0 
0 0 0 0 0 
0.05512195242673909 -0.05899380764970942 -0.03304181444579611 -0.02728054025707366 0 
0.1303169844299152 0 -0.06930621037003756 0 0 
0 0 0 0 0 
0 0 0 0 0 
0 0 0 0 0 
0 0 0 0 0 
0 0 0 0 0 
0 0 0 0 0 
0 0 0 0 0 
0 0 0 0 0 
0 0 0 0 0 
0 0 0 0 0 
0 0 0 0 0 
0 0 0 0 0 
0 0 0 0 0 
0 0 0 0 0 
0 0 0.001649348335314049 0 0 
0 0 0 0 0 
0 0 0 0 0 
0 0 0 0 0 
0 0 0 0 0 
0 0 0 0 0 
0 0 0 0 0 
0 0 0 0 -0.09875837145845254 
0 0 0 0 0 
0 0 0 0 0 
0 0 0 0 0 
0 0 0 0 0 
0.6298232929406197 0 0 0 0 
0 0 0 0 0 
0.09684225782444442 -0.6364469354105342 0 0 0 
0 -0.06633573174632701 0 0 0 
0 0 0 0 0 
0 0 0 0 0 
0 0 0 0 0 
0 0 0 0 0 
0 0 0 0 0 
0 0 0 0 0 
0 0 0 0 0 
0 0 0 0 0 
0 0 0 0 0 
0 0 0 0 0 
0.03227695084319125 0.4702259868065537 -0.08767738613371887 -0.01350433001782384 0 
0 0 0 0 0 
0 0 0 0 0 
0 0 0 0 0 
0 0 -0.07019928716248675 0 0 
0 0 0 0 0 
0 0 0 0 0 
0 0 0 0 0 
0 0 0 0 0 
0 0 0 0 0 
0 0 0 0 0 
0 0 0 0 0 
0 0 0 0 0 
0 0 0 0 0 
0 0 0.06442982130334968 -0.01781673322450650 0 
0 0 0 0 0 
0 0 0 0 0 
0 0 0 0 0 
-0.001226595887514358 0.09714736686069386 0 0.02919205132170141 0 
0 0 0.04077582523966125 -0.007693177580743639 0 
0 0 0 0 0 
0 0 0 0 0 
0 0 -0.01144448004445340 0 0 
0 0 0 0 0 
0 0 0 0 0 
0 0 -0.009723053885897504 0 0 
-0.008058014866330170 0 0 0 0 
0 0 0 -0.08293501699333677 0 
0 0 0 0 0 
0 0 0 0 0 
0 0 0 0 0 
0 0 0 0 0 
0 0 0 0 0 
0 0 0 0 0 
0 0 0 0 0 
0 0 0 0 0 
0 0 0 0 0 
0 0 0 0 0 
0 0 0 0 0 
0 0 0 0 0 
0 0 0 0 0 
0 0 0 0 0 
0 0 0 0 0 
0 0 0 0 0 
0 0 0 0 0 
0 0 -0.001854169568272224 0 0 
0 0 0 0 0 
0 0 0 0 0 
0 0 0 0 0 
0 0 0 0 0 
0.08741319296947124 0.1028768118913140 0 0 0 
0 0 0 0 0 
0 0 0 0 0 
0 0 0 0 0 
0 0 0 0 0 
0 0 0 0 0 
0 0 0 0 0 
0 0 0 0 0 
0 0 0 0 0 
0 0 0 0 0 
0 0 0 0 0 
0 0 0 0 0 
0 0 0 0 0 
0 0 0 0 0 
0 0 0 0 0 
0 0 0 0 0 
0 0 0 0 0 
0 0 0 0 0 
0 0 0 0 0 
0 0 0 0 0 
0 0 0 0 0 
0 0 0 0 0 
0 0 0 0 0 
0 0 0 0 0 
0 0 0 0 0 
0.1983924252959718 -0.1279480349030834 -0.06398402694594368 -0.4896472697182822 0 
0 0 0 0 0 
0 0 0 0 0 
0 -0.008153961137635009 0 0 0 
0.2484857159022494 0 -0.05286234183436843 -0.004423634314735751 0 
-0.02423936592417504 0 0.02569039558479977 0 0 
0 0 0 0 0 
-0.02216041255732706 -0.005595944756238650 0.03767150564711824 -0.08126518961534979 0 
0.05266375492445191 0 0 -0.02137335928065924 0 
0 0 0 0 0 
0 0 0 0 0.1088377783199779 
0 -0.3254498910111133 0 0 0 
0 0 0 0 0 
0 0 0 0 0 
0.01022153368054432 0 0 0 0 
0.02502581333061267 0 0 0 0 
0 0 0 0 0 
0 0 0 0 0 
0 0 0 0 0 
0 0 0 0 0 
0 0 0 0 0 
0 0 0 0 0 
0 0 0 0 0 
0 0 0 0 0 
0.05194505401322028 0 -0.03688668214527018 0 0 
0 0 0 0 0 
0 0 0 0 0 
0 0 0 0 0 
0.001276071283676360 -0.05394660002021486 -0.009565354557556844 -0.01129613032276499 -0.002128127385202089 
-0.02380322537282649 0 0 0 0 
0 0 0 0 0 
0 0 0 0 0 
0 0 0 0 0 
0 0 -0.1131684176061866 0 0 
0.1136947525804753 0 0 0 0 
0 0 0 0 0 
0 0 0 0 0 
0 0 0 0 0 
0 0 0 0 0 
0 0 0 0 0 
0 0 0 0 0 
0 0 0 0 0 
0 0 0 0 0 
0 0 0 0 0 
0 0 0 0 0 
0 0 0 0 0 
0 0 0 0 0 
0 0 0 0 0 
0 0 0 0 0 
0 0 0 0 0 
0.1415175667061928 0 -0.1201833727768909 -0.05461043010243193 0 
0 0 0 0 0 
0 0 0 0 0 
0 0 0 0 0 
0 0 0 0 0 
0 0 0 0 0 
0 0 0 0 0 
0.03762239280153235 0 0 0 0 
0 0 0 0 0 
0 0 0 0 0 
0 0 0 0 0 
0 0 0 0 0 
0 0 0 0 0 
0 0 0 0 0 
0 0 0.04162644184374281 0 0 
0 0 0 0 0 
0 0 0 0 0 
0 -0.0009402793867294423 0 0 0 
0 0 0 0 0 
0 0 -0.02711173114747279 0.1099869887675398 0 
0 0 0 0 0 
0 0 0.1163403260759442 0 0 
0.04725057394853423 0 0 0 0 
0 0 0 0 0 
0 0 0 0 0 
0 -0.06218084721140610 0 0 0 
0 0 0 0 0 
0.04153282180755892 -0.07706083902283581 0 0 0 
0.1075600911686272 -0.07593160805554976 0 0.02596222631760548 0 
0 -0.009412542022764328 0 0.06806772644900509 0 
0 0 0 0 0 
0 0 0 0 0 
0 0 0 0 0 
0 0.08342145226271623 0 0 0 
0 0 0 0 0 
0.01070607350256962 0 0 0 0 
0 0 0 0 0 
0 0 0 0 0 
0 0 0 0 0 
0.2007132960417547 -0.4169579816738039 0 -0.2417473522527504 0 
0 0 0 -0.3815609215237387 0 
-0.002498504650304916 0 0 0 0 
0 0 0 0 0 
0 0 0 0 0 
0 0 0 0 0 
0 0 0 0 0 
0 0 0 0 0 
0.3012610951877428 0 -0.1070958553380149 0 0 
0 0 0 0 0 
0.01853407625342938 -0.02822614190065864 -0.03883337785834139 0 0 
0 0 0 0 0 
0 0 0 0 0 
0 0 0 0 0 
0 0 0.1527297049585867 0 0 
0 0 0 0 0 
0 0 0 0 0 
0 0 0 0 0 
0 0 0 0 0 
0 0 0 0 0 
0 0 0 0 0 
0 0 0 0 0 
0 0 0 0 0 
0.07793566567919433 -0.3027781035894023 0 0 0 
0 0 0 0 0 
0 0 0 0 0 
0 0 0 0 0 
0 0 0 0 0 
0 0 0 0 0 
0 0 0 0 0 
0 0 0 0 0 
0 0 0 0 0 
0 0 0 0 0 
0 0 0 0 0 
0 0 0 0 0 
0 0 0 0 0 
0 0 0 0 0 
0 0 0 0 0 
0 0 0 0 0 
0 0 0 0 0 
0 0 0 0 0 
0 0 0 0 0 
0 0 0 0 0 
0 0 0 0 0 
0 0 0 0 0 
0 0 0 0 0 
0.1409503645108737 0 0 0 0 
0 0 0 0 0 
0 0 0 0 0 
-0.1358972490126305 0 0 0 0 
-0.01291559657807957 0 0 0 0 
-0.05309139571830635 0 0 0 0 
0.1438113774502898 0 0 0 0 
0 0 0.1782319949030614 0 0 
0 0 0 0 0 
-0.06750685048104257 0 0 0 0 
0 0 0 0 0 
0 0 0 0 0 
-0.05669148582244565 0 0 0.007618292648985676 0 
0 0 0 0 0 
0 0 0 0 0 
0.02552893269487558 0 0 0 0 
0 0 0 0.01729239942366578 0 
0 0 0 0.03337057803417286 0 
0 0 0 0 0 
0 0 0 0 0 
0 0 0 0 0 
-0.07678793024251770 0 0 0.04926438001236104 0 
0 0 0 0 0 
0.007265353925574723 0 0 0 0 
0 0 0 0 0 
0 0 0 0 0 
0 0 0 0 0 
0 0 0 0 0 
0 0 0 0 0 
0 0 0 0 0 
0 0 0 0 0 
-0.03699881375362042 0.1022091728432398 0 0 0 
0 0 0.05034860303138218 0 0 
0 0 0 0 0 
0 0 0 0 0 
0.03698142139473667 0 0 0 0 
0.03716593140335443 0 0 0 0 
0 0 0 0.3100145361338074 0 
0 0 0 0 0 
-0.1232158940253335 0 0 0 0 
0 0 0 0 0 
0 0 0 0 0 
0 0 0 0 0 
0 0 0 0 0 
0 0 0 0 0 
0 0 0 0 0 
0 0 0 0 0 
0 0 0 0 0 
0 0 0 0 0 
0 0 0 0 0 
0 0 0 0.1952314263969274 0 
0 0 0 0 0 
0 0 0 0 0 
0.04151719542815599 0 0 0 0 
0 0 0 0 0 
0 0 0 0 0 
0 0 0 0 0 
0 0 0 0 0 
0 0 0 0 0 
0 0 0 0 0 
0 0 0 0 0 
0 0 0 0 0 
0 0 0 0 0 
0 0 0 0 0 
0 0 0 0.02222615188022530 0 
0 0 0.07703737807488852 0 0 
0 0 0 0 0 
0 0 0 0 0 
0 0 0 0 0 
0 0 0 0 0 
0 0 0 0 0 
0 0 0 0 0 
-0.007290615585630739 0 0 0 0 
0 0 0 0 0 
0 0 0 0 0 
0 0 0 0 0 
0 0 0 0 0 
0 0 0 0 0 
0 0 0 0 0 
0 0 0 0 0 
0 0 0 0 0 
0 0 0 0 0 
0 0 0 0 0 
0 0 0 0 0 
0 0 0 0 0 
0 0 0 0 0 
0 0 0 0 0 
0 0 0 0 0 
0 0 0 0 0 
0 0 0 0 0 
0.02891244375185224 0 0 0 0 
0 0 0 0 0 
0 0 0 -0.02734721620045653 0 
0 0 0 0 0 
0 0 0 0 0 
-0.3964347436212382 0 0 0 0.2179163595720893 
0 0 0 0 0 
-0.1490030266247009 0 0 0 0.01220266107125909 
0 0 0 0 0 
0 0 0 0 0 
-0.06444164907355814 0 0 0 0.3977134918759834 
0 0 0 0 0 
0 0 0 0 0 
0 0 0 0 0 
0 0 0 0 0 
0 0 0 0 0 
0 0 0 0 0 
0 0 0 0 0 
0 0 0 0 0 
0 0 0 0 0 
0.2624329347849528 -0.4301397445476690 -0.4013409849969925 -0.2242233442678401 0 
0 0 0 0 0 
0 0 0 0 0 
0.07103965245918281 0 -0.001672707730146888 0 0.2578573292916963 
0 0 0 0 0 
0 0 0 0 0 
0 0 0 0 0 
0 0 0 0 0 
0 0 0 0 0 
0 0 0 0 0 
-0.01932037789134972 0.01032054993633766 0.02581061587093790 0 0 
0 0 0 0 0 
0 0 0 0 0 
0.06564180614532131 0.006727769023299424 -0.01384968805141616 0 0 
0 0 0 0 0 
0 0 0 0 0 
0 0 0 0 0 
0 0 0 0 0 
0 0 0 0 0 
0 0 0 0 0 
0 0 0 0 0 
0 0 0 0 0 
0 0 0 0 0 
-0.1117897608939620 0 0.004863346120866141 0 0 
-0.08492395019291885 0.1184914124620651 0.06115342185554318 0.01854096159436559 0.2768476224706810 
0 0 -0.05847096789224700 0.01087175966750231 0.04727772118440512 
0.1192883204019024 -0.04861220029801575 -0.3327590687410696 0 0 
0 0 0 0 0 
-0.1448528004286130 0 0 0.3326055216557752 0 
-0.1700285245496951 0.1411746582274891 -0.1900045558230069 0.08217993862201364 0 
0.2572136402986037 -0.5815186763994513 -0.3306732318496899 -0.5160409318932098 0 
0 0 0 0 0 
0.1811272054200314 -0.2062008313384383 0 0 0 
0.1387377288982475 0 0 0 0 
0 0 0 0 0 
0 0 0 0 0 
0 0 0 0 0 
0 0 0 0 0 
0.06038382392026911 0 0 0 0 
0 0 0 0 0 
0 0 0 0 0 
0.004700612234106639 0 0.01857163711523024 0 0 
-0.02137210335712434 -0.1620184050879768 0 -0.01061289609478669 0 
0 0 0 0 0 
0 0 0 0 0 
0 0 0.1997095301628191 0 0 
-0.06540614702023505 0.02199566636174248 0.01982159519542130 0.05293896582228059 0 
0.04181259942838402 0 0.03123721215376880 0 0 
0 0 0 0 0 
0 0 0 0 0 
0 0 0 0 0 
0.01857979229223984 -0.02325407946233631 -0.005942623479846781 -0.002060723532638405 -0.001149459417715710 
0 0 0 0 0 
0 0 0 0 0 
0 0 0 0 0 
0 0 0 0 0 
-0.05651189129297825 0.01459732715990035 0.1345401235332906 0.01067313146875450 0 
0 0 0 0.2562194811246895 0 
0 0 0 0 0 
0 0 0 0 0 
0 0 -0.08815793557911697 0 0 
0.02432663912563236 0 -0.01630229707750654 0 0 
0 0 0 0 0 
0.3348057184030461 0 -0.2248328681626586 -0.2928166392144438 0 
0 0 0 0 0 
0 0 0 0 0 
0 0 0 0 0 
0 0 0 0 0 
0 0 -0.1578664225246509 0 0 
0 0 0 0 0 
0 0 0 0 0 
0.01327069952166177 0 0 0 0 
0 0 0 0 0 
0 0 0 0 0 
0.02288302367982981 0 0 0 0 
0 0.3812327619823623 0 0 0 
0 0 0 0 0 
0 0 0 0 0 
0 0 0 0 0 
0 0 0 0 0 
0 0 0 0 0 
0 0 0 0 0 
0 0 0.06850527688441942 0 0 
0 0 0 0 0 
0 0 0 0 0 
0 0 0 0 0 
0 0 0 0 0 
0 0 0 0 0 
0 0 0 0 0 
0 0 0 0 0 
0 0 0 0 0 
0 0 0 0 0 
0 0 0 0 0 
0 0 0 0 0 
0 0 0 0 0 
0 0 0 0 0 
-0.4304165794906861 0 0 0.4873492956737451 0.2665594310181822 
0 0 0 0 0 
0 0 0 0 0 
0 0 0 0 0 
0 0 0 0 0 
0 0 0 0 0 
0 0 0 0 0 
0 0 0.03893979967839997 0 0 
0 0 0 0 0 
0 0 0 0 0 
0 0 0 0 0 
0 0 0 0 0 
-0.1470095560703920 0.3027201493486439 0 0.3200699398584176 0 
0 0 0 0 0 
0 0 0 0 0 
0 0 0 0 0 
0 0 0 0 0 
0 0 0 0 0 
0.08529102706254339 0 0 0 0 
0.1869356158383199 -0.1568430411479343 -0.003041133708843425 -0.1099449943516544 0 
0 0 0 0 0 
0 0 0 0 0 
0 0 0 0 0 
0 0 0 0 0 
0 0 0 0 0 
0.4873503787365462 -0.2703988475029438 -0.1673116897555619 -0.2716768473212250 0 
0 0 0 0 0 
0.02917670236638190 0.3164165879331484 0 0 0 
0 0.07534348241919642 0 0 0 
0 0 0 0 0 
0 0 0 0 0 
0 0 0 0 0 
0 0 0 0.1181266908283260 0 
0 0 0 0 0 
0 0 0 0 0 
0 0 0 0 0 
0 0.03406215752873469 0 0 0 
0 0.1038428470663683 0 0 0 
0 0 0.06192429329350811 0 0 
0 0 0.06371916206375172 0 0 
0 0 0 0 0 
0 0 0 -0.009539038813664358 0 
0 0 -0.02764354279077794 0 0 
0 0 0 0 0 
0 0 0 0 0 
-0.1902904951080956 0 0 0 0 
-0.009494915399055280 0 0.007265532510946494 0 0 
0 0 0 0 0 
0 0 0 0 0 
0 0 0 0 0 
0 0 0 0 0 
-0.4120778712548499 0 0.3193219886842538 0 0 
0 0 0.1646182927081905 0 0 
-0.08312673919841311 0 -0.05018641989938503 0 0.01382344872978925 
0 0 0 0 0 
0.6132609604688686 0 0 0 0 
0 0 0 0 0 
0.03279538977026249 -0.2095178635521690 0 -0.01773402497603508 0 
-0.06343682637411646 0.04469158151400855 0.1591891028872842 0 0 
0 0.1211680775224537 -0.01414208736821830 0 0 
0.02201680532045201 -0.05333035392224517 0 -0.08592454696154820 0 
0 0 0 0 0 
0.3013707529345420 0 0 0 0 
0 0 0 0 0 
0 0 0 0 0 
0 0 0 0 0 
0 0 0 0 0 
0 0 0 0 0 
0 0 0 0 0 
0 0 0 0 0 
0 0 0 0 0 
0 0 0 0 0 
0 0 0 0 0 
0 0 0 0 0 
0 0 0 0 0 
0 0 0 0 0 
0 0 0 0 0 
0 0 0 0 0 
0 0 0 0 0 
0 0 0 0 0 
0 0 0 0 0 
0 0 0 0 0 
0 0 0 0 0 
0 0 0 0 0 
0 0 0 0 0 
0 0 0 0 0 
0 0 0 0 0 
0 0 0 0 0 
0 0 0 0 0 
0 0 0 0 0 
0 0 0 0 0 
0 0 0 0 0 
0 0 0 0 0 
0 0 0 0 0 
0 0 0 0 0 
0 0 0 0 0 
0 0 0 0 0 
0 0 0 0 0 
0 0 0.1703764558419491 0 0 
0 0 0 0 0 
0 0 0 0 0 
0 0 0 0 0 
0 0 0 0 0 
0 0 0 0 0 
0 0 0 0 0 
0 0 0 0 0 
0 0 0 0 0 
0 0 0 0 0 
0 0 0 0 0 
0 0 0 0 0 
0 0 0 0 0 
0 0 0 0 0 
0 0 0 0 0 
0 0 0 0 0 
0 0 0.2738199680036275 0 0 
0 0 0 0 0 
0 0 0 0 0 
0 0 0 0 0 
0.07258590541192762 0 0 0 0 
0 0 0 0 0 
0 0 0 0 0 
0 0 0 0 0 
0 0 0 0 0 
0 0 0 0 0 
0 0 0 0 0 
0 0 0 0 0 
0 0 0 0 0 
0 0 0 0 0 
0 0 0 0 0 
0 0 0 0 0 
0.01725527552523070 0 -0.01459020428472876 0 0 
0.2035155130490550 0 0 0 0 
0 0 0 0 0 
0 0 0 0 0 
0 0 0 0 0 
0.07923463790610707 0 0 0 0 
0.08659425839234311 -0.2305877799508447 -0.04433593263707273 -0.1655705809520997 0 
0 0 0 0 0 
0.3535149407083888 -0.05887724906683300 0.03273128088040959 0.04548189541374544 0.04472767584672838 
-0.04041964779872327 0.1187888759564968 -0.2360827905921393 -0.003303477329265136 0.1586028496165011 
0 0 0 0 0 
0.1639883748546619 -0.09611182098920340 -0.08187805021940335 -0.1617797767443790 -0.4296262771496022 
0.1425502733194105 -0.2323879645382466 0 -0.1279825122391393 0 
0.03942479525695908 0.1565175755030981 -0.6653404708064259 -0.7518881716362955 0.1105175621868463 
0.008070557712806561 -0.05454929333041613 -0.001664865869746904 -0.05481238387449879 -0.02787110026580729 
0 0 0 0 0 
0 0 -0.04493102113777264 0 0 
0.009836249931284280 0.002357016980415035 -0.01233701207552621 -0.009965269109832479 0.01199161040900528 
0 0 0 0 0 
0 0 0 0 0 
0 0 0 0 0 
0.08535453762336978 -0.8364707529121778 0.03113858864569631 -0.3520610127161459 -0.05346216642784001 
0 0 0 0 0 
0 0 0 0 0 
0.06330645279795827 0 0 0 0 
0.02536494160903210 -0.3936628826901450 -0.5019567857967414 0.3017259285855873 0.05434730937133708 
0.1889171804575930 -0.2318461628197557 -0.09201796620277243 0.05023825722387838 0.06544780168002158 
0.06830675141183538 -0.6121427064506217 -0.0001247884267612560 -0.1872354357317408 0 
0 0 0 0 0 
0 0 0 0 0 
0 0 0 0 0 
0 0 0 0 0 
0 0 0 0 0 
0 0 0 0 0 
0 0 0 0 0 
0 0 0 0 0 
0 0 -0.1387116139693091 0.3786468189331394 0 
0 0 -0.04786679559136320 0.01592079184125025 0 
0 0 0 0 0 
0 0 0 0 0 
0 0 0 0 0 
-0.006126559009249490 -0.006849753089810318 0.01194218736389174 0.01024738530727171 -0.0008530526768031623 
0.2497965670236089 0 0 0 0 
0 0 0 0 0 
-0.01330337506827271 -0.07165288964299091 -0.03254440053109742 0.04579966251889626 0.01184021058127267 
0 0 0 0 0 
0 0 0 0 0 
-0.01145135811576871 0.002786529416118274 0.01425046264242884 0.04632604130214899 0.02106785496867170 
0 0 0 0 0 
0 0 0 0 0 
0 0 0 0 0 
0 0 0 0 0 
0 0 0 0 0 
0 0 0 0 0 
0 0 0 0 0 
0 0 0 0 0 
0 0 0 0 0 
0 0 0 0 0 
0 0 0 0 0 
0 0 0 0 0 
0 0 0 0 0 
0 0 -0.07908642284711567 0.2439569009343758 0 
0 0 0 0 0 
0 0 0 0 0 
0 0 0 0 0 
0 0 0 0 0 
0 0 0.1138940328624344 0 0 
0 0 0 0 0 
0 0 0 0 0 
0 -0.006192192485959179 0 0 0 
0 0 0 0 0 
0 0 0 0 0 
0 0 0 0 0 
0 0 0 0 0 
0.02728025603941529 -0.06806852626929527 -0.1566079411631961 -0.09055132907820923 0 
0 0 0 0 0 
0 0 0 0 0 
0 0 0 0 0 
0 0 0 0 0 
0 0 0 0 0 
0 0 0 0 0 
0 0 0 0 0 
0 0 0 0 0 
0 0 0 0 0 
0 0 0 0 0 
0 0 0 0 0 
0.006599778088026505 0 0 0 0 
0 0 0 0 0 
0 0 0 0 0 
0 0 0 0 0 
0.08853365287232223 -0.1131843646053860 -0.006062086900806599 0 0 
0 0 0 0 0 
0 0 0 0 0 
0 0 0 0 0 
0 -0.2419889188921678 0 0 0 
-0.01507769577043180 0 0 0.07214179588826160 0 
0 0 0 0 0 
0 0 0 0 0 
0 0 0 0 0 
0 0 0 0 0 
0 0 0 0 0 
0 0 0 0 0 
0 0 0 0 0 
0 0 0 0 0 
0 0 0 0 0 
0 0 0 0 0 
0 0 0 0 0 
0 0 0 0 0 
0 0 0 0 0 
0 0 0 0 0 
0 0 0 0 0 
0 0 0 0 0 
0 0 0 0 0 
0 0 0 0 0 
0 0 0 0 0 
0 0 0 0 0 
0.01375470246702067 0.02411869700801110 0.01191047424517300 0 0 
0 0 0 0 0 
0 0 0 0 0 
0 0.08330487931172835 0 0.01780598260434974 0 
0 0 0 0 0 
0 0 0 0 0 
0 0 0 0 0 
-0.01938176571874617 0 -0.01837313389574885 0.06456906717261157 0 
0 0 0 0 0 
0 0 0 0 0 
0 0 0 0 0 
0 0 0 0 0 
0 0 0 0 0 
0 0 0 0 0 
0 0 0 0 0 
0 0 0 0 0 
0 0 0 0 0 
0 0 0 0 0 
0 0 0 0 0 
0 0 0 0 0 
0 0 0 0 0 
0 0 0 0 0 
0 0 0 0 0 
0 0 0 0 0 
0 0 0 0 0 
0 0 0 0 0 
0 0 0 0 0 
0 0 0 0 0 
-0.03769850060719206 -0.02519072292986668 0.03161343088539961 0 0 
0 0 0 0 0 
0 0 0 0 0 
0 0 0 0 0 
0 0 0 0 0 
0 0 0 0 0 
0 0 0 0 0 
0 0 0 0 0 
0.04095612540994877 -0.03610443273972228 0 0 0 
-0.006836315120075156 0.01475179167335606 -0.05645148643146514 0.007299447683349564 0.002383607703454456 
0.01421495987016407 0.01967055284121847 0.01772995244016000 -0.0007787907834546617 -0.02915088530237819 
-0.01355211846262583 0.02086711838013157 0.01488320556166593 0.02799596968559141 0 
0.002988717733751110 0.007849381632712572 0.004952326671481447 0.03335554101795078 0.0001191068160653977 
0 0 0 0 0 
0 0 0 0 0 
0.03948922471732416 0.1223067385820770 0.004511240327415320 -0.01613032861336100 0 
0 0 0 0 0 
0 0 0.1876554188908843 0 0 
0.01218190002114195 -0.5701680587811593 0.006450458505865201 -0.1622540013614788 0 
-0.02917682135760112 0.009169943242644318 0.08128564428528508 0 -0.001085199015931851 
0 0 0 0 0 
0 0 0 0 0 
0 0 0 0 0 
0 0 0 0 0 
0 0 0 -0.04057439514230101 0 
0 0 0 0 0 
0 0 0 0 0 
0 0 0 0 0 
0 0 0 0 0 
0 0 0 0 0 
0 0 0 0 0 
0 0 0 0 0 
0 0 0 0 0 
0 0 0 0 0 
0 0 0 0 0 
0 0 0 0 0 
0 0 0 0 0 
0 0 0 0 0 
0 0 0 0 0 
0 0 0 0 0 
0 0 0 0 0 
0 0 0 0 0 
0 0 0 0 0 
0 0 0 0 0 
0 0 0 0 0 
0 0 0 0 0 
0 0 0 0 0 
0 0 0 0 0 
0 0 0 0 0 
0 0 0 0 0 
0 0 0 0 0 
0 0 0 0 0 
0 0 0 0 0 
0 0 0 0 0 
0 0 0 0 0 
0 0 0 0 0 
0 0 0 0 0 
0 0 0 0 0 
0 0 0 0 0 
0 0 0 0 0 
0 0 0 0 0 
0 0 0 0 0 
0 0 0 0 0 
0 0 0 0 0 
0.01239746358754980 0 0 0 0 
0 0 0 0 0 
-0.2465326937077761 0 0 0 0 
0 0 0 0 0 
0 0 0 0 0 
0 0 0 0 0 
0 0 0 0 0 
0 0 0 0 0 
0 0 0 0 0 
0 0 0 0 0 
0.01251250161852691 0 0 0 0 
0 0 0 0 0 
0 0 0 0 0 
0 0 0 0 0 
0 0 0 0 0 
0 0 0 0 0 
0 0 0 0 0 
0 0 0 0 0 
0 0 0 0 0 
0 0 0 0 0 
0 0 0.01361401350872689 0 0 
0 0 0 0 0 
0 0 0 0 0 
0 0 0 0 0 
0 0 0 0 0 
0 -0.04390819561287873 0 0 0 
0 0 0 0 0 
0 0 0 0 0 
0 0 0 0 0 
0 0 0 0 0 
0 0 0 0 0 
0 0 0 0 0 
0 0 0.07755412713213627 0 0 
0 0 0 0 0 
0.04451885671490140 0.008489915721638779 -0.05954154923579931 -0.007735012673283765 -0.0004200529207899437 
0.3099499639447700 0 0 0 0 
0 0 0 0 0 
0 0 0 -0.01884829963485235 0 
0 0 -0.1737058042622065 0.2964810568639272 0 
0 0 0 0 0 
0.09918723161207961 0 0 0 -0.001389927102341915 
0 0 0 0 0 
0 0 0 0 0 
0.2061088252635280 0 0 0 0 
0 0 0 0 0 
0 0 0 0 0 
0 0 0 0 0 
0 0 0 0 0 
0 0 0 0 0 
0.4605481400127365 0 0 0 0 
0 0 0 0 0 
0 0 0 0 0 
0 0 0 0 0 
0.007937313366149085 0 0 0 0 
0 0 0 0 0 
0 0 0 0 0 
0 0 0 0 0 
0 0 0 0 0 
0 0 0 0 0 
0 0 0 0 0 
0.1042326869478265 0 0 0 0 
0.07920693795251021 0 0 0 0 
0 0 0 0 -0.03854106432079928 
0 0 0 0 0 
0 0 0 0 0 
0 0 0 0 0 
0 0 0 0 0 
0 0 0 0 0 
0 0 0 0 0 
0 0 0 0 0 
0 0 0 0 0 
0 0 0 0 0 
0 0 0 0 0 
0 0 0 0 0 
-0.1030543763882437 0.1012540151098552 0.1279840958976509 0 -0.06374924075737540 
0 0 0 0 0 
0 0 0 0 0 
0 0 0 0 0 
-0.09012819694738776 0 0 0 0 
0 0 0 0 0 
0 0 0 0 0 
0 0 0 0 0 
0 0 0 0 0 
0 0 0 0 0 
0 0 0 0 0 
0 0 0 0 0 
0 0 0 0 0 
0 0 0 0 0 
0 0 0 0 0 
0 0 0 0 0 
0 0 0 0 0 
0.03370444694467607 -0.006004809652237160 0 0 0 
0 0 0 0 0 
-0.2120025758309554 -0.002650143931290643 0.009551876565957636 0.4849036804689853 0 
0 0.05042635856793147 0 0 0 
0 0 0 0 0 
0.0001258487951070926 0 0 0 0 
0 0 0 0 0 
0 0 0 0 0 
0 0 0 0 0 
0 0 0 0 0 
0 -0.03842918117491059 0 0 0 
0 0 0 0 0 
0 0 0 0 0 
0 0 0 0 0 
0 0 0 0 0 
0 0 0 0 0 
0 0 0 0 0 
-0.1864425839600233 0 0 0.4560019833365997 0 
0 0 0.2006967534665126 0 0 
0 0 0 0 0 
0 0 0 0 0 
0.008073631844257180 0 0 0 0 
0 0 0 0 0 
0 0 0 0 0 
0 0 0 0 0 
0 0 0 0 0 
0 0 0 0 0 
0 0 0 0 0 
0 0 0 0 0 
0 0 0 0 0 
-0.5132747380473176 0 0 0 0 
0 0 0 0 0 
0 0 0 0 0 
-0.1758445363793605 0 0 0 0 
0 0 0 0 0 
0 0 0 0 0 
0 0 0 0 0 
0.1879249756331128 0 0 0 0 
0 0 0 0 0 
0 0 0 0 0 
0 0 0 0 0 
0 0 0 0 0 
0 0 0 0 0 
0 0 0 0 0 
0 0 0 0 0 
0.1266174287679856 -0.04235904891086152 0 0 0 
0 0 0 0 0 
0 0 0 0 0 
0 0 0 0 0 
0 0 0 0 0 
0 0 0 0 0 
0.007136899318619104 0.02867160544555074 0 0 0 
0 0 0 0 0 
0 0 0 0 0 
0 0 0 0 0 
-0.1029445278669446 0.08447157829628779 0.1759477158175554 0 0 
-0.06160224482060329 0 0.03864164468048539 0 0 
0 0 0 0 0 
0 0 0 0 0 
0 0 0 0 0 
0 0 0 0 0 
0 0 0 0 0 
0 0 0 0 0 
0 0 0 0 0 
0 0 0 0 0 
0 0 0 0 0 
0 0 0 0 0 
0 0 0 0 0 
0 0 0 0 0 
0 0 0 0 0 
0 0 0 0 0 
0 0 0 0 0 
-0.05034481061835511 0.1526660662976532 0.01895124243344306 0 0 
0 0 0 0 0 
-0.07118455481567420 -0.09108261774800554 0.05975023634848549 0 0 
0 0 0 0 0 
0 0 0 0 0 
0 0 0 0 0 
0 0 0 0 0 
0 0 0 0 0 
0 0 0 0 0 
0 0 0 0 0 
0 0 0 0 0 
0 0 0 0 0 
0 0 0 0 0 
0 0 0 0 0 
0 0 0 0 0 
0 0 0 0 0 
-0.06665283412470234 0.1477960332382012 0 0.2740441396460393 0 
0 0 0 0 0 
0 0 0 0 0 
0 0 0 0 0 
0 0 0 0 0 
0 0 0 0 0 
0 0 0 0 0 
0 0 0 0 0 
0 0 0 0 0 
0 0 0 0 0 
0 0 0 0 0 
0 0 0 0 0 
0 0 0 0 0 
0 0 0 0 0 
0 -0.06065213610883984 0 0 0 
0 -0.03556196121104576 0 0 0 
0 0 0 0 0 
0.05432025238227968 0 -0.01455413516399073 0 0 
0.2727085894115237 -0.02034154412711418 -0.3301797016127517 0 0 
0 0 0 0 0 
0 0 0 0 0 
0 0 0 0 0 
0 0 0 0 0 
0 0 0 0 0 
0 0 0 0 0 
0 0 -0.1070555050753902 0 0 
0 0 0 0 0 
0 0 0 0 0 
0 0 0 0 0.1468216536386728 
0 0 0 0 0 
0 0 0 0 0 
0 0 0 0 0 
0 0 0 0 0 
0 0 0 0 0 
0 0 0 0 0 
-0.1772023177913462 0.2193480128322819 0 0 0 
0 0 0 0 0 
0 0 0 0 0 
0 0 0 0 0 
0 0 0 0 0 
-0.003637180536106677 0 0 -0.007838677015319814 0 
0 0 0 0 0 
0 0 0 0 0 
0 0 0 0 0 
0 0 0 0 0 
0 0 0 0 0 
0 0 0 0 0 
0 0 0 0 0 
0 0 0 0 0 
0 0 0 0 0 
0 0 0 0 0 
0 0 0 0 0 
0 0 0 0 0 
0 0 0 0 0 
0 0 0 0 0 
0 0 0 0 0 
0 0 0 0 0 
0 0 0 0 0 
0 0 0 0 0 
0 0 0 0 0 
0 0 0 0 0 
-0.002729546419699418 0 0 0 0 
-0.02222107978114979 0.1436955903335457 0 0 0 
0 0 0 0 0 
0 0 0 0 0 
0 -0.003892670885974892 0 0 0 
0 0 0 0 0 
0 0 0 0 0 
0 0.01035829649768117 0 0 0 
0 0 0 0 0 
0 0 0 0 0 
0 0.3678312978990748 -0.06510730168768472 0 0 
0 0 0 0 0 
0 0 0 0 0 
0 0 0 0 0 
0 0 0 0 0 
0 0 0 0 0 
0 0 0 0 0 
0 0 0 0 0 
0 0 0 0 0 
0 0 0 0 0 
0 0 0 0 0 
0 0 0 0 0 
0.007449809692553877 0 0 0 0 
0 0 0 0 0 
0 0 0 0 0 
0 0 0 0 0 
0 0 0 0 0 
-0.2724120224773060 0 0.3436466417521583 0.1574961149939806 0 
0 0 0 0 0 
0 0 0 0 0 
0 0 0 0 0 
0 0 -0.0001893169718633440 0.2404257720902152 0 
0 0 0 0 0 
0 0.5291262094519698 -0.08325998341478957 0 0 
0 0 0 0 0 
0 0 0.1738416912742151 0 0 
0 0 0 0 0 
0 0 0 0 0 
0 0 0 0 0 
0 0 0 0 0 
0 0 0.006368667704197393 0 0.0005598580291391939 
0.1654966434941096 0 0 0 0 
0 0 0 0 0 
0 0 0 0 0 
0 0 0 0 0 
0 0 0 0 0 
0 0 0 0 0 
0 0 0 0 0 
-0.004076813016857014 0 0.06121758541735654 0 0 
0.03224281246530947 0 0.5096354220902617 0 0 
-0.06711552414544811 0 0 0.06337923226692165 0 
0 0 0 0 0 
0 0 0 0 0 
0 0.2355835368694845 0 0 0 
0 0 0 0 0 
0 0 0 0 0 
0.05957006639167713 0 -0.1671182295822896 0 0 
0 0 0 0 0 
0 0 0 0 0 
0 0 0 0 0 
0 0 0 0 0 
0 0 0 0 0 
0 0 0 0 0 
0 0 0 0 0 
0 0 0 0 0 
0 0 0 0 0 
0 0 0 0 0 
0 0 0 0 0 
0 0 0 0 0 
0 0 0 0 0 
0 0 0 0 0 
0 0 0 0 0 
0.08788484875482272 0.2025858934796821 -0.1092398224324091 0 0 
0 0 0 0 0 
0 0 0 0 0 
0 0 -0.003426715519696963 0 0 
0 0 -0.01385064807434531 0 0 
0 0 -0.02624564030425508 0 0 
0 0 0 0 0 
0 0 0 0 0 
0 0 0 0 0 
0 0 0 0 0 
0 0.3553235683236113 0 0 0 
0 0 0 0 0 
0 0 0 0 0 
0 0 0 0 0 
0 0 0 0 0 
0 0 0 0 0 
0 0 0 0 0 
0 0 0 0 0 
0 0 -0.02372871365284303 0.1883265532447253 0 
-1.054010322162039 0 0.01354003484557255 0 0 
0 0 0 0 0 
0 0 0 0 0 
0 0 0 0 0 
0 0 0 0 0 
0 0 0 0 0 
0 0 0 0 0 
0 0 0 0 0 
0 0 0 0 0 
0 0 0 0 0 
0 0 0.1467818928142268 0 0 
0 0 0 0 0 
0 0 0 0 0 
0.05277259807829854 -0.02228892695100294 0 0 0 
0 0 0 0.05074133850295315 0 
0 0 0 0.6520471609950026 0 
0 0 0 0 0 
0 0.04018726976955767 -0.2956624520897372 0 0 
0 0 0 0 0 
0 0 0 0 0 
0 0 0 0 0 
0 0 -0.03760074389795773 0 0 
0 0 0 0 0 
0 0 0 0 0 
0 0 0 0 0 
0 0 0 0.05088467213027104 0 
0 0 0 0 0 
0 0 0 0 0 
0 0 0 0 0 
0 0 0 0 0 
0 0 0 0 0 
0 0 0 0 0 
0 0 0 0 0 
0 0 0 0 0 
0 0 0 0 0 
0 0 0 0 0 
0 0 0 0 0 
0 0 0 0 0 
0 0 0 0 0 
0 0 0 0 0 
0 0 0 0 0 
0 0 0 0 0 
-0.07554714144071566 0 0.1579512071468639 0 0 
0 0 0 0 0 
0 0 0 0 0 
0 0 0 0 0 
0 0 0 0 0 
0 0 0 0 0 
0 0 0 0 0 
0 0 0 0 0 
0 0 0 0 0 
0 0 0 0 0 
0 0 0 0 0 
0 0 0 0 0 
0 0 0 0 0 
0 0 0 0 0 
0 0 0 0 0 
0 0 0 0 0 
0 0 0 0 0 
0 0 0 0 0 
-0.02501267370097121 0 0 0 0 
0 0 0.3051309516018033 0 0 
0 0 0 0 0 
0 0 0 0 0 
0 0 0 0 0 
0 0 0 0 0 
0 0 0 0 0 
0 0 0 0 0 
0 0 0 0 0 
0 0 0 0 0 
-0.9123948330755107 0 0.1021881739076931 0 0 
0 0 0 0 0 
-0.2898313458915540 0 0.3181556798029547 0.4882255907264707 0 
0 0 0 0 0 
0 0 0 0 0 
0 0 0 0 0 
0 0 0 0 0 
0 0 0 0 0 
0 0 0 0 0 
0 0 0 0 0 
0 0 0 0 0 
0 0 0 0 0 
0 0 0 0 0 
0 0 0 0 0 
0 0 0 0 0 
0 0 0 0 0 
0 0 0 0 0 
0 0 0 0 0 
0 0 0 0 0 
0 0 0 0 0 
0 0 0 0 0 
0 0 0 0 0 
0 0 0 0 0 
0 0 0 0 0 
0 0 0 0 0 
0 0 0 0 0 
0 0 0 0 0 
0 0 0 0 0 
0 0 0 0 0 
-0.06089614046230280 0 0.1914818445091409 0 0 
0 0 0 0 0 
0 0 0 0 0 
0 0 0 0 0 
0 0 0 0 0 
0 0 0 0 0 
0 0 0 0 0 
0 0 0 0 0 
0 0 0 0 0 
0 0 0 0 0 
0 0 0 0 0 
0 0 0 0 0 
0 0 0 0 0 
0 0 0 0 0 
0 0 0 0 0 
0 0 0 0 0 
0 0 0 0 0 
0 0 0 0 0 
0 0 0 0 0 
0 0 0 0 0 
0 0 0 0 0 
0 0 0 0 0 
0 0 0 0 0 
0 0 0 0 0 
0 0 0 0 0 
0 0 0 0 0 
0 0 0 0 0 
0 0 0 0 0 
0 0 0 0 0 
0 0 0 0 0 
0 0 0 0 0 
-0.08162789881319114 0.3165609759303058 0.07989831051789952 0.01227014221099491 0 
0 0 0 0 0 
0 0 0 0 0 
0 0 0 0 0 
0 0 0 0 0 
0 0 0 0 0 
0 0 0 0 0 
0 0 0 0 0 
0 0 0 0 0 
0 0 0 0 0 
0 0 0 0 0 
0 0 0 0 0 
0 0 0 0 0 
0 0 0 0 0 
0 0 0 0 0 
-0.2677899713406155 0 0.2717711540967592 0.2650992815037124 0.1055910042119812 
-0.7950197432946747 0.2119200884722068 0.3849837898996039 0 0.3886633533776453 
-0.5324312329396597 0.02380909020026978 0.3119319647252488 0 0 
0 0 0 0 0 
0.02697184940421470 0 0 0 0 
0 0 0 0 0 
0 0 0 0 0 
0 0 0 0 0 
-0.04051831657555036 0 0.07119553192314682 0 0 
0 0 0 0 0 
0 0 0 0 0 
-0.01029151610896236 0 0 0.09692223804002757 0 
0 0.1592895845665600 0 0 0 
0 0 0 0 0 
0 0 0 0 0 
0 0 0 0 0 
0 0 0 0 0 
0 0 0 0 0 
0 0.003212243139858600 0 0 0 
0 0 0 0 0 
-0.1758227601122945 0.01811614339187744 0.2970204912956307 0.2446417420651500 0 
0 0 0 0 0 
0 0 0 0 0 
0 0 0.01220398159219233 0 0 
0 0 0 0 0 
0 0 0 0 0 
0 0 0 0 0 
0 0 0 0 0 
0.05041640673268095 0 0 0 0 
0 0 0 0 0 
0 0 0 0 0 
0 0 0 0.3332659965919737 0 
0 0 0 0 0 
0 0 0 0 0 
0 0 0 0 0 
0 0 0 0 0 
-0.07130818084435606 0 0.1483236956343861 0.1002468025139172 0 
0 0 0 0 0 
0 0 0 0 0 
0 0 0 0 0 
0 0 0 0 0 
0 0 0 0 0 
-0.4176637978170322 0.3817535441566184 0.6329028775667511 0.5621055394822497 0.3988667414686980 
-0.04365461999113067 0.1830446464227457 0.1110273663280769 0.1418596733231415 0 
0 0 0 0 0 
0 0 0 0 0 
0 0 0 0 0 
0 0 0 0 0 
0 0 0 0 0 
-0.03172572398286425 0 0 0.2806348224355909 0 
0.1385007309074021 -0.03110416604876656 0 -0.04930425127121901 0 
0 0 0 0 0 
0 0 0 0 0 
0 0 0 0 0 
0 0 0 0 0 
0 0 0 0 0 
0 0 0 0 0 
0 0 0 0 0 
-0.2514013833381311 0.2189261604604229 0.01943544734523124 0.02963758962204182 0 
0 0 0 0 0 
0 0 0 0 0 
0 0 0 0 0 
-0.06335924607832352 0 0.002054493563669026 0 0 
0 0.04038325000237843 0 0 0 
0 0 0 0 0 
0 0 0 0 0 
-0.01886702962864040 0 0.2626168139506070 0 0 
0 0 0 0 0 
0 0 0 0 0 
0 0 0 0.2056191698355473 0 
0 0.01759092854313867 0 0 0 
0 0 0 0 0 
0 0 0 0.07523376492491915 0 
0 0 0 0 0 
0 0 0 0 0 
0 0 0 0 0 
0 0 0 0 0 
0 0 0 0 0 
0 0 0 0 0 
0 0 0 0 0 
0 0 0 0 0 
0 0 0 0 0 
0 0 0 0 0 
0 0 0 0 0 
0 0 0 0 0 
0 0 0 0 0 
0 0 0 0 0 
0 0 0 0 0 
0 0 0 0 0 
0 0 0.7080087853581728 0 0 
0 0 0 0 0 
0 0 -0.4514600738385845 0 0 
-0.04253645621622149 0 0 0 0 
-0.02006570474725724 0 0.1035425847501502 0 0 
-0.03835655617635470 0 0 0 0 
0.001688106608041751 0 0 0 0 
-0.08320816746305920 0 0 0 0 
0 0 0 0 0 
0 0 0 0 0 
0 0 0 0 0 
0 0 0 0 0 
-0.0002711623373526262 0 0 0 0 
0 0 0 0 0 
0 0 0 0 0 
0 0 0.3423210795351417 0 0 
0 0 0 0 0 
0 0 0 0 0 
0 0 0 0 0 
0 0 0 0 0 
0 0 0 0 0 
0 0 0 0 0 
0 0 0 0 0 
0 0 0 0 0 
0 0 0 0 0 
0 0 0 0 0 
0 0 0 0 0 
0 0 0 0 0 
0 0 0 0 0 
0 0 0 0 0 
0.02765937208610035 0 0 0 0 
0 0 0 0 0 
0 0 0 0 0 
0 0 0 0 0 
0 0 0 0 0 
0 0 0 0 0 
0 0 0 0 0 
0 0 0 0 0 
0 0 0 0 0 
0 0 0 0 0 
0 0 0 0 0 
0 0 0 0 0 
0 0 0 0 0 
0 0 0 0 0 
0.1126416328338007 0 0 0 0 
0 0 0 0 0 
0 0 0 0 0 
0 0 0 0 0 
0 0 0 0 0 
0 0 0 0 0 
0 0 0 0 0 
0 0 0 0 0 
0 0 0 0 0 
0 0 0 0 0 
0 0 0 0 0 
0 0 0 0 0 
0 0 0 0 0 
0.1492501997639001 0 0 0 0 
0 0 0 0 0 
0 0 0 0 0 
0 0 0 0 0 
0 0 0 0 0 
0 0 0 0 0 
0 0 0 0 0 
0 0 0 0 0 
0 0 0 0 0 
0 0 0 0 0 
0 0 0 0 0 
0 0 0 0 0 
0 0 0 0 0 
0 0 0 0 0 
0 0 0 0 0 
0 0 0 0 0 
0 0 0 0 0 
0 0 0 0 0 
0 0 0 0 0 
0 0 0 0 0 
0 0 0 0 0 
0 0 0 0 0 
0 0 0 0 0 
0 0 0 0 0 
0 0 0 0 0 
-0.02392628611439707 0 -0.01099660915297529 0 0 
0 0 0 0 0 
0 0 0 0 0 
0 0 0 0 0 
0 0 0 0 0 
0 0 0 0 0 
0 0 0 0 0 
0 0 0 0 0 
0 0 0 0 0 
0 0 0 0 0 
0 0 0 0 0.2652521759510397 
0 0 0 0 0 
0 0 0 0 0 
0 0 0 0 0 
0 0 0 0 0 
0 0 0 0 0 
0 0 0 0 0 
0 0 0 0 0 
0 0 0 0 0 
0 0 0 0 0 
0 0 0 0 0 
0 0 0 0 0 
0 0 0 0 0 
0 0 0 0 0 
0 0 0 0 0 
0 0 0 0 0 
0 0 0 0 0 
0 0 0 0 0 
0 0 0 0 0 
0 0 0 0 0 
0 0 0 0 0 
0 0 0 0 0 
0 0 0 0 0 
0 0 0 0 0 
0 0 0 0 0 
0 0 0 0 0 
0 0 0 0 0 
0 0 0 0 0 
0 0 0 0 0 
0 0 0 0 0 
0 0 0 0 0 
0 0 0 0 0 
0 0 0 0 0 
0 0 0 0 0 
0 0 0 0 0 
-0.02330417409893735 0 0 0 0 
0 0 0 0 0 
0 0 0 0 0 
0 0 0 0 0 
0 0 0 0 0 
0 0 0 0 0 
0 0 0 0 0 
0 0 0 0 0 
0 0 0 0 0 
0 0 0 0 0 
0 0 0 0 0 
0 0 0 0 0 
0 0 0 0 0 
0 0 0 0 0 
0 0 0 0 0 
0 0 0 0 0 
0 0 0 0 0 
0 0 0 0 0 
0 0 0 0 0 
0 0 0 0 0 
0 0 0 0 0 
0 0 0 0 0 
0 0 0 0 0 
0 0 0 0 0 
-0.8499248488676616 0 0 0 0.5438675408055055 
0 0 0 0 0 
0 0 0 0 0 
0 0 0 0 0 
0 0 0 0 0 
0 0 0 0 0 
0 0 0 0 0 
0 0 0 0 0 
0 0 0 0 0 
0 0 0 0 0 
0 0 0 0 0 
0 0 0 0 0 
0 0 0 0 0 
0 0 0 0 0 
0 0 0 0 0 
0 0 0 0 0 
0 0 0 0 0 
0 0 0 0 0 
0 0 0 0 0 
0 0 0 0 0 
0 0 0 0 0 
0 0 0 0 0 
0 0 0 0 0 
0 0 0 0 0 
0 0 0 0 0 
0 0 0 0 0 
0 0 0 0 0 
0 0 0 0 0 
0 0 0 0 0 
0 0 0 0 0 
0 0 0 0 0 
0 0 0 0 0 
0 0 0 0 0 
0 0 0 0 0 
0 0 0 0 0 
0 0 0 0 0 
0 0 0 0 0 
0 0 0 0 0 
0.004329387759284059 0 -0.004649398515320749 0 0 
0 0 0 0 0 
0 0 0 0 0 
0 0 0 0 0 
0 0 0 0 0 
0 0 0 0 0 
0 0 0 0 0 
0 0 0 0 0 
0 0 0 0 0 
0 0 0 0 0 
0 0 0 0 0 
0 0 0 0 0 
0 0 0 0 0 
0 0 0 0 0 
0 0 0 0 0 
0 0 0 0 0 
0 0 0 0 0 
0 0 0 0 0 
0 0 0 0 0 
0 0 0.09830413939353444 0 0 
0 0 0 0 0 
0 0 0 0 0 
0 0.006749832010489232 0 0 0 
0 0.2286626018996102 0 0 0 
0 0 0 0 0 
0 0 0 0 0 
0 0 0 0 0 
0 0 0 0 0 
0.04151192707097307 0 0 0 0 
-0.06392437452126665 0 0 0 0 
0 0 0 0 0 
0 0 0 0 0 
0 0 0 0 0 
0 0 0 0 0 
0 0 0 0 0 
0 0 0 0 0 
0 0 0 0 0 
0 0 0 0 0 
0 0 0 0 0 
0 0 0 0 0 
0 0 0 0 0 
0 0 0 0 0 
0 0 0 0 0 
0 0 0 0 0 
0 0 0 0 0 
0 0 0 0 0 
0 0 0 0 0 
0 0 0 0 0 
0 0 0 0 0 
0 0 0 0 0 
0 0 0 0 0 
0 0 0 0.04516824162675440 0 
0 0 0 0 0 
0 0 0 0 0 
0 0 0.02390402905508245 0 0 
0 0 0 0 0 
0 0 0 0 0 
0 0 0 0 0 
0 0 0 0 0 
0 0 0 0 0 
0 0 0 0 0 
0 0 5.239960260539078e-05 0 0 
0 0 0 0.1692503960225449 0 
0 0 0 0 0 
0 0 0 0 0 
0 0 0 0 0 
0 0 0 0 0 
0 0 0 0 0 
0 0 0 0 0 
0 0 0 0 0 
0 0 0 0 0 
0 0 0 0 0 
0 0 0 0 0 
0 0 0 0 0 
0 0 0 0 0 
0 0 0 0 0 
0 0 0 0 0 
0 0 0 0 0 
0 0 0 0 0 
0 0 0 0 0 
0 0 0 0 0 
0 0 0 0 0 
0 0 0 0 0 
0.001179789763001940 0 0 0 0 
0 0 0 0 0 
0 0 0 0 0 
0.05280692945423207 0 0 0 0 
0 0 0 0 0 
0 0 0 0 0 
0 0 0 0 0 
0 0 0 0 0 
0 0 0 0 0 
0 -0.003065329636102145 0 0 0 
0 -0.0001405612507508237 0 0 0 
0 0 0 0 0 
0 0 0 0 0 
0 0 0 -0.1103005811735953 0 
0 0 0 0 0 
0.2982471718784913 -0.1291638090314080 0 -0.2712202608995768 0 
0 0 -0.2213011360984711 0 0 
0 0 0 0 0 
0 0 0 0 0 
0 0 0 0 0 
0 0 0 0 0 
0 0 0 0 0 
-0.002637921271771248 0.1940102259862030 0.003442937289727960 0.04873115170029183 0 
0 0 0 0 0 
0.02882177130676911 0 0 0 0 
0.1335046311754500 -0.1067942540180537 -0.1892989912895817 0 0 
-0.02071300967974263 0 0.04051876253813307 0.1942598163879066 0 
0 0 0 0 0 
0 0 0 0 0 
-0.3206883180072322 0 0.1872424158928544 0 0 
0 0 0 0 0 
0 0 0 0 0 
0 0 0.01153050595780347 0 0 
0.04507217850500503 0 0 0 0 
0.07902222454141135 0 0 0 0 
0 0 0 0 0 
0 0 0 0 0 
0 0 0 0 0 
0 0 -0.03953084798635283 -0.5673629682844253 0 
0 0 0 0 0 
0 0 0 0 0 
0 0 0 0 0 
0 0 0 0 0 
0 0.04056076943603049 0.1091940661183462 0.03507442101520689 0 
0.04985712269682099 0 -0.06344170219816084 0 0 
0 0 0 0 0 
0 0 0 0 0 
0 0 0 0 0 
0 0 0 0 0 
0 0 0 0 0 
0 0 0 0 0 
0 0 0 0 0 
0 0 0 0 0 
0 0 0 0 0 
0 0 0 0 0 
0 0 0 0 0 
0 0 0 0 0 
0 0 0 0 0 
0 0 0 0 0 
0 0 0 0 0 
0 0 0 0 0 
0 0 0 0 0 
0 0 0 0 0 
0 0 0 0 0 
0 0 0 0 0 
0 0 0 0 0 
0 0 0 0 0 
0 0 0 0 0 
0 0 0 0 0 
0 0 0 0 0 
0 0 0 0 0 
0 0 0 0 0 
0 0 0 0 0 
0 0 0 0 0 
0 0 0 0 0 
0 0 0 0 0 
0 0 0 0 0 
0 0 0 0 0 
0 0 0 0 0 
0 0 0 0 0 
0 0 0 0 0 
0 0 0 0 0 
0 0 0 0 0 
0 0 0 0 0 
0 0 0 0 0 
0 0 0 0 0 
0 0 0 0 0 
0 0 0 0 0 
0 0 0 0 0 
0 0 0 0 0 
0 0 0 0 0 
0 0 0 0 0 
0 0 0 0 0 
0 0 0 0 0 
0 0 0 0 0 
0 0 0 0 0 
0 0 0 0 0 
0 0 0 0 0 
0 0 0 0 0 
0 0 0 0 0 
0 0 0 0 0 
0 0 0 0 0 
0 0 0 0 0.1541209099180727 
0 0 0 0 0 
0 0 0 0 0 
0 0 0 0 0 
-0.1489961204129815 0.5057109488554968 0 0 0 
0 0.1298649067860621 0 0 0 
0 0.1846046528631225 0 0 0 
0 0 0 0 0 
0 0 0 0 0 
0 0 0 0 0 
0 0 0 0 0 
0 0 0 0 0 
0 0 0 0 0 
0 0 0 0 0 
-1.364213369951187 0.4709035244205740 0.2263271175978708 0.3782692252847137 0 
0 0 0 0 0 
-0.06082164462338718 0 0.4499619788477577 0 0 
-0.3321641106552432 0 0 0 0 
-0.3068258672113808 0 0 0 0 
0 0 0 0 0 
-0.05308937318285487 0 0.03635793448856632 0 0 
0 -0.02110945687121406 0 0 0 
-0.1819360867490672 0.1403665449245372 0.2108096424385340 0 0 
-0.1081126186867500 -0.004602466940005053 0.03120188935626816 0 0 
0 0 0 0.03151767325147545 0 
0 0 0 0 0 
0 0 0 -0.01492897413136890 0 
0 0.1982138509449532 0 0 0 
0 0 0 0 0 
0 0 0 0 0 
0 0 0 0 0 
0 0 0 0 0 
0 0 0 0 0 
0 0 0 0 0 
0 0 0 0 0 
0 0 0 0 0 
0 0 0 0 0 
0 0 0 0 0 
0 0 0 0 0 
0 0 0 0 0 
0 0 0 0 0 
0 0 0 0 0 
0 0 0 0 0 
0 0 0 0 0 
0 0 0 0 0 
0 0 0 0 0 
-0.1892929684480122 0.2072343709893879 0.3421396534671170 0.1084490280427051 0 
0 0 0 0 0 
0 0 0 0 0 
0 0 0 0 0 
0 0 0 0 0 
0 0 0 0 0 
0.09844863666918482 0 0 0 0 
0 0 0 0 0 
0 0 0 0 0 
0 0 0 0 0 
0 0 0 0 0 
0 0 0 0 0 
0.2013556088522093 0 0 0 0 
0 0 0 0 0 
0 0 0 0 0 
0 0 0 0 0 
0 0 0 0 0 
-0.004345845820860866 0 0 0 0 
-0.07768132700111598 0 0 0 0 
0 0 0 0 0 
0 0 0 0 0 
0 0 0 0 0 
0 0 0 0 0 
0 0 0 0 0 
0 0 0 0 0 
0 0 0 0 0 
0 0 0 0 0 
0 0 0 0 0 
0 0 0 0 0 
0 0 0 0 0 
0 0 -0.02423872801061220 0 0 
0 0 0 0 0 
0 0 0 0 0 
0 0 0 0 0 
0 0 0 0 0 
0 0 0 0 0 
0 0 0 0 0 
0 0 0 0 0 
0 0 0 0 0 
0 0 0 0 0 
0 0 0 0 0 
0 0 0 0 0 
0 0 0 0 0 
0 0 0 0 0 
0 0 0 0 0 
0 0 0 0 0.001495580340912739 
0 0 0 0 0 
0 0 0 0 0 
0 0 0 0 0 
0 0 0 0 0 
0 0 0 0 0 
0 0 0 0 0 
0 0 0 0 0 
0 0 0 0 0 
0 0 0 0 0 
0 0 0 0 0 
0 0 -0.01303823606587407 0 0 
0 0 0 0 0 
0 0 0 0 0 
0 0 0 0 0 
0 0 0 0 0 
0 0 -0.001437041585067855 0 0 
0 0 0 0 0 
0 0 0 0 0 
0 0 0 0 0 
0 0 0 0 0 
0 0 0 0 0 
0 0 0 0 0 
0 0 0 0 0 
0 0 0 0 0 
0 0 0 0 0 
0 0 0 0 0 
0 0 0 0 0 
0 0 0 0 0 
0 0 0 0 0 
0 0 0 0 0 
0 0 0 0 0 
0 0 0 0 0 
0 0 0 0 0 
0 0 0 0 0 
0 0 0 0 0 
0 0 0 0 0 
0 0 0 0 0 
0 0 0 0 0 
0 0 0 0 0 
0 0 0 0 0 
0 0 0 0 0 
0 0 0 0 0 
0 0 0 0 0 
0 0 0 0 0 
0 0 0 0 0 
0 0 0 0 0 
0 0 0 0 0 
0 0 0 0 0 
0 0 0 0 0 
0 0 0 0 0 
0 0 0 0 0 
0 0 0 0 0 
0 0 0 0 0 
0 0 0 0 0 
0 0 0 0 0 
0 0 0 0 0 
0 0 0 0 0 
0 0 0 0 0 
0 0 0 0 0 
0.1837982861189603 0 0 -0.04588107313771130 0 
0 0 0 0 0 
0.02708531666153106 0 0 0 0 
-0.4215395271593325 0.3733640002013765 0.4436211059519479 0.7135023806144290 0 
0.003496443549732953 0 0 0 0 
0 0 0 0 0 
0 0 0 0 0 
0 0 0 0 0 
0 0 0 0 0 
0 0 0 0 0 
0.1772302294099576 0 0 0 0 
0.06038952774619399 0 0 0 0 
0 0 0 0 0 
0 0 0 0 0 
0.2041191932459138 0 -0.1479563817115671 0 0 
0 0 0 0 0 
0 0 0 0 0 
0 0 0 0 0 
0 0 0 0 0 
0 0 0 0 0 
0 0 -0.05550744246548889 0 0 
0 0 0 0 0 
0.008146194355738934 0 0 0 0 
0 0 -0.02551836672577713 0 0 
0 0 0 0 0 
0 0 0 0 0 
0 0 0 0 0 
0 0 0 0 0 
0 0 0 0 0 
0 0 0 0 0 
0 0 0 0 0 
0 0 0 0 0 
0 0 0 0 0 
0 0 0 0 0 
0 0 0 0 0 
0 0 0 0 0 
0.4981568452170926 0 0 0 0 
0 0 0 0 0 
0 0 0 0 0 
0 0 0 0 0 
0 0 0 0 0 
0 0 0 0 0 
0 0 0 0 0 
0 0 0 0 0 
0 0 0 0 0 
0 0 0 0 0 
0 0 0 0 0 
0 0 0 0 0 
0 0 0 0 0 
0 0 0 0 0 
0 0 0 0 0 
0 0 0 0 0 
0 0 0 0 0 
0 0 0 0 0 
0 0 0 0 0 
0 0 0 0 0 
0 0 0 0 0 
0 0 0 0 0 
-0.3952883814373756 0.8612059956784718 0.2799957607186192 0.4796750820128297 0 
0 0 0 0 0 
-0.5067294757806168 0.6104074541389992 0.6459608626390421 0.3109824649389580 0 
-0.01267131068051471 0 0 0 0 
-0.1619306220835038 0 0.09563079162779753 0 0 
0 0 0 0 0 
-0.07901707390302581 0 0 0 0 
0 0 0 0.02263018308180786 0 
0 0 0 0 0 
0 0 0 0 0 
0 0 0 0 0 
0 0 0 0 0 
0 0 0 0 0 
0 0 0 0 0 
0 0 0 0 0 
0 0 0 0 0 
0 0 0 0 0 
0 0 0 0 0 
0 0 0 0 0 
0 0 0 0 0 
0 0 0 0 0 
0 0 0 0 0 
0 0 0 0 0 
0 0 0 0 0 
0 0 0 0 0 
0 0 0 0 0 
0 0 0 0 0 
0 0 0 0 0 
0 0 0 0 0 
0.06778534798826060 0 0 0 0 
0 0 0 0 0 
0 0 0 0 0 
0 0 0 0 0 
0 0 0 0 0 
0 0 0 0 0 
0 0 0 0 0 
0 0 0 0 0 
0 0 0 0 0 
0 0 0 0 0 
0 0 0 0 0 
0 0 0 0 0 
0 0 0 0 0 
0 0 0 0 0 
0 0 0 0 0 
0 0 0 0 0 
0 0 0 0 0 
0 0 0 0 0 
0.004022690694676645 0 0 0 0 
0 0 0 0 0 
0.1516222563292788 -0.1573604240906597 -0.2303938467362853 -0.4173866379337585 0 
0 0 0 0 0 
0.1582891027164470 -0.03664746452133666 0 -0.01806718561060477 0 
0 0 0 0 0 
0 0 0 0 0 
0 0 0 0 0 
0 0 0 0 0 
0 0 0 0 0 
0 0 0 0 0 
0 0 0 0 0 
0 0 0 0 0 
0 0 0 0 0 
0 0 0 0 0 
0 0 0 0 0 
0 0 0 0 0 
0 0 0 0 0 
0 0 0 0 0 
0 0 0 0 0 
0 0 0 0 0 
0 0 0 0 0 
0 0 0 0 0 
0 0 0 0 0 
0 0 0 0 0 
0 0 0 0 0 
0 0 0 0 0 
0 0 0 0 0 
0 0 0 0 0 
0 0 0 0 0 
0 0 0 0 0 
0 0 0 0 0 
0 0 0 0 0 
0 0 0 0 0 
0 0 0 0 0 
0 0 0 0 0 
0 0 0 0 0 
0 0 0 0 0 
0 0 0 0 0 
0 0 0 0 0 
0 0 0 0 0 
0 0 0 0 0 
0 0 0 0 0 
0 0 0 0 0 
0 0 0 0 0 
0 0 0 0 0 
0 0 0 0 0 
0 0 0 0 0 
0 0 0 0 0 
0 0 0 -0.1721223814949776 0 
0 0 0 0 0 
0 0 0 0 0 
0 0 0 0 0 
0 0 0 0 0 
0 0 0 0 0 
0 0 0 0 0 
0 0 0 0 0 
0 0 -0.02421759448973678 0 0 
0 0 0 0 0 
0 0 0 0 0 
0 0 0 0 0 
0 0 0 0 0 
0 0 0 0 0 
0 0 0 0 0 
0 0.1312675507242741 -0.04937913250179731 0 0 
0.05311700670020242 1.745065786132575e-05 -0.009618874915167403 0 0 
0 0.08884166265105264 -0.006540445612840146 0 0 
0 0 0 0 0 
0 0 0 0 0 
0 0 0 0 0 
0 0 0 0 0 
0 0 0 0 0 
0 0 0 0 0 
0 0 0 0 0 
0 0 0 0 0 
0 0 0 0 0 
0 0 0 0 0 
0 0 0 0 0 
0 0 0 0 0 
0 0 0 0 0 
0 0 0 0 0 
0 0 0 0 0 
0 0 0 0 0 
-0.5828521782392388 0.5025007405921591 0.1267092045973380 0.5931672079496997 0 
0 0 0 0 0 
0 0 0 0 0 
0 0 0 0 0 
0 0 0 0 0 
0 0 0 0 0 
0 0 0 0 0 
0 0 0 0 0 
0 0 0 0 0 
0.002926823931513112 0 0 0 0 
0 0 0 0 0 
0 0 0 0 0 
0 0 0 0 0 
0 0 0 0 0 
0 0 0 0 0 
0 0 0 0 0 
0 0 0 0 0 
0 0 0 0 0 
0 0 0 0 0 
0 0 0 0 0 
0 0 0 0 0 
0 0 0 0 0 
0 0 0 0 0 
0 0 0 0 0 
0 0 0 0 0 
0 0 0 0 0 
0 0 0 0 0 
0 0 0 0 0 
0 0 0 0 0 
0 0 0 0 0 
0 0 0 0 0 
0 0 0 0 0 
0 0 0 0 0 
0 0 0 0 0 
0 0 0 0 0 
0 0 0 0 0 
0 0 0 0 0 
0 0 0 0 0 
0 0 0 0 0 
0 0 0 0 0 
0 0 0 0 0 
0 0 0 0 0 
0 0 0 0 0 
0 0 0 0 0 
0 0 0 0 0 
0 0 0 0 0 
0 0 0 0 0 
0 0 0 0 0 
0 0 0 0 0 
0 0 0 0 0 
0 0 0 0 0 
0 0 0 0 0 
0 0 0 0 0 
0 0 0 0 0 
0 0 0 0 0 
0 0 0 0 0 
0 0 0 0 0 
0 0 0 0 0 
0 0 0 0 0 
0 0 0 0 0 
0 0 0 0 0 
0 0 0 0 0 
0 0 0 0 0 
0 0 0 0 0 
0 0 0 0 0 
0 0 0 0 0 
0 0 0 0 0 
0 0 0 0 0 
0 0 0 0 0 
0 0 0 0 0 
0 0 0 0 0 
0 0 0 0 0 
0 0 0 0 0 
0 0 0 0 0 
0 0 0 0 0 
0 0 0 0 0 
0 0 0 0 0 
0 0 0 0 0 
0 0 0 0 0 
0 0 0 0 0 
0 0 0 0 0 
0 0 0 0 0 
0 0 0 0 0 
0 0 0 0.05949263294842011 0 
0 0 0 0 0 
0 0 0 0 0 
0 0 0 0 0 
0 0 0 0 0 
0 0 0 0 0 
0 0 0 0 0 
0 0 0 0 0 
0 0 0 0 0 
0 0 0 0 0 
0 0 0 0 0 
0 0 0 0 0 
0 0 0 0 0 
0 0 0 0 0 
0 0 0 0 0 
0 0 0 0 0 
0 0 0 0 0 
0 0 0 0 0 
0 0 0 0 0 
0 0 0 0 0 
0 0 0 0 0 
0 0 0 0 0 
0 0 0 0 0 
0 0 0 0 0 
0 0 0 0 0 
0 0 0 0 0 
0 0 0 0 0 
0 0 0 0 0 
0 0 0 0 0 
0 0 0 0 0 
0 0 0 0 0 
0 0 0 0 0 
0 0 0 0 0 
0 0 0 0 0 
0 0 0 0 0 
0 0 0 0 0 
0 0 0 0 0 
0 0 0 0 0 
0 0 0 0 0 
0 0 0 0 0 
0 0 0 0 0 
0 0 0 0 0 
0 0 0 0 0 
0 0 0 0 0 
0 0 0 0 0 
0 0 0 0 0 
0 0 0 0 0 
0 0 0 0 0 
0 0 0 0 0 
0 0 0 0 0 
0 0 0 0 0 
0 0 0 0 0 
0 0 0 0 0 
0 0 0 0 0 
0 0 0 0 0 
0 0 0 0 0 
0 0 0 0 0 
0 0 0 0 0 
0 0 0 0 0 
0 0 0 0 0 
0 0 0 0 0 
0 0 0 0 0 
0 0 0 0 0 
0 0 0 0 0 
0 0 0 0 0 
0 0 0 0 0 
0 0 0 0 0 
0 0 0 0 0 
0 0 0 0 0 
0 0 0 0 0 
0 0 0 0 0 
0 0 0 0 0 
0 0 0 0 0 
0 0 0 0 0 
0 0 0 0 0 
0 0 0 0 0 
0 0 0 0 0 
0 0 0 0 0 
0 0 0 0 0 
0 0 0 0 0 
0 0 0 0 0 
0 0 0 0 0 
0 0 0 0 0 
0 0 0 0 0 
0 0 0 0 0 
0 0 0 0 0 
0 0 0 0 0 
0 0 0 0 0 
0 0 0 0 0 
0 0 0 0 0 
0 0 0 0 0 
0 0 0 0 0 
0 0 0 0 0 
0 0 0 0 0 
0 0 0 0 0 
0 0 0 0 0 
0 0 0 0 0 
0 0 0 0 0 
0 0 0 0 0 
0 0 0 0 0 
0 0 0 0 0 
0 0 0 0 0 
0 0 0 0 0 
0 0 0 0 0 
0 0 0 0 0 
0 0 0 0 0 
0 0 0 0 0 
0 0 0 0 0 
0 0 0 0 0 
0 0 0 0 0 
0 0 0 0 0 
0 0 0 0 0 
0 0 0 0 0 
0 0 0 0 0 
0 0 0 0 0 
0 0 0 0 0 
0 0 0 0 0 
0 0 0 0 0 
0 0 0 0 0 
0 0 0 0 0 
0 0 0 0 0 
0 0 0 0 0 
0 0 0 0 0 
0 0 0 0 0 
0 0 0 0 0 
0 0 0 0 0 
0 0 0 0 0 
0 0 0 0 0 
0 0 0 0 0 
0 0 0 0 0 
0 0 0 0 0 
0 0 0 0 0 
0 0 0 0 0 
0 0 0 0 0 
0 0 0 0 0 
0 0 0 0 0 
0.3297996247495522 0 0 0 0 
0 0 0 0 0 
0 0 0 0 0 
0 0 0 0 0 
0 0 0 0 0 
0 0 0 0 0 
0 0 0 0 0 
0 0 0 0 0 
0 0 0 0 0 
0 0 0 0 0 
0 0 0 0 0 
0 0 0 0 0 
0 0 0 0 0 
0 0 0 0 0 
0 0 0 0 0 
0 0 0 0 0 
0 0 0 0 0 
0 0 0 0 0 
0 0 0 0 0 
0 0 0 0 0 
0 0 0 0 0 
0 0 0 0 0 
0 0 0 0 0 
0 0 0 0 0 
0 0 0 0 0 
0 0 0 0 0 
0 0 0 0 0 
0 0 0 0 0 
0 0 0 0 0 
0 0 0 0 0 
0 0 0 0 0 
0 0 0 0 0 
0 0 0 0 0 
0 0 0 0 0 
0 0 0 0 0 
0 0 0 0 0 
0 0 0 0 0 
0 0 0 0 0 
0 0 0 0 0 
0 0 0 0 0 
0 0 0 0 0 
0 0 0 0 0 
0 0 0 0 0 
0 0 0 0 0 
0 0 0 0 0 
0 0 0 0 0 
0 0 0 0 0 
0 0 0 0 0 
0 0 0 0 0 
0 0 0 0 0 
0 0 0 0 0 
0 0 0 0 0 
0 0 0 0 0 
0 0 0 0 0 
0 0 0 0 0 
0 0 0 0 0 
0 0 0 0 0 
0 0 0 0 0 
0 0 0 0 0 
0 0 0 0 0 
-0.04482582032013405 0 0 0 0 
0 0 0 0 0 
0 0 0 0 0 
0 0 0 0 0 
0 0 0 0 0 
0 0 0 0 0 
0 0 0 0 0 
0 0 0 0 0 
0 0 0 0 0 
0 0 0 0 0 
0 0 0 0 0 
0 0 0 0 0 
0 0 0 0 0 
0 0 0 0 0 
0 0 0 0 0 
0 0 0 0 0 
0 0 0 0 0 
0 0 0 0 0 
0 0 0 0 0 
0 0 0 0 0 
0 0 0 0 0 
0 0 0 0 0 
0 0 0 0 0 
0 0 0 0 0 
0 0 0 0 0 
0 0 0 0 0 
0 0 0 0 0 
0 0 0 0 0 
0 0 0 0 0 
0 0 0 0 0 
0 0 0 0 0 
0 0 0 0 0 
0 0 0 0 0 
0 0 0 0 0 
0 0 0 0 0 
0 0 0 0 0 
0.03665797390264283 0 0 0 0 
0 0 0 0 0 
0 0 0 0 0 
0 0 0 0 0 
0 0 0 0 0 
0 0 0 0 0 
0 0 0 0 0 
0 0 0 0 0 
0 0 0 0 0 
0 0 0 0 0 
0 0 0 0 0 
0 0 0 0 0 
0 0 0 0 0 
0 0 0 0 0 
0 0 0 0 0 
0 0 0 0 0 
0 0 0 0 0 
0 0 0 0 0 
0 0 0 0 0 
0 0 0 0 0 
0.1785133319720026 0 0 0 0 
0 0 0 0 0 
0.08847772448238371 0 0 0 0 
0.006295140279733838 0 0 0 0 
0 0 0 -0.003756296244158572 0 
0 -0.3398229390607216 0 0 0 
0 0 0 0 0 
0 0 0 0 0 
0 0 0 0 0 
0 0 0 0 0 
1.040307623292011 0 0 0 0 
0 0 0 0 0 
0 0 0 0 0 
0.009470927937120455 0 -0.1092174133689341 0 0 
0 0 0 0 0 
0 0 0 0 0 
0 0 0 0 0 
0 0 0 0 0 
0 0 0 0 0 
0 0 0 0 0 
0 0 0 0 0 
0 0 0 0 0 
0 0 0 0 0 
0 0 0 0 0 
0 0 0 0 0 
0 0 0 0 0 
0 0 0 0 0 
0 0 0 0 0 
0 0 0 0 0 
0 0 0 0 0 
0 0 0 0 0 
0 0 0 0 0 
0.05298168867113923 0 0 0 0 
0 0 0 0 0 
0 -0.01448238260219752 0 0 0 
0 0 0 0 0 
0 -0.1593739010727390 0 0 0 
0 0 0 0 0 
0 0 0 0 0 
0.02327375315258939 0 0 0 0 
0 -0.03395322629257530 0 0 0 
0 0 0 0 0 
0 0 0 0 0 
0 0 0 0 0 
0 0 0 0 0 
0 0 0 0 0 
0 0 0 0 0 
0 0 0 0 0 
0 0 0 0 0 
0 0 0 0 0 
0 0 0 0 0 
0 0 0 0 0 
0 0 0 0 0 
0 0 0 0 0 
0 0 0 0 0 
0 0 0 0 0 
0 0 0 0 0 
0 0 0 0 0 
0 0 0 0 0 
0 0 0 0 0 
0 0 0 0 0 
0 0 0 0 0 
0 0 0 0 0 
0 0 0 0 0 
0 0 0 0 0 
0 0 0 0 0 
0 0 0 0 0 
0 0 0 0 0 
0 0 0 0 0 
0 0 0 0 0 
0 0 0 0 0 
0 0 0 0 0 
0 0 0 0 0 
0 0 0 0 0 
0 0 0 0 0 
0 0 0 0 0 
0 0 0 0 0 
0 0 0 0 0 
0 0 0 0 0 
0 0 0 0 0 
0 0 0 0 0 
0 0 0 0 0 
0 -0.005162334626592248 0 0 0 
0 0 0 0 0 
0 0 0 0 0 
0 0 0 0 0 
0 0 0 0 0 
0 0 0 0 0 
0 -0.0005032241694685478 0 0 0 
0 0 0 0 0 
0 0 0 0 0 
0 0 0 0 0 
0 0 0 0 0 
0 0 0 -0.005949336245267293 0 
0 0 0 0 0 
0 0 0 0 0 
0 0 0 0 0 
0 0 0 0 0 
0 0 0 0 0 
0 0 0 0 0 
0.03909117446051792 0 0 -0.0002251007036562891 0 
0 0 0 0 0 
0 0 0 0 0 
0 0 0 0 0 
0 0 0 0 0 
0 0 0 0 0 
0 0 0 0 0 
0 0 0 0 0 
0 0 0 0 0 
0 0 0 0 0 
0.01858523027174959 0 0 0 0 
0 0 0 0 0 
0 0 0 0 0 
0 0 0 0 0 
0 0 0 0 0 
0.008187952606574678 0 0 0 0 
0 0 0 0 0 
0 0 0 0 0 
0 0 0 0 0 
-0.02142502854351667 0 0.01782924890120335 0 0 
0 0 0 0 0 
0 0 0 0 0 
0 0 0 0 0 
0 0 0 0 0 
0 0 0 0 0 
0 0 0 0 0 
0 0 0 0 0 
0 0 0 0 0 
0 0 0 0 0 
0 0 0 0 0 
0 0 0 0 0 
0 0 0 0 0 
0 0 0 0 0 
0 0 0 0 0 
0 0 0 0 0 
0 0 0 0 0 
0 0 0 0 0 
0 0 0 0 0 
0 0 0 0 0 
0 0 0 0 0 
0 0 0 0 0 
0 0 0 0 0 
0 0 0 0 0 
0 0 0 0 0 
0 0 0 0 0 
0 0 0 0 0 
0 0 0 0 0 
0 0 0 0 0 
0 0 0 0 0 
0 0 0 0 0 
0 0 0 0 0 
0 0 0 0 0 
0 0 0 0 0 
0 0 0 0 0 
0 0 0 0 0 
0 0 0 0 0 
0 0 0 0 0 
0 0 0 0 0 
0 0 0 0 0 
0 0 0 0 0 
0 0 0 0 0 
0 0 0 0 0 
0 0 0 0 0 
0 0 0 0 0 
0 0 0 0 0 
0 0 0 0 0 
0 0 0 0 0 
0 0 0 0 0 
-0.05858739825058811 0 0 0 0 
0 0 0 0 0 
0 0 0 0 0 
0 0 0 0 0 
0 0 0 0 0 
0 0 0 0 0 
0 0 0 0 0 
0 0 0 0 0 
0.01564312148973384 0 0 0 0 
0 0 0 0 0 
0 0 0 0 0 
0 0 0 0 0 
0 0 0 0 0 
0 0 0 0 0 
0 0 0 0 0 
0 0 0 0 0 
0 0 0 0 0 
0 0 0 0 0 
0 0 0 0 0 
0 0 0 0 0 
0 0 0 0 0 
0 0 0 0 0 
0 0 0 0 0 
0 0 0 0 0 
0 0 0 0 0 
0 0 0 0 0 
0 0 0 0 0 
0 0 0 0 0 
0 0 0 0 0 
0 0 0 0 0 
0 0 0 0 0 
0 0 0 0 0 
0 0 0 0 0 
0 0 0 0 0 
0 0 0 0 0 
0 0 0 0 0 
0 0 0 0 0 
0 0 0 0 0 
0 0 0 0 0 
0 0 0 0 0 
0 0 0 0 0 
0 0 0 0 0 
0 0 0 0 0 
0 0 0 0 0 
0 0 0 0 0 
0 0 0 0 0 
0 0 0 0 0 
0 0 0 0 0 
0 0 0 0 0 
0 0 0 0 0 
0 0 0 0 0 
0 0 0 0 0 
0 0 0 0 0 
0 0 0 0 0 
0 0 0 0 0 
0 0 0 0 0 
0 0 0 0 0 
0 0 0 0 0 
0 0.04803067343562834 0 0 0 
0 0 0 0 0 
-0.1307405956501440 0 0 0 0 
0 0 0 0 0 
0 0 0 0 0 
0 0 0 0 0 
0 0 0 0 0 
0 0 0 0 0 
0 0 0 0 0 
0 0 0 0 0 
0 0 0 0 0 
0 0 0 0 0 
0 0 0 0 0 
0 0 0 0 0 
0 0 0 0 0 
0 0 0 0 0 
0 0 0 0 0 
0 0 0 0 0 
0 0 0 0 0 
0 0 0 0 0 
0 0 0 0 0 
0 0 0 0 0 
0 0 0 0 0 
0 0 0 0 0 
0 0 0 0 0 
0 0 0 0 0 
0 0 0 0 0 
0 0 0 0 0 
0 0 0 0 0 
0 0 0 0 0 
0 0 0 0 0 
0 0 0 0 0 
0 0 0 0 0 
0 0 0 0 0 
0 0 0 0 0 
0 0 0 0 0 
0 0 0 0 0 
0 0 0 0 0 
0 0 0 0 0 
-0.05767762536077825 0 0 0 0 
0 0 0 0 0 
0 0 0 0 0 
0 0 0 0 0 
0 0 0 0 0 
0 0 0 0 0 
0 0 0 0 0 
0 0 0 0 0 
0 0 0 0 0 
0 0 0 0 0 
0 0 0.006750800575213323 0 0 
0 0 0 0 0 
0 0 0 0 0 
0 0 0 0 0 
0 0 0 0 0 
0 0 0 0 0 
0 0 0 0 0 
0 0 0 0 0 
0 0 0 0 0 
0 0 0 0.01148293705887897 0 
0 0 0 0 0 
0 0 0 0 0 
0 0 0 0 0 
0 0 0 0 0 
0 0 0 0 0 
0 0 0 0 0 
0 0 0 0 0 
0 0 0 0 0 
0 0 0 0 0 
0 0 0 0 0 
0 0 0 0 0 
0 0 0 0 0 
0 0 0 0 0 
0 0 0 0 0 
0 0 0 0 0 
0 0 0 0 0 
0 0 0 0 0 
0 0 0 0 0 
0 0 0 0 0 
0 0 0 0 0 
0 0 0 0 0 
0 0 0 0 0 
0 0 0 0 0 
0 0 0 0 0 
0 0 0 0 0 
0 0 0 0 0 
0 0 0 0 0 
0 0 0 0 0 
0 0 0 0 0 
0 0 0 0 0 
0 0 0 0 0 
0 0 0 0 0 
0 0 0 0 0 
0 0 0 0 0 
0 0 0 0 0 
0 0 0 0 0 
0 0 0 0 0 
0 0 0 0 0 
0 0 0 0 0 
0 0 0 0 0 
0 0 0 0 0 
0 0 0 0 0 
0 0 0 0 0 
0 0 0 0 0 
0 0 0 0 0 
0 0 0 0 0 
0 0 0 0 0 
0 0 0 0 0 
0 0 0 0 0 
0 0 0 0 0 
0 0 0 0 0 
0 0 0 0 0 
0 0 0 0 0 
-0.02338206335209427 0 0.008085668113234863 0 0 
-0.001541207849650214 0 0 0 0 
-0.001862680363087982 0 0 0 0 
0 0 0 0 0 
0 0 0 0 0 
0 0 0 0 0 
0 0 0 0 0 
0 0 0 0 0 
0 0 0 0 0 
0 0 0 0 0 
0 0 0 0 0 
0 0 0 0 0 
0 0 0 0 0 
0 0 0 0 0 
0 0 0 0 0 
0 0 0 0 0 
0 0 0 0 0 
0 0 0 0 0 
0 0 0 0 0 
0 0 0 0 0 
0 0 0 0 0 
0 0 0 0 0 
0 0 0 0 0 
0 0 0 0 0 
0 0 0 0 0 
0 0 0 0 0 
0 0 0 0 0 
0 0 0 0 0 
0 0 0 0 0 
0 0 0 0 0 
0 0 0 0 0 
0 0 0 0 0 
0 0 0 0 0 
0 0 0 0 0 
0 0 0 0 0 
0 0 0 0 0 
0 0 0 0 0 
0 0 0 0 0 
0 0 0 0 0 
0 0 0 0 0 
0 0 0 0 0 
0 0 0 0 0 
0 0 0 0 0 
0 0 0 0 0 
0 0 0 0 0 
0 0 0 0 0 
0 0 0 0 0 
0 0 0 0 0 
0 0 0 0 0 
0 0 0 0 0 
0 0 0 0 0 
0 0 0 0 0 
0 0 0 0 0 
0 0 0 0 0 
0 0 0 0 0 
0 0 0 0 0 
0 0 0 0 0 
0 0 0 0 0 
0 0 0 0 0 
0 0 0 0 0 
0 0 0 0 0 
0 0 0 0 0 
0 0 0 0 0 
0 0 0 0 0 
0 0 0 0 0 
0 0 0 0 0 
0 0 0 0 0 
0 0 0 0 0 
0 0 0 0 0 
0 0 0 0 0 
0 0 0 0 0 
0 0 0 0 0 
0 0 0 0 0 
0 0 0 0 0 
0 0 0 0 0 
0 0 0 0 0 
0 0 0 0 0 
0 0 0 0 0 
0 0 0 0 0 
0 0 0 0 0 
0 0 0 0 0 
0 0 0 0 0 
0 0 0 0 0 
0 0 0 0 0 
0 0 0 0 0 
0 0 0 0 0 
0 0 0 0 0 
0 0 0 0 0 
0 0 0 0 0 
0 0 0 0 0 
0 0 0 0 0 
0 0 0 0 0 
0 0 0 0 0 
0 0 0 0 0 
0 0 0 0 0 
0 0 0 0 0 
0 0 0 0 0 
0 0 0 0 0 
0 0 0 0 0 
0 0 0 0 0 
0 0 0 0 0 
0 0 0 0 0 
0 0 0 0 0 
0 0 0 0 0 
0 0 0 0 0 
0 0 0 0 0 
0 0 0 0 0 
0 0 0 0 0 
0 0 0 0 0 
0 0 0 0 0 
0 0 0 0 0 
0 0 0 0 0 
0 0 0 0 0 
0 0 0 0 0 
0 0 0 0 0 
0 0 0 0 0 
0 0 0 0 0 
0 0 0 0 0 
0 0 0 0 0 
0 0 0 0 0 
0 0 0 0 0 
0 0 0 0 0 
0 0 0 0 0 
0 0 0 0 0 
0 0 0 0 0 
0 0 0 0 0 
0 0 0 0 0 
0 0 0 0 0 
0 0 0 0 0 
0 0 0 0 0 
0 0 0 0 0 
0 0 0 0 0 
0 0 0 0 0 
0 0 0 0 0 
0 0 0 0 0 
0 0 0 0 0 
0 0 0 0 0 
0 0 0 0 0 
0 0 0 0 0 
0 0 0 0 0 
0 0 0 0 0 
0 0 0 0 0 
0 0 0 0 0 
0 0 0 0 0 
0 0 0 0 0 
0 0 0 0 0 
0 0 0 0 0 
0 0 0 0 0 
0 0 0 0 0 
0 0 0 0 0 
0 0 0 0 0 
0 0 0 0 0 
0 0 0 0 0 
0 0 0 0 0 
0 0 0 0 0 
0 0 0 0 0 
0 0 0 0 0 
0 0 0 0 0 
0 0 0 0 0 
0 0 0 0 0 
0 0 0 0 0 
0 0 0 0 0 
0 0 0 0 0 
0 0 0 0 0 
0 0 0 0 0 
0 0 0 0 0 
0 0 0 0 0 
0 0 0 0 0 
0 0 0 0 0 
0 0 0 0 0 
0 0 0 0 0 
0 0 0 0 0 
0 0 0 0 0 
0 0 0 0 0 
0 0 0 0 0 
0 0 0 0 0 
0 0 0 0 0 
0 0 0 0 0 
0 0 0 0 0 
0 0 0 0 0 
0 0 0 0 0 
0 0 0 0 0 
0 0 0 0 0 
0 0 0 0 0 
0 0 0 0 0 
0 0 0 0 0 
0 0 0 0 0 
0 0 0 0 0 
0 0 0 0 0 
-0.1200346506616907 0 0 0 0 
0 0 0 0 0 
0 0 0 0 0 
0 0 0 0 0 
0 0 0 0 0 
-0.02452761680530990 0 0 0 0 
0 0 0 0 0 
0 0 0 0 0 
0 0 0 0 0 
0 0 0 0 0 
0 0 0 0.06848897752001121 0 
0 0 0 0 0 
0 0 0 0 0 
0 0 0 0 0 
0 0 0 0 0 
0 0 0 0 0 
0 0 0 0 0 
0 0 0 0 0 
0 0 0 0 0 
0 0 0 0 0 
0 0 0 0 0 
0 0 0 0 0 
0 0 0 0 0 
0 0 0 0 0 
0 0 0 0 0 
0 0 0 0 0 
0 0 0 0 0 
0 0.1113362950706755 0 0 0 
-0.1495964540660128 0 0 0 0 
0 0 0 0 0 
0 0 0 0 0 
0 0 0 0 0 
0 0 0 0 0 
0 0 0 0 0 
0 0 0 0 0 
0 0 0 0 0 
0 0 0 0 0 
0 0 0 0 0 
0 0 0 0 0 
0 0 0 0 0 
0 0 0 0 0 
0 0 0 0 0 
0 0 0 0 0 
0 0 0 0 0 
0 0 0 0 0 
0 0 0 0 0 
0 0 0 0 0 
0 0 0 0 0 
0 0 0 0 0 
0 0 0 0 0 
0 0 0 0 0 
0 0 0 0 0 
0 0 0 0 0 
0 0 0 0 0 
0.1841269672798229 0 0 -0.1130208977260908 0 
0 0 0 0 0 
0 0 0.01943410697511415 0 0 
0 0 0 0 0 
0 0 0 0 0 
0 0 0 0 0 
0 0 0 0 0 
0 0 0 0 0 
0 0 0 0 0 
0 0 0 0 0 
0 0 0 0 0 
0 0 0 0 0 
0 0 0 0 0 
0 0 0 0 0 
0 0 0 0 0 
0.02492290892846093 0.1325821096708036 0 0 0 
0 0 0 0 0 
0 0 0 0 0 
0 0 0 0 0 
0 0 0 0 0 
0 0 0 0 0 
0 0 0 0 0 
0 0 0 0 0 
0 0 0 0 0 
0 0 0 0 0 
0 0 0 0 0 
0 0 0 0 0 
0.05004746207295199 0 0 0 0 
0 0 0 0 0 
0 0 0 0 0 
0 0 0 0 0 
0 0 0 0 0 
0 0 0 0 0 
0 0 0 0 0 
0 0 0 0 0 
0 0 0 0 0 
0 0 0 0 0 
-0.1809109828823075 0 0 0 0 
0 0 0 0 0 
0 0 0 0 0 
0 0 0 0 0 
0 0 0 0 0 
0 0 0 0 0 
0 0 0 0 0 
0 0 0 0 0 
0.008302429296412832 0 0 -0.01945607210612948 0 
0 0 0 -0.02797103425033361 0 
0 0 0 0 0 
0 0 0 0 0 
0 0 0 0 0 
0 0 0 0 0 
0 0 0 0 0 
0.3095705314671695 0 0 0 0 
0 0 0 0 0 
0 0 0 0 0 
-0.03930355217204017 0.05372495956537605 0.07906006489157044 0.04393223002448469 0 
0.01760471552127833 0 0 0 0 
-0.002460238651728758 0 -0.02553546997842345 0.07652518779252956 0 
-0.3896686215482191 0.03164270843590658 0 0 0 
-0.1361953260659641 0.4972874340436059 0 0 0 
-0.5106755945669296 0 0 0 0 
-0.05905201824747181 0.2950956568428563 0.01343834238985719 0 0 
0 0 0 0 0 
0 0 0 0 0 
0 0 0 0 0 
0.04560903251631554 0 0 0 0 
0 0 0 0 0 
0 0 0 0 0 
0 0 0 0 0 
0 0 0 0 0 
0 0 0 0 0 
0 0 0 0 0 
0 0 0 0 0 
0 0 0 0 0 
-0.07388300184206280 0 0 0.05320200902138356 0 
0 0.03870023982032134 0 0 0 
0 0 -0.01698313770224386 0 0 
0 0 0 0 0 
0 0 0 0 0 
-0.07430547578221167 0 0.2191700698221395 0 0 
0 0 0 0 0 
0 0 0 0 0 
0 0 0 0 0 
0 0 0 0 0 
0 0 0 0 0 
0 0 0 0 0 
0 0 0 0 0 
0 0 0 0 0 
0 0 0 0 0 
0 0 0 0 0 
0 0 0 0 0 
0.05347868379884816 0 0 0 0 
0 0 0 0 0 
0 0 0 0 0 
0 0 0 0 0 
0 0 0 0 0 
0 0 0 0 0 
0 0 0 0 0 
0 0 0 0 0 
0 0 0 0 0 
0 0 0 0 0 
0 0 0 0 0 
0 0 0 0 0 
0 0 0 0 0 
0 0 0 0 0 
0 0 0 0 0 
0 0 0 0 0 
0 0 0 0 0 
0 0 0 0 0 
0 0 0 0 0 
0 0 0 0 0 
0 0 0 0 0 
0 0 0 0 0 
-0.1488439317083363 0 0 0 0 
0 0 0 0 0 
0 0 0 0 0 
0 0 0 0 0 
0 0 0 0 0 
0 0 0 0 0 
0 0 0 0 0 
0 0 -0.04622557408446414 0 0 
0 0 0 0 0 
0 0 0 0 0 
0 0 0 0 0 
0 0 0 0 0 
0 0 0 0 0 
0 0 0 0 0 
0 0 0 0 0 
0 0 0 0 0 
0 0 0 0 0 
0 0 0 0 0 
0 0 0 0 0 
0 0 0 0 0 
0 0 0 0 0 
0 0 0 0 0 
0 0 0 0 0 
0 0 0 0 0 
0 0 0 0 0 
0 0 0 0 0 
0 0 0 0 0 
0 0 0 0 0 
0 0 0 0 0 
0 0 0 0 0 
0 0 0 0 0 
0 0 0 0 0 
0 0 0 0 0 
0 0.6455240231355549 0 0 0 
0 0 0 0 0 
0 0 0 0 0 
0 0 0 0 0 
0 0 0 0 0 
0 0 0 0 0 
0 0 0 0 0 
0 0 0 0 0 
0 0 0 0 0 
0 0.07920849282670878 0 0 0 
0 0 0 0 0 
0 0 0 0 0 
0 0 0 0 0 
0 0 0 0 0 
0 0 0 0 0 
0 0 0 0 0 
0 0 0 0 0 
0 0 0.1378352214867148 0 0 
0 0 0 0 0 
0 0 0 0 0 
0 0 0 0 0 
0 0 0 0 0 
0 0 0 0 0 
0 0 0 0 0 
0 0 0 0 0 
0 0 0 0 0 
0 0 0 0 0 
0 0 0 0 0 
0 0 0 0 0 
-0.1147418909828445 0 0 0 0 
0 0 0 0 0 
0 0 0 0 0 
0 0 0 0 0 
0 0 0 0 0 
0 0 0 0 0 
0 0 0 0 0 
0 0 0 0 0 
0 0 0 0 0 
0 0 0 0 0 
0 0 0 0 0 
0 0 0 0 0 
0 0 0 0 0 
0 0 0 0 0 
0 0 0 0 0 
0 0 0 0 0 
0 0 0 0 0 
0 0 0 0 0 
0 0 0 0 0 
0 0 0 0 0 
0 0 0 0 0 
0 0 0 0 0 
0 0 0 0 0 
0 0 0 0 0 
0 0 0 0 0 
0 0 0 0 0 
0 0 0 0 0 
0 0 0 0 0 
0 0 0 0 0 
0 0 0 0 0 
0 0 0 0 0 
0 0 0 0 0 
0 0 0 0 0 
0 0 0 0 0 
0 0 0 0 0 
0 0 0 0 0 
0 0 0 0 0 
0 0 0 0 0 
0 0 0 0 0 
0 0 0 0 0 
0 0 0 0 0 
0 0 0 0 0 
0 0 0 0 0 
0 0 0 0 0 
0 0 0 0 0 
0 0 0 0 0 
0 0 0 0 0 
0 0 0 0 0 
0 0 0 0 0 
0 0 0 0 0 
0 0 0 0 0 
0 0 0 0 0 
0 0 0 0 0 
0 0 0 0 0 
0 0 0 0 0 
0 0 0 0 0 
0 0 0 0 0 
0 0 0 0 0 
0 0 0 0 0 
0 0 0 0 0 
0 0 0 0 0 
0 0 0 0 0 
0 0 0 0 0 
0 0 0 0 0 
0 0 0 0 0 
0.04135867662631881 0 0 0 0 
0 0 0 0 0 
0 0 0 0 0 
0 0 0 0 0 
0 0 0 0 0 
0 0 0 0 0 
0 0 0 0 0 
0 0 0 0 0 
0 0 0 0 0 
0 0 0 0 0 
0 0 0 0 0 
0 0 0 0 0 
0.02935894967351911 0 0 0 0 
0 0 0 0 0 
0 0 0 0 0 
0 0 0 0 0 
0 0 0 0 0 
0 0 0 0 0 
0 0 0 0 0 
0 0 0 0 0 
0 0 0 0 0 
0 0 0 0 0 
0 0 0 0 0 
0 0 0 0 0 
0 0 0 0 0 
0 0 0 0 0 
0 0 0 0 0 
0 0 0 0 0 
0 0 0 0 0 
0 0 0 0 0 
0 0 0 0 0 
0 0 0 0 0 
0 0 0 0 0 
0 0 0 0 0 
0.01923356734927632 0 0 -0.008277156845483242 0 
0 0 0 0 0 
0.1325971965616150 0 0 0 0 
0 0 0 -0.03059954403655799 0 
0 0 0 0 0 
0 0 0 0 0 
0 0 0 0 0 
0 0 0 0 0 
0 0 0 0 0 
0 0 0 0 0 
0 0 0 0 0 
0 0 0 0 0 
0 0 0 0 0 
0 0 0 0 0 
0 0 0 0 0 
0 0 0 0 0 
0 0 0 0 0 
0 0 0 0 0 
0 0 0 0 0 
0 0 0 0 0 
0 0 0 0 0 
0 0 0 0 0 
0 0 0 0 0 
0 0 0 0 0 
0 0 0 0 0 
0 0 0 0 0 
0 0 0 0 0 
0 0 0 0 0 
0 0 0 0 0 
0 0 0 0 0 
0 0 0 0 0 
0 0 0 0 0 
0 0 0 0 0 
0 0 0 0 0 
0 0 0 0 0 
0 0 0 0 0 
0 0 0 0 0 
0 0 0 0 0 
0 0 0 0 0 
0 0 0 0 0 
0 0 0 0 0 
0 0 0 0 0 
0 0 0 0 0 
0 0 0 0 0 
0 0 0 0 0 
0 0 0 0 0 
0 0 0 0 0 
0 0 0 0 0 
0 0 0 0 0 
0 0 0 0 0 
0 0 0 0 0 
0 0 0 0 0 
0 0 0 0 0 
0 0 0 0 0 
0 0 0 0 0 
0 0 0 0 0 
0 0 0 0 0 
-0.3705753376405326 0.04119156745608335 0.2039690548444407 0.2667676589506804 0 
0 0 0 0 0 
0 0 0 0 0 
0 0 0 0 0 
0 0 0 0 0 
0 0 0 0 0 
0 0 0 0 0 
0 0 0 0 0 
0 0 0 0 0 
0 0 0 0 0 
0 0 0 0 0 
0 0 0 0 0 
0 0 0 0 0 
0 0 0 0 0 
0 0 0 0 0 
0 0 0 0 0 
0 0 0 0 0 
0 0 0 0 0 
0 0 0 0 0 
0 0 0 0 0 
0 0 0 0 0 
0 0 0 0 0 
0 0 0 0 0 
0 0 0 0 0 
0 0 0 0 0 
0 0 0 0 0 
0 0 0 0 0 
0 0 0 0 0 
0 0 0 0 0 
0 0 0 0 0 
0 0 0 0 0 
0 0 0 0 0 
0 0 0 0 0 
0 0 0 0 0 
0 0 0 0 0 
0 0 0 0 0 
0 0 0 0 0 
0 0 0 0 0 
0 0 0 0 0 
0 0 0 0 0 
0 0 0 0 0 
0 0 0 0 0 
0 0 0 0 0 
0 0 0 0 0 
0 0 0 0 0 
0 0 0 0 0 
0 0 0 0 0 
0 0 0 0 0 
0 0 0 0 0 
0 0 0 0 0 
0 0 0 0 0 
0 0 0 0 0 
0 0 0 0 0 
0 0 0 0 0 
0 0 0 0 0 
0 0 0 0 0 
0 0 0 0 0 
0 0 0 0 0 
0 0 0 0 0 
0 0 0 0 0 
0 0 0 0 0 
0 0 0 0 0 
0 0 0 0 0 
0 0 0 0 0 
0 0 0 0 0 
0 0 0 0 0 
0 0 0 0 0 
0 0 0 0 0 
0 0 0 0 0 
0 0 0 0 0 
0 0 0 0 0 
0 0 0 0 0 
0 0 0 0 0 
0 0 0 0 0 
0 0 0 0 0 
0 0 0 0 0 
0 0 0 0 0 
0 0 0 0 0 
0 0 0 0 0 
0 0 0 0 0 
0 0 0 0 0 
0 0 0 0 0 
0 0 0 0 0 
0 0 0 0 0 
0 0 0 0 0 
0 0 0 0 0 
0 0 0 0 0 
0 0 0 0 0 
0 0 0 0 0 
0 0 0 0 0 
0 0 0 0 0 
0 0 0 0 0 
0 0 0 0 0 
0 0 0 0 0 
0 0 0 0 0 
0 0 0 0 0 
0 0 0 0 0 
0 0 0 0 0 
0 0 0 0 0 
0 0 0 0 0 
0 0 0 0 0 
0 0 0 0 0 
0 0 0 0 0 
0 0 0 0 0 
0 0 0 0 0 
0 0 0 0 0 
0 0 0 0 0 
0 0 0 0 0 
0 0 0 0 0 
0 0 0 0 0 
0 0 0 0 0 
0 0 0 0 0 
0 0 0 0 0 
0 0 0 0 0 
0 0 0 0 0 
0 0 0 0 0 
0 0 0 0 0 
0 0 0 0 0 
-0.06937523864628638 0 0 0 0 
0 0 0 0 0 
0 0 0 0 0 
0 0 0 0 0 
0 0 0 0 0 
0 0 0 0 0 
0 0 0 0 0 
0 0 0 0 0 
0 0 0 0 0 
0 0 0 0 0 
0 0 0 0 0 
0 0 0 0 0 
0 0 0 0 0 
0 0 0 0 0 
0 0 0 0 0 
0 0 0 0 0 
0 0 0 0 0 
0 0 0 0 0 
0 0 0 0 0 
0.1370865954204213 0 0 0 0 
0 0 0 0 0 
0 0 0 0 0 
0 0 0 0 0 
0 0.1283239307247334 0 0 0 
0 0 0 0 0 
0 0 0 0 0 
0 0 0 0 0 
-0.1105369819220832 0.1752559300914616 0 0.04886939640687380 0 
0 0 0 0 0 
0 0 0 0 0 
0 0 0 0 0 
0 0 0 0 0 
0 0 0 0 0 
0 0 0 0.08284387355365885 0 
0 0 0 0 0 
0 0 0 0 0 
0 0 0 0 0 
0 0 0 0 0 
0 0 0 0 0 
0 0 0 0 0 
0 0 0 0 0 
0 0 0 0 0 
0 0 0 0 0 
0 0 0 0 0 
0 0 0 0 0 
-0.02991533724975507 0 0.09298585260498930 0.08126471133654022 0 
0 0 0 0 0 
0 0 0 0 0 
0 0 0 0 0 
0 0 0 0 0 
0 0 0 0 0 
0 0 0 0 0 
0 0 0 0 0 
0 0 0 0 0 
0 0 0 0 0 
0 0 0 0 0 
0 0 0 0 0 
0 0 0 0 0 
0 0 0 0 0 
0 0 0 0 0 
0 0 0 0 0 
0 0 0 0 0 
0 0.02341898863896058 0 0 0 
0 0 0 0 0 
0 0 0 0 0 
0 0 0 0 0 
0 0 0 0 0 
0 0 0 0 0 
0 0 0 0 0 
0 0 0 0 0 
0 0 0 0 0 
0 0 0 0 0 
0 0 0 0 0 
0 0 0 0 0 
0 0 0 0 0 
0 0 0 0 0 
0 0 0 0 0 
0 0 0 0 0 
0 0 0 0 0 
0 0 0 0 0 
0 0 0 0 0 
0 0 0 0 0 
0 0 0 0 0 
0 0 0 0 0 
0 0 0 0 0 
-0.06086860872490639 0 0 0 0 
0 0 0 0 0 
0 0 0 0 0 
0 0 0 0 0 
0 0 0 0 0 
0 0 0.01986798377997259 0 0 
0 0 0 0 0 
0 0 0 0 0 
0 0 0 0 0 
0 0 0 0 0 
0 0 0 0 0 
0 0 0 0 0 
0 0 0 0 0 
0 0 0 0 0 
0 0 0 0 0 
0 0 0 0 0 
0 0 0 0 0 
0 0 0 0 0 
0 0 0 0 0 
0 0 0 0 0 
0 0 -0.03158948980882956 0 0 
0 0 -0.009700746606393317 0 0 
0 0 0 0 0 
0 0 0 0 0 
0 0 0 0 0 
0 0 0 0 0 
0 0 0 0 0 
0 0 0 0 0 
0 0 0 0 0 
0 0 0 0 0 
0 0 0 0 0 
0 0 0 0 0 
0 0 0 0 0 
0 0 0 0 0 
0 0 0 0 0 
0 0 0 0 0 
-0.3666984912909902 0.1796330643434465 0 0 0 
-0.3124428917942886 0 0.09335539866166670 0.2984030801673044 0 
0 0 0 0 0 
0 0 0 0 0 
0 0 0 0 0 
0 0 0 0 0 
0 0 0 0 0 
0 0 0 0 0 
0 0 0 0 0 
0 0 0 0 0 
0 0 0 0 0 
0 0 0 0 0 
0 0 0 0 0 
0 0 0 0 0 
0 0 0 0 0 
0 0 0 0 0 
0 0 0 0 0 
0 0 0 0 0 
0 0 0 0 0 
0 0 0 0 0 
0 0 0 0 0 
0 0 0 0 0 
0 0 0 0 0 
0 0 0 0 0 
0 0 0 0 0 
0 0 0 0 0 
0 0 0 0 0 
0 0 0 0 0 
0 0 0 0 0 
0 0 0 0 0 
0 0 0 0 0 
0 0 0 0 0 
0 0 0 0 0 
0 0 0 0 0 
0 0 0 0 0 
0 0 0 0 0 
0 0 0 0 0 
0 0 0 0 0 
0 0 0 0 0 
0 0 0 0 0 
0 0 0 0 0 
0 0 0 0 0 
0 0 0 0 0 
0 0 0 0 0 
0 0 0 0 0 
0 0 0 0 0 
0 0 0 0 0 
0 0 0 0 0 
0 0 0 0 0 
0 0 0 0 0 
0 0 0 0 0 
0 0 0 0 0 
0 0 0 0 0 
0 0 0 0 0 
0 0 0 0 0 
0 0 0 0 0 
0 0 0 0 0 
0 0 0 0 0 
0 0 0 0 0 
0 0 0 0 0 
0 0 0 0 0 
0 0 0 0 0 
0 0 0 0 0 
0 0 0 0 0 
0 0 0 0 0 
0 0 0 0 0 
0 0 0 0 0 
0 0 0 0 0 
0 0 0 0 0 
0 0 0 0 0 
0 0 0 0 0 
0 0 0 0 0 
0 0 0 0 0 
0 0 0 0 0 
0 0 0 0 0 
0 0 0 0 0 
0 0 0 0 0 
0 0 0 0 0 
0 0 0 0 0 
0 0 0 0 0 
0 0 0 0 0 
0 0 0 0 0 
0 0 0 0 0 
0 0 0 0 0 
0 0 0 0 0 
0 0 0 0 0 
0 0 0 0 0 
0 0 0 0 0 
0 0 0 0 0 
0 0 0 0 0 
0 0 0 0 0 
0 0 0 0 0 
0 0 0 0 0 
0.001673109492840060 0 0 0 0 
0 0 0 0 0 
0 0 0 0 0 
-0.2408685950306011 0.2473469876899606 0.05897771098226590 0.1814230855646286 0 
0 0 0 0 0 
0 0 0 0 0 
0 0.5024602343451807 0 0 0 
0 0 0 0 0 
0 0 0 0 0 
0.0003275653614306477 0 0 0 0 
0 0 0 0 0 
0 0 0 0 0 
0 0 0 0 0 
0 0 0 0 0 
-0.1043873006409196 0.2629551358034261 0.03778627195753510 0.1648055734572543 0 
0 0 0 0 0 
0 0 0 0 0 
0 0 0 0 0 
0 0 0 0 0 
0 0 0 0 0 
0 0 0 0 0 
-0.05739906458851575 0.4953307660795950 0 0.03443223129237055 0 
0 0 0 0 0 
0 0 0 0 0 
0 0 0 0 0 
0 0 0 0 0 
0 0 0 0 0 
0 0 0 0 0 
0 0 0 0 0 
0.02661984151206225 0 0 0 0 
0 0 0 0 0 
0 0 0 0 0 
0 0 0 0 0 
0.05671340637914114 0 0 0 0 
0 0 0 0 0 
0 0 0 0 0 
0 0 0 0 0 
0.03955598852283130 0 0 0 0 
0 0 0 0 0 
0 0 0 0 0 
0 0 0 0 0 
0 0 0 0 0 
0 0 0 0 0 
0 0 0 0 0 
0 0 0 0 0 
0 0 0 0 0 
0 0 0 0 0 
0.1564024032791533 0 0 0 0 
0 0 0 0 0 
0 0 -0.007895379542965108 0 0 
-0.05200307672616080 0 -0.1040583727180261 0 0 
0 0 0 0 0 
0 0 0 0 0 
0 0 0 0 0 
0 0 0 0 0 
0 0 0 0 0 
0 0 0 0 0 
0 0 0 0 0 
0 0 0 0 0 
0 0 0 0 0 
0 0 0 0 0 
0 0 0 0 0 
0 0 0 0 0 
0 0 0 0 0 
0.1059898257470639 0 -0.02218529358460781 0 0 
0 0 0 0 0 
0 0 0 0 0 
0 0 0 0 0 
0 0 0 0 0 
0 0 0 0 0 
0 0 0 0 0 
0 0 0 0 0 
0 0 0 0 0 
0 0 0 0 0 
0 0 0 0 0 
0 0 0 0 0 
0 0 0 0 0 
0 0 0 0 0 
0 0 0 0 0 
0 0 0 0 0 
0 0 0 0 0 
0 0 0 0 0 
0 0 0 0 0 
0 0 0 0 0 
0 0 0 0 0 
0 0 0 0 0 
0 0 0 0 0 
0 0 0 0 0 
0 0 0 0 0 
0 0 0 0 0 
0 0 0 0 0 
0 0 0 0 0 
0 0 0.2713088084447151 0 0 
0 0 0 0 0 
0 0 0 0 0 
0 0 0 0 0 
0 0 0 0 0 
0 0 0 0 0 
0 0 0 0 0 
0 0 0 0 0 
0 0 0 0 0 
0 0 0 0 0 
0 0 0 0 0 
0 0 0 0 0 
0 0 0 0 0 
0 0 0 0 0 
0 0 0 0 0 
0 0 0 0 0 
0 0 0 0 0 
0 0 0 0 0 
0 0 0 0 0 
0 0 0 0 0 
0 0 0 0 0 
0 0 0 0 0 
0 0 0 0 0 
0 0 0 0 0 
0 0 0 0 0 
0 0 0 0 0 
0 0 0 0 0 
-0.03918672334764022 0 0 0 0 
0 0 0 0 0 
0 0 0 0 0 
0 0 0 0 0 
0 0 0 0 0 
0 0 0 0 0 
0 0 0 0 0 
0 0 0 0 0 
0 0 0 0 0 
0 0 0 0 0 
0 0 0 0 0 
0 0 0 0 0 
0 0 0 0 0 
0 0 0 0 0 
0 0 0 0 0 
0 0 0 0 0 
0 0 0 0 0 
0 0 0 0 0 
0 0 0 0 0 
0 0 0 0 0 
0 0 0 0 0 
0 0 0 0 0 
0 0 0 0 0 
0 0 0 0 0 
0 0 0 0 0 
0 0 0 0 0 
0 0 0 0 0 
0 0 0 0 0 
0 0 0 0 0 
0 0 0 0 0 
0 0 0 0 0 
0 0 0 0 0 
0 0 0 0 0 
0 0 0 0 0 
0 0 0 0 0 
0 0 0 0 0 
0 0 0 0 0 
0 0 0 0 0 
0 0 0 0 0 
0 0 0 0 0 
0 0 0 0 0 
0 0 0 0 0 
-0.03262006643592054 0 0 0 0 
0.04266665508551289 0 0 0 0 
0.3299450093288648 0 0 0 0 
0 0 0 0 0 
0 0 0 0 0 
0 0 0 0 0 
0.3049712786699350 0 0 0 0 
0 0 0 0 0 
0 0 0 0 0 
0.02482213851322450 0 -0.02982671378311662 0 0 
0 0 0 0 0 
0.02450165319204567 0 0 0 0 
0.6866810924771481 0 -0.1240376648847456 0 0 
0.008840573074946623 0 -0.002869194208692345 0 0 
-0.006539748417616068 0 0.1127361354360142 0 0 
0 0 0 0 0 
0 0 0 0 0 
0 0 0 0 0 
0 0 0 0 0 
0 0 0 0 0 
0.1281332018861785 0 0 0 0 
-0.4953278742336343 0 0 0 0 
0 0 0 0 0 
-0.2272775061966720 0 0 0 0.2114818436079576 
0 0 0 0 0 
0 0 0 0 0 
0 0 -0.09982932696024263 0 0 
-0.6626897762326345 0 0 0 0 
0.007769800369150093 0 0 0 0 
0 0 0 1.308848430743948 0 
0 0 0 0 0 
0 0 0 0 0 
0 0 0 0 0 
0 0 -0.04613915064214472 0 0 
0 0 0 0 0 
0 0 0 0 0 
0 0 0 0 0 
0 0 0 0 0 
0 0 0 0 0 
0 0 -0.1133772260071125 0 0 
0 0 0 0 0 
0 0 0 0 0 
0 0 0 0 0 
0.006865984299116519 0 0 0 0 
0 0 0 0 0 
0 0 0 0 0 
0 0 0 0 0 
0 0 0 0 0 
0 0 0 0 0 
0 0 0 0 0 
0 0 0 0 0 
0 0 0 0 0 
0 0 0 0 0 
0 0 0 0 0 
0 0 0 0 0 
0 0 0 0 0 
0 0 0 0 0 
0 0 0 0 0 
0 0 0 0 0 
0 0 0 0 0 
0 0 0 0 0 
0 0 0 0 0 
0 0 0 0 0 
0 0 0 0 0 
0 0 0 0 0 
0 0 0 0 0 
0 0 0 0 0 
0 0 0 0 0 
-0.1344829270482798 0 0 0 0 
0 0 0 0 0 
0 0 0.03860308354468101 0 0 
0 0 0 0 0 
0 0 0 0 0 
0 0 0 0 0 
0 0 0 0 0 
0 0 0 0 0 
0 0 0 0 0 
0 0 0 0 0 
0 0 0 0 0 
0 0 0 0 0 
0 0 0 0 0 
0.1282610687982053 -0.03521950047765306 -0.05217116791879264 0 0 
0 0 0 0 0 
0 0 0 0 0 
0 0 0 0 0 
-0.1264437199436403 0 0 0 0 
-0.004737052975632899 0 0 0 0 
0 0 0 0 0 
0 0 0 0 0 
0 0 0 0 0 
0 0 0 0 0 
0 0 0 0 0 
0 0 0 0 0 
0 0 0 0 0 
0 0 0 0 0 
0 0 0 0 0 
0 0 0 0 0 
0 0 0 0 0 
0 0 0 0 0 
0 0 0 0 0 
0 0 0 0 0 
0 0 -0.1075975421551180 0.2154455303709696 0 
0 0 0 0 0 
0 0 0 0 0 
0 0 0 0 0 
0 0 0 0 0 
0 0 0 0 0 
0 0 0 0 0 
-0.03566154582264100 0 0 0 0 
0 0 0 0 0 
0 0 0 0 0 
0 0 -0.09597991858600713 0 0 
-0.1793332587471554 0 0.05991508532070403 0 0 
0 0 0.1748967283261651 0 0.2413040236241404 
-0.5818314364874188 0.2579743802567360 0.2811424337458729 0.4889173990188567 0 
0 0 0 0 0 
0 0 0 0.1549682590484224 0 
0 0 0 0.07937166381889058 0 
0.2200113403442108 -0.0008414968154202007 0 0 0 
0 -0.2041934879813290 -0.09957139752556753 -0.4717032724907135 0 
0.4993160932865611 0 -0.2834159261319998 0 0 
0.3308568664962914 0 -0.1050946546479599 0 0 
0.1707452229713127 -0.01123021209035702 0 0 0 
0.8437179766392049 -0.02889945142175107 -0.5574838907411175 -0.07212094548190195 0 
0 -0.07774950818867780 0 -0.004826800798391331 0 
0 -0.001244909541235240 -0.01126832208210949 0 0 
0 -0.03809445163588323 0 -0.1061660204333874 0 
0 0 0 0 0 
0 0 0 0 0 
0.02533832852361813 0 -0.04400709202360058 0 0 
0 0 0 -0.01218957304018542 0 
0 0 0 0 0 
0 0 0 -0.4231418053921245 0 
0 0 0 0 0 
-0.2952512879860995 0.06505392987365120 0.07216295171280261 0 0 
0 0 0 0 0 
-0.08122440946278221 0 0 0 0 
0 0 0 0 0 
-0.2225636763439936 0 0.3860234683315021 0 0 
0 0 0 0 0 
0 0 0 0.2901313830086875 0 
0 0 0 0 0 
0 0 0 0 0 
0 0 0 0 0 
0 0 0 0 0 
0 0 0 0 0 
0 0 0 0 0 
0 0 0 0 0 
0 0 0 0 0 
0 0 0 0 0 
-0.2046299623739545 0 0 0 1.580477144741642 
0 0 0 0 0 
0.7186005079471871 0 0 0 0 
0.04200972909667948 0 0 0 0 
0 0 0 0 0 
0.1122033263588220 -0.006550348113877932 -0.1157031093194622 -0.4588112424020122 0 
0 0 0 0 0 
0 0 0 0 0 
0 0 0 0 0 
-0.2790364081162896 0.2995567015665215 0.4668798414721767 0.1613695938799396 0 
0 0 0 0 0 
0 0 0 0 0 
0.004281097588729521 0 0 0 0 
0 0 0 0 0 
0 -0.3864483823922926 0 0 0 
0 0 0 0 0 
0 0 0 0 0 
-0.05263662596773303 0 0 0 0 
0.009533787786435988 0 0 0 0 
0 0 0 0 0 
-0.5156831673859704 0 0 0 0 
0 0 0 0 0 
0 0 0 0 0 
0 0 0 0 0 
0 0 0 0 0 
-0.07639850930593375 0 0.1630081494415227 0.2429144360886467 0 
0 0.1811951660904364 0 0 0 
-0.1814102535160251 0.4378647932629807 0.03550220108782198 0.9875224954020003 0 
-0.4413726583756528 0 0 0 0 
0 0 0 0 0 
0 0 0 0 0 
0.05346163021559024 0 0 0 0 
0 0 0 0 0 
0.4389254253400186 0 -0.04954851080773147 0 0 
0 -0.03734252139365228 0 0 0 
1.215662571142359 -0.2908121989791142 -0.1307627606549282 -0.01241332948147889 0 
0 -0.2546297518825582 -0.2659422089252181 0 0 
0.03918847782788840 -0.08216108221773012 -0.3587144776522714 -0.002778615959021569 0 
0 0 0 0 0 
0 0 0 0 0 
0 0 0 0 0 
0 0.2139701279340416 0 0 0 
0 0.04038557155302310 0 0 0 
0 0.2496939026831844 0 0 0 
0 0.05641098603115026 0 0 0 
0 0.03009085410929378 0 0 0 
0 0 0 0 0 
0 0 0 0 0 
0 0 0 0 0 
0 0 0 0 0 
0 0 0 0 0 
0 0 0 0 0 
0 0 0 0 0 
0 0 0 0 0 
0 0 0 0 0 
0.07899531581424873 0 0 0 0 
0 0 0 0 0 
-0.3319384115916656 0 0 0 0 
0.3106086076696345 0 0 0 0 
0 0 0 0 0 
0 0 0 0 0 
0 0 0 0 0 
0 0 0 0 0 
0 0 0 0 0 
0 0 0 0 0 
0 0 0 0 0 
0 0 0 0 0 
0 0 0 0 0 
0 0 0 0 0 
0 0 0 0 0 
0 0 0 0 0 
0 0 0 0 0 
0 0 0 0 0 
0 0 0 0 0 
0.1799930200317000 0 -0.003300473555439998 -0.09360174044621368 0 
-0.4309802971878520 0.004237323850725261 0.2385823703210083 0 0 
-0.01437566090429924 0 0 0 0 
0 0.04088220807640160 0.1458252383414416 0 0 
0 0 0 0.2414330841525220 0 
0 0 0 0 0 
0 0 0 0 0 
0 0 0 0 0 
0 0 0 0 0 
0 0 0 0 0 
0 0 0 0 0 
0 0 0 0 0 
0 0 0 0.07414630389379809 0 
0 0 0 0 0 
0 0 0 0 0 
0 0 0 0 0 
0.1678620556998313 0 -0.09562335233466764 0 0 
0 0 0 0 0 
0 0 0 0 0 
0 0 0 0 0 
0 0 0 0 0 
0 0 0 0 0 
0 0 0 0 0 
0 0 0 0 0 
0 0 0 0 0 
0 0 0 0 0 
0 0 0 0 0 
0 0 0 0 0 
0 0 0 0 0 
-0.02189914718902571 0 0 0.007386183800857926 0 
-0.1211997030624611 0.008322229942468534 0 0 0 
0.3304216413091937 0 -0.4314691862251359 -0.03762035276075559 0 
0 0 0 0 0 
0 0 0 0 0 
-0.1331158322744536 0 0 0 0 
0 0 0 0.2107763931973203 0 
0 0 0 0 0 
0 0 0 0 0 
0 0 -0.05277388933529231 0 0 
0 0 0 -0.05516755962352299 0 
0 0 0 0.001768621130225245 0 
0 0 0 0 0 
0 0 0 0 0 
0 0 0 0 0 
0 0 0 0 0 
0 0 0 0 0 
0 0 0 0 0 
0 0 0 0 0 
0 0 0 0 0 
0 0 0 0 0 
0 0 0 0 0 
0 0 0 0 0 
0 0 0 0 0 
0 0 0 0 0 
-0.4510129874912808 0.6452026000976855 0.6709366832270849 0.1042780472541595 0.02216114754210463 
0.05311292423256826 -6.150047565522954e-05 -0.3223277563905788 -0.06620568978086672 0 
0 -0.001785060676984696 -0.1941887931532174 -0.2035938183840640 0 
0.08128510256858740 -0.04586519912868651 -0.1488213590108416 -0.1201307959336713 0 
0 0 0 0 0 
0 0 0 0 0 
0 0 0 0 0 
0 0 0 0 0 
0 0 0 0 0 
0 0 0 0 0 
0 0 0 0 0 
0 0 0 0 0 
0 0 0 0 0 
0 0 0 0 0 
0 0 0 0 0 
0 0 0 0 0 
0 0 0 0 0 
0 0 0 0 0 
0 0 0 0 0 
0 0 0 0 0 
0 0 0 0 0 
0 0 0 0 0 
0 0 0 0 0 
0 0 0 0 0 
0 0 0 0 0 
0 -0.1322900937612089 0 -0.2680059603684925 0.5861962317288462 
0.5948319346312692 0 0 0 0 
-0.01518955729907767 0 0 0 0 
0 0 0 0 0 
0 0 0 0 0 
0 0 0 0 0 
0 0 0 0 0 
0 0 0 0 0 
-0.01945063584218789 0 0 0 0 
0 0 0 0 0 
0 0 -0.08093591402636613 0 0 
0 0 -0.01996670933124388 0 0 
0 0 0 0 0 
0 0 0 0 0 
0 0 0 0.04810793769957050 0 
0 0 0 0 0 
0 0 0 0 0 
0 0 0.03553571447134288 0 0 
0 0 0 0 0 
0 0 0 0 0 
0 0 0 0 0 
0 0 0 0 0 
0 0 0 0 0 
0 0 0 0 0 
0 0 0 0 0 
0 0 0 0 0 
0 0 0 0 0 
0 0 0.1815237549549026 0 0 
0 0 0 0 0 
0 0 0.1732481350269774 0 0 
0 0 0 0 0 
0 0 0 0 0 
0 0 0 0 0 
0 0 0 0 0 
0 0 0 0 0 
0 0 0 0 0 
0 0 0 0 0 
0 0 0 0 0 
0 0 0 0 0 
0 0 0 0 0 
0 0 0 0 0 
0 0 0 0 0 
0 0 0 0 0 
0 0 0 0 0 
0 0 0 0 0 
0 0 0 0 0 
0 0 0 0 0 
0 0 0 0 0 
0 0 0 0 0 
0 0 0 0 0 
0 0 0 0 0 
0 0 0 0 0 
0 0 0 0 0 
0 0 0 0 0 
0 0 0 0 0 
0 0 0 0 0 
0 0 0 0 0 
0 0 0 0 0 
0 0 0 0 0 
0 0 0 0 0 
0 0 0 0 0 
0 0 0 0 0 
0 0 0 0 0 
0 0 0 0 0 
0 0 0 0 0 
0 0 0 0 0 
0 0 0 0 0 
0 0 0 0 0 
0 0 0 0 0 
0 0 0 0 0 
0 0 0 0 0 
0 0 0 0 0 
0 0 0 0 0 
0 0 0 0 0 
0 0 0 0 0 
0 0 0 0 0 
0 0 0 0 0 
0 0 0 0 0 
0 0 0 0 0 
0 0 0 0 0 
0 0 0 0 0 
0 0 0 0 0 
0 0 0 0 0 
0 0 0 0 0 
0 0 0 0 0 
0 0 0 0 0 
0 0 0 0 0 
0 0 0 0 0 
0 0 0 0 0 
0 0 0 0 0 
0 0 0 0 0 
0 0 0 0 0 
0 0 0 0 0 
0 0 0 0 0 
0 0 0 0 0 
0 0 0 0 0 
0 0 0 0 0 
0 0 0 0 0 
0 0 0 0 0 
0 0 0 0 0 
0 0 0 0 0 
0 0 0 0 0 
0 0 0 0 0 
0 0 0 0 0 
0 0 0 0 0 
0 0 0 0 0 
0.1349059043790847 0 0 -0.02337395604969803 0 
0 0 0 0 0 
0 0 0 0 0 
0 0 0 0 0 
0.02860601717009289 0 0 0 0 
0 0 0 0 0 
0 0 0 0 0 
0 0 0 0 0 
0.08292965617683012 0 0 -0.004122505518318570 0 
0 0 0 0 0 
0 0 -0.03800218092135342 0 0 
0 0 0 0 0 
0 0 0 0 0 
0 0 0 0 0 
0.05654201415302805 0 -0.004238053829684216 0 0 
0 0 0 0 0 
0 0 0 0 0 
0.005619921136633233 0 -0.0003302909977320684 0 0 
0 0 0 0 0 
0 0 0 0 0 
0 0 0 0 0 
0 0 0 0 0 
0 0 0 0 0 
0 0 0 0 0 
0 0 0 0 0 
0 0 0 0 0 
0 0 0 0 0 
0 0 0 0 0 
0.06134069575126162 0 -0.008964338425566888 0 0 
0 0 0 0 0 
0 0 0 0 0 
0 0 0 0 0 
0 0 0 0 0 
0.08685406746862090 0 0 0 0 
0.05220919918844805 0 0 0 0 
0.07108633108818584 0 0 0 0 
0 0 0 -0.0005337198464825403 0 
0 0 0 0 0 
0 0 -0.02532577457126567 0 0 
0 0 0 0 0 
0 0 0 0 0 
0 0 -0.02629860175304761 0 0 
0 0 0 0 0 
0 0 0 0 0 
0 0 0 0 0 
0 0 0 0 0 
0 0 0 0 0 
0 0 0 0 0 
0 0 0 0 0 
0 0 0 0 0 
0 0 0 0 0 
0 0 0 0 0 
0 0 0 0 0 
0.07730979896132864 0 0 0 0 
0 -0.3967510317261686 0 0 0 
0 0 0 0 0 
0 0 0 0 0 
0 0 0 0 0 
0.01352500747929175 0 0 0 0 
0 0 0 0 0 
0 -0.0004725205370646373 0 0 0 
0 0 0 0 0 
0 0 0 0 0 
0 0 0 0 0 
0.002356110764568070 0 0 0 0 
0 0 0 0 0 
0 0 0 0 0 
0 0 0 0 0 
0 0 0 0 0 
0 0 0 0 0 
0 0 0 0 0 
0 0 0 0 0 
0 0 0 0 0 
0 0 0 0 0 
0 0 0 0 0 
0 0 0 0 0 
0 0 0 0 0 
0 0 0 0 0 
0 0 0 0 0 
0 0 0 0 0 
0 0 0 0 0 
0 0 0 0 0 
0 0 0 0 0 
0 0 0 0 0 
0 0 0 0 0 
0 0 0 0 0 
0 0 0 0 0 
0 0 0 0 0 
0 0 0 0 0 
0 0 0 0 0 
0 0 0 0 0 
0 0 0 0 0 
0 0 0 0 0 
0 0 0 0 0 
0 0 0 0 0 
0 0 0 0 0 
0 0 0 0 0 
0 0 0 0 0 
0 0 0 0 0 
0 0 0 0 0 
0 0 0 0 0 
0 0 0 0 0 
0 0 0 0 0 
0 0 0 0 0 
0 0 0 0 0 
0 0 0 0 0 
0 0 0 0 0 
0 0 0 0 0 
0 0 0 0 0 
0 0 0 0 0 
0 0 0 0 0 
0 0 0 0 0 
0 0 0 0 0 
0 0 0 0 0 
0 0 0 0 0 
0 0 0 0 0 
0 0 0 0 0 
0 0 0 0 0 
0 0 0 0 0 
0 0 0 0 0 
0 0 0 0 0 
0 0 0 0 0 
0 0 0 0 0 
0 0 0 0 0 
0 0 0 0 0 
0 0 0 0 0 
0 0 0 0 0 
0 0 0 0 0 
0 0 0 0 0 
0 0 0 0 0 
0 0 0 0 0 
0 0 0 0 0 
0 0 0 0 0 
0 0 0 0 0 
0 0 0 0 0 
0 0 0 0 0 
0 0 0 0 0 
0 0 0 0 0 
0 0 0 0 0 
0 0 0 0 0 
0 0 0 0 0 
0 0 0 0 0 
0 0 0 0 0 
0 0 0 0 0 
0 0 0 0 0 
0 0 0 0 0 
0 0 0.06445238645956458 0 0 
0 0 0 0 0 
0 0 0 0 0 
0 0 0 0 0 
0 0 0 0 0 
0 0 0 0 0 
0 0 0 0 0 
0 0 0 0 0 
0 0 0 0 0 
0 0.02132294577114732 0.2792683577606263 0 0 
0 0 0 0 0 
0 0 0 0 0 
0 0 0 0 0 
0 0 0 0 0 
0 0 0 0 0 
0 0 0 0 0 
0 0 0 0 0 
0 0 0 0 0 
0 0 0 0 0 
0 0 0 0 0 
0 0 0 0 0 
0 0 0 0 0 
0 0 0 0 0 
0 0 0 0 0 
0 0 0 0 0 
0 0 0 0 0 
0 0 0 0 0 
0 0 0 0 0 
0 0 0 0 0 
0 0 0 0 0 
0 0 0 0 0 
0 0 0 0 0 
0 0 0 0 0 
0 0 0 0 0 
0 0 0 0 0 
0 0 0 0 0 
0 0 0 0 0 
0 0 0 0 0 
0 0 0 0 0 
0 0 0 0 0 
0 0 0 0 0 
0 0 0 0 0 
0 0 0 0 0 
0 0 0 0 0 
0 0 0 0 0 
0 0 0 0 0 
0 0 0 0 0 
0 0 0 0 0 
0 0 0 0 0 
0 0 0 0 0 
0 0 0 0 0 
0 0 0 0 0 
0 0 0 0 0 
0 0 0 0 0 
0 0 0 0 0 
0 0 0 0 0 
0 0 0 0 0 
0 0 0 0 0 
0 0 0 0 0 
0 0 0 0 0 
0 0 0 0 0 
0 0 0 0 0 
0 0 0 0 0 
0 0 0 0 0 
0 0 0 0 0 
0 0 0 0 0 
0 0 0 0 0 
0 0 0 0 0 
0 0 0 0 0 
0 0 0 0 0 
0 0 0 0 0 
0 0 0 0 0 
0 0 0 0 0 
0 0 0 0 0 
0 0 0 0 0 
0 0 0 0 0 
0 0 0 0 0 
0 0 0 0 0 
0 0 0 0 0 
0 0 0 0 0 
0 0 0 0 0 
0 0 0 0 0 
0 0 0 0 0 
0 0 0 0 0 
0 0 0 0 0 
0 0 0 0 0 
0 0 0 0 0 
0 0 0 0 0 
0 0 0 0 0 
0 0 0 0 0 
0 0 0 0 0 
0 0 0 0 0 
0 0 0 0 0 
0 0 0 0 0 
0 0 0 0 0 
0 0 0 0 0 
0 0 0 0 0 
0 0 0 0 0 
0 0 0 0 0 
0 0 0 0 0 
0 0 0 0 0 
0 0 0 0 0 
0 0 0 0 0 
0 0 0 0 0 
0 0 0 0 0 
0 0 0 0 0 
0 0 0 0 0 
0 0 0 0 0 
0 0 0 0 0 
0 0 0 0 0 
0 0 0 0 0 
0 0 0 0 0 
0 0 0 0 0 
0 0 0 0 0 
0 0 0 0 0 
0 0 0 0 0 
0 0 0 0 0 
0 0 0 0 0 
0 0 0 0 0 
0 0 0 0 0 
0 0 0 0 0 
0 0 0 0 0 
0 0 0 0 0 
0 0 0 0 0 
0 0 0 0 0 
0 0 0 0 0 
0 0 0 0 0 
0 0 0 0 0 
0 0 0 0 0 
0 0 0 0 0 
0 0 0 0 0 
0 0 0 0 0.1156445188364144 
0 0 0 0 0 
0 0 0 0 0 
0 0 0 0 0 
0 0 0 0 0 
0 0 0 0 0 
0 0 0 0 0 
0 0 0 0 0 
0 0 0 0 0 
0 0 0 0 0 
0 0 0 0 0 
0 0 0 0 0 
0 0 0 0 0 
0 0 0 0 0 
0 0 0 0 0 
0 0 0 0 0 
0 0 0 0 0 
0 0 0 0 0 
0 0 0 0 0 
0 0 0 0 0 
0 0 0 0 0 
0 0 0 0 0 
0 0 0 0 0 
0 0 0 0 0 
0 0 0 0 0 
0 0 0 0 0 
0 0 0 0 0 
0 0 0 0 0 
0 0 0 0 0 
0 0 0 0 0 
0 0 0 0 0 
0 0 0 0 0 
0 0 0 0 0 
0 0 0 0 0 
0 0 0 0 0 
0 0 0 0 0 
0 0 0 0 0 
0 0 0 0 0 
0 0 0 0 0 
0 0 0 0 0 
0 0 0 0 0 
0 0 0 0 0 
0 0 0 0 0 
0 0 0 0 0 
0 0 0 0 0 
0 0 0 0 0 
0 0 0 0 0 
0 0 0 0 0 
0 0 0 0 0 
0 0 0 0 0 
0 0 0 0 0 
0 0 0 0 0 
0 0 0 0 0 
0 0 0 0 0 
0 0 0 0 0 
0 0 0 0 0 
0 0 0 0 0 
0 0 0 0 0 
0 0 0 0 0 
0 0 0 0 0 
0 0 0 0 0 
0 0 0 0 0 
0 0 0 0 0 
0 0 0 0 0 
0 0 0 0 0 
0 0 0 0 0 
0 0 0 0 0 
0 0 0 0 0 
0 0 0 0 0 
0 0 0 0 0 
0 0 0 0 0 
0 0 0 0 0 
0 0 0 0 0 
0 0 0 0 0 
0 0 0 0 0 
0 0 0 0 0 
-0.1326223137028668 0.1533230148821713 0 0 0 
0 0 0 0 0 
0 0 0.3819024558532861 0 0 
-0.7340188498784410 0 0.06346965337010930 0 0 
0 0 0 0.004935601080404228 0 
0 0 0 0 0 
0 0 0 0 0 
0 0 0 0 0 
0 0 0 0 0 
0 0 0 0 0 
0 0 0 0 0 
0 0 0 0 0 
0 0 0 0 0 
0 0 0 0 0 
0 0 0 0 0 
0 0 0 0 0 
0 0 0 0 0 
0 0 0 0 0 
0 0 0 0 0 
0 0 0 0 0 
0 0 0 0 0 
0 0 0 0 0 
0 0 0 0 0 
0 0.7464741371455773 0 0 0 
0 0 0 0 0 
0 0 0 0 0 
0 0 0 0 0 
0 0 0 0 0 
0 0 0 0 0 
0 0 0 0 0 
0 0 0 0 0 
0 0 0 0 0 
0 0 0 0 0 
0 0 0 0 0 
0 0 0 0 0 
0 0 0 0 0 
0 0 0 0 0 
0 0 0 0 0 
0 0 0 0 0 
0 0 0 0 0 
0 0 0 0 0 
0 0 0 0 0 
0 0 0 0 0 
0 0 0 0 0 
0 0 0 0 0 
0 0 0 0 0 
0 0 0 0 0 
0 0 0 0 0 
0 0 0 0 0 
0 0 0 0 0 
0 0 0 0 0 
0 0 0 0 0 
0 0 0 0 0 
0 0 0 0 0 
0 0 0 0 0 
0 0 0 0 0 
0 0 0 0 0 
0 0 0 0 0 
0 0 0 0 0 
0 0 0 0 0 
0 0 0 0 0 
0 0 0 0 0 
0 0 0 0 0 
0 0 0 0 0 
0 0 0 0 0 
0 0 0 0 0 
0 0 0 0 0 
0 0 0 0 0 
0 0 0 0 0 
0 0 0 0 0 
0 0 0 0 0 
0 0 0 0 0 
0 0 0 0 0 
0 0 0 0 0 
0 0 0 0 0 
0 0 0 0 0 
0 0 0 0 0 
0 0 0 0 0 
0 0 0 0 0 
0 0 0 0 0 
0 0 0 0 0 
0 0 0 0 0 
0 0 0 0 0 
0 0 0 0 0 
0 0 0 0 0 
0 0 0 0 0 
0 0 0 0 0 
0 0 0 0 0 
0 0 0 0 0 
0 0 0 0 0 
0 0 0 0 0 
0 0 0 0 0 
0 0 0 0 0 
0 0 0 0 0 
0 0 0 0 0 
0 0 0 0 0 
0 0 0 0 0 
0 0 0 0 0 
0 0 0 0 0 
0 0 0 0 0 
0 0 0 0 0 
0 0 0 0 0 
0 0 0 0 0 
0 0 0 0 0 
0 0 0 0 0 
0 0 0 0 0 
0 0 0 0 0 
0 0 0 0 0 
0 0 0 0 0 
0 0 0 0 0 
0 0 0 0 0 
0 0 0 0 0 
0 0 0 0 0 
0 0 0 0 0 
0 0 0 0 0 
0 0 0 0 0 
0 0 0 0 0 
0 0 0 0 0 
0 0 0 0 0 
0 0 0 0 0 
0 0 0 0 0 
0 0 0 0 0 
0 0 0 0 0 
0 0 0 0 0 
0 0 0 0 0 
0 0 0 0 0 
0 0 0 0 0 
0 0 0 0 0 
0 0 0 0 0 
0 0 0 0 0 
0 0 0 0 0 
0 0 0 0 0 
0 0 0 0 0 
0 0 0 0 0 
0 0 0 0 0 
0 0 0 0 0 
0 0 0 0 0 
0 0 0 0 0 
0 0 0 0 0 
0 0 0 0 0 
0 0 0 0 0 
0 0 0 0 0 
0 0 0 0 0 
0 0 0 0 0 
0 0 0 0 0 
0 0 0 0 0 
0 0 0 0 0 
0 0 0 0 0 
0 0 0 0 0 
0 0 0 0 0 
0 0 0 0 0 
0 0 0 0 0 
0 0 0 0 0 
0 0 0 0 0 
0 0 0 0 0 
0 0 0 0 0 
0 0 0 0 0 
0 0 0 0 0 
0 0 0 0 0 
0 0 0 0 0 
0 0 0 0 0 
0 0 0 0 0 
0 0 0 0 0 
0 0 0 0 0 
0 0 0 0 0 
0 0 0 0 0 
0 0 0 0 0 
0 0 0 0 0 
0 0 0 0 0 
0 0 0 0 0 
0 0 0 0 0 
0 0 0 0 0 
0 0.07311735119238538 0 0 0 
0 0 0 0 0 
0 0.4300803053673080 0 0 0 
0 0 0 0 0 
0 0 0 0 0 
0 0 0 0 0 
0 0 0 0 0 
0 0 0 0 0 
0 0 0 0 0 
0 0 0.01843758882644233 0 0 
0 0 0 0 0 
0 0 0 0 0 
0 0 0 0 0 
0 0 0 0 0 
0 0 0 0 0 
0 0 0 0 0 
0 0 0 0 0 
0 0 0 0 0 
0 0 0 0 0 
0 0 0 0 0.005009859278919004 
0 0 0 0 0 
0 0 0 0 0 
0 0 0 0 0 
0 0 0 0 0 
0 0 0 0 0 
0 0 0 0 0 
0 0 0 0 0 
0 0 0 0 0 
0 0 0 0 0 
0 0 0 0 0 
0 0 0 0 0 
0 0 0 0 0 
0.08919363093624383 0 -0.4423210710431570 -0.006575014069922391 0 
-0.08627621375869035 0 0 0 0 
0 0 0 0 0 
0 0 0 0 0 
0 0 0 0 0 
0 0 0.07142835207385605 0 0 
0 0 0 0 0 
0 0 0 0 0 
0 0 0 0 0 
-0.1260691537587982 0 0.2024596301902265 0 0 
0 0 0 0.2049849303014091 0 
0 0 0 0 0 
-0.1765790168793383 0 0.01603813645741450 0 0 
0 0 0 0 0 
0 0 0 0 0 
0 0 0 0 0 
0 0 0 0 0 
0 0 0 0 0 
0 0 0 0 0 
0 0 0 0 0 
0 0 0 0 0 
0 0 0 0 0 
0 0 0 0 0 
0 0 0 0 0 
0 0 0 0 0 
0 0 0 0 0 
0 0 0 0 0 
0 0 0 0 0 
0 0 0 -0.01951893194142698 0 
0 0 0 0 0 
0.3554955706172190 0 0 0 0 
0.09149688743371964 0 0 0 0 
0 0 0 0 0 
0.9199324805734536 0 0 0 0 
0 0 0 0 0 
0 0 0 0 0 
0 0 0 0 0 
0 0 0 0 0 
0 0 0 0 0 
0 0 0 0 0 
0 0 0 0 0 
0 0 0 0 0 
0 0 0 0 0 
0 0 0 0.5543118157409239 0 
-1.445797210725115 0 0 0 0.2428645597555104 
0 0 0 0 0 
0 0 0 0 0 
0 0 0 0 0 
0 0 0 0 0 
0 0 0 0 0 
0 0 0 0 0 
0 0 0 0 0 
-0.3649561459239140 0 0.04160835788468024 0 0 
0 0 0 0 0 
0 0 0 0 0 
0 0 0 0 0 
0 0 0 0 0 
0 0 0 0 0 
0 0 0 0 0 
0 0 0 0 0 
0 0 0 0 0 
0 0 0 0 0 
0 0 0 0 0 
0.1074255296591666 0 0 0 0 
0.04937374377873787 -0.004974846882344826 0 0 0 
0 0 0 0 0 
0 0 0 0 0 
0 0 0 0 0 
0 0 0 0 0 
0 0 0 0 0 
0 0 0 0 0 
0 0 0 0 0 
0 0 0 0 0 
0 0 0 0 0 
0 0 0 0 0 
0 0 0 0 0 
0 0 0 0 0 
0 0 0 0 0 
0 0 0 0 0 
0 0 0 0 0 
0 0 0 0 0 
0 0 0 0 0 
0 0 0 0 0 
0 0 0 0 0 
0 0 0 0 0 
0 0 0 0 0 
0 0 0 0 0 
0 0 0 0 0 
-0.3373389749194353 0.3018378184426724 0 0 0 
0 0 0 0 0 
0 0 0 0 0 
0 0 0.03909025748799008 0 0 
0 0 0 0 0 
0 0 0 0 0 
0 0 0 0 0 
0 0 0 0 0 
-0.4490929839378633 0 0.2477363619253264 0 0 
0.09735800219261351 0 0 -0.001100313248896645 0 
0 0 0 0 0 
0 0 0 0 0 
0 0 0 0 0 
0 0 0 0 0 
-0.2636973718284283 0.09576148456716442 1.069709867322680 0.1953274249168721 0 
0 0 0 0 0 
0 0 0 0 0 
0 0 0 0 0 
0 0 0 0 0 
0 0 0 0 0 
0 0 0 0 0 
0 0 0 0 0 
0 0 0 0 0 
0 0 0 0 0 
0 0 0 0 0 
0 0 0 0 0 
0 0 0 0 0 
0 0 0 0 0 
-0.04127680863283012 -0.009590964011881531 0 0 0 
0 0 0 0 0 
0 0 0 0 0 
0 0 0 0 0 
0 0 0 0 0 
0 0 0 0 0 
0 0 0 0 0 
0 0 0 0 0 
0 0 0 0 0 
0 0 0 0 0 
0 0 0 0 0 
0 0 0 0 0 
0 0 0 0 0 
0 0 0 0 0 
0 0 0 0 0 
0 0 0 0 0 
0 0 0 0 0 
0 0 0 0 0 
0 0 0 0 0 
0 0 0 0 0 
0 0 0 0 0 
0 0 0 0 0 
0 0 0 0 0 
0 0 0 0 0 
0 0 0 0 0 
0 0 0 0 0 
0 0 0 0 0 
0 0 0 0 0 
0 0 0 0 0 
0 0 0 0 0 
0 0 0 0 0 
0 0 0 0 0 
0 0 0 0 0.06650868376431751 
0 0 0 0 0 
0 0 0 0 0 
0 0 0 0 0 
0 0 0 0 0 
0 0 0 0 0 
0 0 0 0 0 
0 0 0 0 0 
0 0 0 0 0 
0 0 0 0 0 
0 0 0 0 0 
0 0 0 0 0 
0 0 0 0 0 
0 0 0 0 0 
0 0 0 0 0 
0 0 0 0 0 
0 0 0 0 0 
0 0 0 0 0 
0 0 0 0 0 
0 0 0 0 0 
0 0 0 0 0 
0 0 0 0 0 
0 0 0 0 0 
0 0 0 0 0 
0 0 0 0 0 
0 0 0 0 0 
0 0 0 0 0 
0 0 0 0 0 
0 0 0 0 0 
0 0 0 0 0 
0 0 0 0 0 
0 0 0 0 0 
0 0 0 0 0 
0 0 0 0 0 
0 0 0 0 0 
0 0 0 0 0 
0 0 0 0 0 
0 0 0 0 0 
0 0 0 0 0 
0 0 0 0 0 
0 0 0 0 0 
0 0 0 0 0 
0 0 0 0 0 
0 0 0 0 0 
0 0 0 0 0 
0 0 0 0 0 
0 0 0 0 0 
0 0 0 0 0 
0 0 -0.04516421413494487 0 0 
0 0 -0.3762849264158315 0 0 
0 0 0 0 0 
0 0 0 0.1147441725525317 0 
-0.4235768050287054 0 0 0 0 
0 0 0 0 0 
0 0 0 0 0 
0 0 0 0 0 
0 0 0 0 0 
0 0 0 0 0 
0 0 0 0 0 
0 0 0 0 0 
0 0 0 0 0 
-0.9595948200182722 0 0.8476149230547426 0 0 
0 0 0 0 0.4949576091806365 
0.02589475635711371 0 0 0 0 
0 0 0.4293525101396117 0 0 
0 0 0 0 0 
0 0 0 0 0 
0 0 0 0 0 
0 0 0 0 0 
0 0 0 0 0 
0 0 0 0 0 
0 0 0 0 0 
0 0 0 0 0 
0 0 0 0 0 
0 0 0 0 0 
0 0 0 0 0 
0 0 0 0 0 
0 0 0 0 0 
0 0 0 0 0 
0 0 0 0 0 
0.05612686627724752 0 0 0 0 
0.04106970090128358 0 -0.09568742757629428 -0.01038771556452561 0 
-0.5689586807000246 0.06021334514116068 0.1215115459103479 0 0 
-0.7128372915390182 0.7670382411180373 0.1707495387333983 0.6773781120678681 0 
0 0 0 0 0 
0 0 0 0 0 
0 0 0 0 0 
0 0 0 0 0 
0 0 0 0 0 
0 0 0 0 0 
0 0 0 0 0 
0 0 0 0 0 
0 0 0 0 0 
0 0 0 0 0 
0 0 0 0 0 
0 0 0 0 0 
0 0 0 0 0 
-0.2670263371301438 0 0 0 0.1159228696996181 
0 0 0 0 0 
0 0 0 0 0 
0 0 0 0.07115942429603193 0 
0 0 0 0 0 
0 0 0 0 0 
0 0 0 0 0 
0 0 0 0 0 
0 0 0 0 0 
0 0 0 0 0 
0 0 0 0 0 
0 0 0 0 0 
0 0 0 0 0 
0.6487261785091909 0 0 0 0 
-1.031236907701038 0 0.5321362309735933 0 0 
-0.07648417237428722 0.09674479211593800 0 0 0 
0 0 0.03494311728450228 0 0 
0 0.5274257333374168 0 0 0 
0 0 0 0 0 
0 0 0 0 0 
0 0 -0.1581930032255801 0 0 
0.01021110154771460 0 0 0 0 
0 0 0 0 0 
0 0 0 0.05839150872861235 0 
0 0 0 0.05098561894440726 0 
0 0 0 0 0 
0 0 0 0 0 
0 0 0 0 0 
0 0 0 0 0 
0 0 0 0 0 
0 0 0 0 0 
0 0 0 0 0 
0 0 0 0 0 
0 0 0 0 0 
0 0 0 0 0 
-0.6853055476082422 0 0 0.4021711883004498 0 
0 0 0 0 0 
0 0 0 0 0 
0 0 0 0 0 
0 0 0 0 0 
0 0 0 0 0 
0.3137522485395389 -0.1656820051677254 -0.1312076746272829 -0.1201828041555170 0 
0 0 0 0 0 
0 0 0 0 0 
0 0 0 0 0 
0 0 0 0 0 
-0.02857529801827774 0 0.1149006753986604 0 0 
-0.006917558336705968 0.09690513505080373 0 0 0 
-0.2747804014578197 0 0.4907119608958112 0.6743243571592452 0 
-0.05831509771722025 0 0 0 0 
0 0 0 0 0 
0 0 0 0 0 
0 0 0 0 0 
-0.1543864336298497 0 0.04126736483422404 0.0006239658995535802 0 
0 0 0 0 0 
0 0 0 0 0 
0 0 0 0 0 
0 0 0 0 0 
0.002052762292471307 0 0 -0.05257815982936238 0 
0 0 0 0 0 
0 0 0 0 0 
0 0 0 0 0 
0 0 0 0 0 
0 0 0.1300869483379025 0 0 
0 0 0 0 0 
0 0 0 0 0 
0 0 0 0 0 
0 0 0 0 0 
0 0 0 0 0 
0.05863626160090225 0 0 0 0 
-0.003579499575203149 0 0 0 0 
-0.06576691850494636 0 0 0 0 
0.1743015078985676 0 0 0 0 
-0.1613528790521638 0 0.04374090372609955 0 0 
0 0 0 -0.0007803216829205840 0 
0 0 0 0 0 
0 0 0 0 0 
-0.8343129148383320 0.2194372921843818 0 0.1045230698642833 0 
0 0 0 0 0 
0 0 0 0 0 
0 0 0 0 0 
0 0 0 0 0 
0 0 0 0 0 
0 0 0 0 0 
0 0 0 0 0 
0 0 0 0 0 
0 0 0 0 0 
0 0 0 0 0 
0.3939035191772268 0 0 0 0 
0.4782399593674176 0 0 0 0 
0 0 0 0 0 
