solver_type L1R_L2LOSS_SVC
nr_class 5
label 1 2 3 4 5
nr_feature 891
bias -1.000000000000000
w
1.052609805902856 -1.302044295342107 -1.117342429154039 -1.534093119223288 -1.062522932215225 
0 0 0 0 0 
0 0 0 0 0 
0 0 0 0 0 
0 0 0 0 0 
0 0 0 0 0 
0 0 0 0 0 
0 0 0 0 0 
0 0 0 0 0 
0 0 0 0 0 
0.4272014647475910 0 -0.2517699330171483 -0.02882121322912716 0 
0 0 0 0 0 
0 0.03859548602783018 -0.1077063317671965 0 0 
0 0 0 0 0 
0.08257535812225114 0 -0.07060611796340364 0 0 
0.1282163177698849 0 -0.0002686145915970285 0 0 
0 0 0 0 0 
0 0 0 0 0 
0 0 0 0 0 
0 0 0 0 0 
0 0 0 0 0 
0 0 0 0 0 
0 0 0 0 0 
0 0 0 0 0 
0 0 0 0 0 
0 0 0 0 0 
0 0 0 0 0 
0 -0.1276406621585862 0 0 0 
0 0 0 0 0 
0 -0.06772649544594571 -0.03552432149108274 0 0 
0 -0.1102980203619000 -0.06297526880965319 0 0 
0 0 0 0 0 
0 0 0 0 0 
0 0 0 0 0 
0 0 0 0 0 
0 0 0 0 0 
0 0 0 0 0 
0 0 0 0.2857535606954504 0 
0 0 0 0 0 
0.4441945231753879 -0.1401470281718688 0 0 0 
0 -0.002079209017329321 -0.0001417757662092481 -0.04441250188881907 0 
0.5288312521393984 -0.01967248224960889 -0.07210568053584940 -0.03581670221566288 0 
0.05915915250602249 0 -0.002570313370633805 0 0 
0.1986668198835971 0 -0.09443072600443596 0 0 
0 0 0 0 0 
0 0 0.2707420870276437 0 0 
0 0 0 0 0 
-0.2692783347256521 0.07368078530672298 0 0 0 
0 0 0 0 0 
0 0 0 0 0 
0 0 -0.04812384593187607 0 0 
0 0 0 0 0 
0 0 0 0 0 
0 0 0 0 0 
0 0 0 -0.02204298552790475 0 
0 0 0 -0.01413289893559325 0 
0 0.2294689783573977 0 0 0 
0 0 0 -0.05505229141574358 -0.003870378033366642 
0 0 0 -0.03000882478498186 -0.07812756019028458 
0 0 0 0 0 
-0.1560464713124697 0 0 0 0 
-0.001750305705967457 0 0 0.3529018993655760 0 
0 0 0 0 0 
-0.3073367940414311 0.03763648616704346 0 0 0 
0 0 0 0 0 
0 0 0 0 0 
0.5232763407196993 0 0 0 -4.995640186311499e-05 
0.1322908306478073 0 -0.3907511181432731 -0.07245172859854382 -0.0001596189203904130 
-0.4726376477611948 0 0 0.5093842732807495 0 
0.1303621776023518 -0.008168621364150228 0 0 0 
0 -0.04332248526944072 0 0 0 
0 0 0 0 0 
0 0 -0.01233714493128082 0 0 
-0.1174035568308355 0 0 0.2644438439977334 0 
0 0 0 0 0 
0 0 0 0 0 
0 0 0 0 0 
0 0 0 0 0 
0.1939005716175883 0 -0.06200144898870282 0 0 
0 0 0 0 0 
0 0 0 0 0 
0 0 0 0 -0.0004163379315366469 
0 0 0 0 0 
0 0 -0.06524094497459210 0 0 
0 0 0 0 0 
0 0 0 0 0 
0 0 0 0 0 
0 0 0 0 0 
-0.004882137973792560 0 0 0 0 
0 0 0 0 0 
0 0 0 0 0 
0 0 0 0 0 
0 0 0 0 0 
0 0 0 0 0 
-0.007461921062966914 0 0.002390875970317843 0.04581861109365121 0 
0 0 0 0 0 
-0.03789638370382541 0 0 0 0.09875920848080107 
0 0 0 0 0 
0 0 0 0 0 
0 0 0 0 -0.02348506617111339 
-0.5535010082434877 0 0 0 0 
0 0 0 0 0 
0 0 0 0 0 
0.9532128711265256 -0.4100014756756080 -0.05417704358490327 -0.1436945927072912 -0.2923908286302800 
0 0 0 0 0 
-0.2525904430566831 0.02126736260306134 0 0 0.05889193234172797 
0 0 0 0 0.1232530331765191 
0 0 0 0 0 
-0.02964861102782925 0.07384013641480462 0 0 0 
0.01814349729390092 0 0 0 0 
0.008491607169485086 -0.01498980179110420 -0.002708759747195642 -0.05817156033584708 -0.04203149619744424 
0 0 0 -0.05514443836771819 -0.01115003758135194 
0.07596314298568067 -0.002347960359263970 0 0 0 
0 0 0 0 0 
0 0 0 0 0 
0 0 0 0 0 
-0.003341336494193868 0 0 0 0 
0 0 0 0 0 
0.2596538344634743 0 0 0 0 
0 0 0 0 0 
0 0 0 0 0 
0 0 0 0 0 
0 0 0 0 0 
-0.06051227167138773 0 0.3471200584454210 0 0 
0 0 0 0 0 
0 0 0 0 0 
0 0 0 0 0 
0 0 0 0 0 
0 0 0 0 0 
0 0 0 0 0 
0 0 0 0 0 
0.1677373981436128 -0.09857778805290351 0 0 0 
0.001702879732520344 -0.1613954817301512 0 0 -0.1257674953594061 
0.1611995175566720 -0.1364229380008691 -0.02935177930651565 0 0 
0 0 0 0 0 
0 0 0 0 0 
0 0 0 0 0 
0 0 0 0 0 
0 0 0 0 0 
0 0 0 0 0 
0 0 0 0 0 
0 0 0 0 0 
0 0 0 0 0 
0 0 0 0 0 
0 0 0 0 0 
0 0 0 0 0 
0 0 0 0 0 
0 0 0 0 0 
0 0 0 0 0 
0 0 0 0 0 
0 0 0 0 0 
0 0 0 0 0 
0 0 0 0 0 
0 0 -0.01107674114561497 0 0 
0 0 0 0 0 
0 0 0 0 0 
0 0 0 0 0 
0 0 0 0 0 
0.06742263198625578 -0.02139997418022342 0 0 0 
0 0 0 0 0 
0 0 0 0 0 
0 0 0 0 0 
0 0 0 0 0 
0 0 0 0 0 
0 0 0 0 0 
-1.106330689972714 0 0.3550655486965375 0 0 
0 0 0 0 0 
0 0 0 0 0 
0 0 0 0 0 
0 0 0 0 0 
0 0 0 0 0 
0 0 0 0 0 
0 0 0 0 0 
0 0 0 0 0 
0 0 0 0 0 
0 0 0 0 0 
0 0 0 0 0 
0 -0.4099635238285982 0 0 0 
0 0 0 0 0 
0 0 0 0 0 
0 0 0 0 0 
0 0 0 0 0 
0 0 -0.08770238979379594 0 0 
0 0 0.08070808382317950 0 0 
0 0 0 0 0 
0 0 0 0 0 
0 0 -0.09601425683566439 0 0 
0 0 0 0 0 
0 0 0 0 0 
0 0 0 0 0 
0 0 0 0 0 
0 0 0 0 0 
0 0 0 0 0 
-0.05767563224659755 0 0.1077232934279565 0 0 
-1.202322856607893 1.547124248426168 0 0 0 
0 0 0 0 0 
0 0 0 0 0 
0 0 0 0 0 
0 0 0 0 0 
0.03318263944811265 -0.009520607714492193 -0.1247864612849707 -5.054345279414838e-05 0 
0 0 0 0 0 
-1.039976761551521 0.6519405883536581 0.2275563562358229 0 0 
0 0.3150812969083331 0 0 0 
0 0 0 0 0 
0 0 0 0 0 
0 0 0 0 0 
0 0 0 0.4227070461154162 0 
0 0 0 0 0 
0.04551954259936700 0 0 0 0 
0 0 0 0 0 
0 0 0 0 0 
0 0 0 0 0 
-0.4443440843765869 0 0.2803943617309272 0 0 
0 0 0.05133014451070776 0 0 
0 0 0 0 0 
0 0 0 0 0 
0 0 0 0 0 
0 0.3064691206320402 0 0 0 
0 0 0 0 0 
0.02149971061074784 0 0 0 0 
0 0 0 0 0 
0 0 0 0 0 
0 0 0 0 0 
0 0 0 0 0 
0 0 0 0 0 
0 0 0 0.1623548804176496 0 
0.2578447415740134 -0.02322942880443547 0 0 0 
-0.2619831648691323 0.5575716407601685 0 0 0 
0 -0.07146122486662793 0 0 0 
0 0 0 0 0 
0 0 0 0 0 
0 0 0.1629912162341312 0 0 
0 0 0 0 0 
0 0 0.01041118812436093 0 0 
0 0 0 0 0 
0 0 0 0 0 
0 0 0 0 0 
0 0 0 0 0 
-0.2367445129519984 0 0.06225217495533725 0 0 
0 0 0 0 0 
0 0 0 0 0 
0 0 0 0 0 
0 0 0 0 0 
-0.08193919552022255 0 0.009591707342158518 0 0 
0 0 0 0 0 
0 0 0 0 0 
0 0 0 0 0 
0 0 0 0 0 
0 0 0 0 0 
0 0 0 0 0 
0 0 0 0 0 
0 0 0 0 0 
0 0 0 0 0 
0 0 0 0 0 
0 0 0 0 0 
-0.1808521477462758 0 0.08222731549102780 0.09305708023652086 0.1322899413961849 
0 0 0 0 0 
0 0 0 0 0 
0 0 0 0 0 
0.02028866311833634 0 0 0 0 
0 0 0 0 0 
0 0 0 0 0 
0 0 0 0 0 
0 0 0 0 0 
0 0 0 0 0 
0 0 0 0 0 
0 0 0 0 0 
0 0 0 0 0 
0 0 0 0 0 
0 0 0 0 0 
0 0 0 0 0 
0 0 0 0 0 
0 0 0 0 0 
0 0 0 0 0 
0 0 0 0 0 
0 0 0 0 0 
0 0 0 0 0 
0 0 0 0 0 
0 0 0 0 0 
0 0 0 0 0 
0 0 0 0 0 
0 0 0 0 0 
0 0 0 0 0 
0 0 0 0 0 
0 0 0 0 0 
0 0 0 0 0 
0 0 0 0 0 
0 0 0 0 0 
0 0 0 0 0 
0 0 0 0 0 
0 0 0 0 0 
-0.6132012530812959 0 0 0.8652909819013879 0 
0 0 0 0 0 
0 0 0 0 0 
0 0 0 0 0 
0 0 0 0 0 
0 -0.09377669112763608 0 0.04545744141790230 -0.03683257660442778 
0.09812703362747827 0 0 0 0 
0 0 0 0 0 
0 0 0 0 0 
0 0 0 0 0 
0 0 0 0 0 
0 0 0 0 0 
0 0 0 0 0 
0 0 0 0 0 
0 0 0 0 0 
0 0 0 0 0 
0 0 0 0 0 
0 0 0 0 0 
0 0 0 0 0 
0 0 0 0 0 
0 0 0 0 0 
0 0 0 0 0 
0 0 0 0 0 
0 0 0 0 0 
0 0 0 0 0 
0 0 0 0 0 
-0.06781300593306093 0 0.2615686392764862 0.3670881038507831 0.3226901552450275 
0 0 0 0 0 
0 0 0 0 0 
0.1830545047560679 0 0 0 -0.1316038816836211 
0 0 0 0 0 
0 0 0 0 0 
0 0 0 0 0 
0 0 0 0.1255602843084427 0 
0 0 0 0 0 
0 0 0 0 0 
0 0 0 0 0 
0 0 0 0 0 
0 0 0 0 0 
0 0 0 0 0 
0 0 0 0 0 
0 0 0 0 0 
0 0 0 0 0 
0 0 0 0 0 
0 0 0 0 0 
0 0 0 0 0 
0 0 0 0 0 
0 0 0 0 0 
0 0 0 0 0 
0 0 0 0 0 
0 0 0 0 0 
0 0 0 0 0 
0 0 0 0 0 
0 0 0 0 0 
0.0005014018077545424 0 0 0 0 
0 0 0 0 0 
0 0 0 0 0 
0 0 0 0 0 
0 0 0 0 0 
0 0 0 0 0 
0 0 0 0 0 
0 0 0 0 0 
0 0 0 0 0 
0 0 0 0 0 
0 0 0 0 0 
0 0 0 0 0 
0 0 0 0 0 
0 0 0 0 0 
0 0 0 0 0 
0 0 0 0 0 
0 0 0 0 0 
0 0 0 0 0 
0 0 0 0 0 
0 0 0 0 0 
0 0 0.06248037551605204 0 0 
0 0 0 0 0 
0 0 0 0 0 
0 0 0 0 0 
-0.03379165909438153 0 0 0 0 
-0.1827270336666015 0 0 0 0.1154613811063095 
0 0 0 0 0 
0 0 0 0 0 
0 0 0 0 0 
0 0 0 0 0 
0 0 0 0 0 
0 0 0 0 0 
0 0 0 0 0 
0 0 0 0 0 
-0.1537077298728831 0 0.1606754429726777 0 0.1772042449568941 
0 0 0 0 0 
0 0 0 0 0 
0 0 0 0 0 
0 0 0 0 0 
0 0 0 0 0 
0 0 0 0 0 
0 0 0 0 0 
0 0 0 0 0 
0 0 0 0 0 
0 0 0 0 0 
0 0 0 0 0 
0 0 0 0 0 
0 0 0 0 0 
0 0 0 0 0 
0 0 0 0 0 
0 0 0 0 0 
0 0 0 0 0 
0 0 0 0 0 
0 0 0 0 0 
0 0 0 0 0 
0 0 0 0 0 
0 0 0 0 0 
0 0 0 0 0 
0 0 0 0 0 
0 0 0 0 0 
-0.4011360925055200 0 0.3283760793561515 0 0 
0 0 0 0 0 
0 0 0 0 0 
0 0 0 0 0 
0 0 0 0 0 
0 0 0 0 0 
0 0 0 0 0 
0 0 0 0 0 
0 0 0 0 0 
0 0 0 0 0 
0 0 0 0 0 
0 0 0 0 0 
0 0 0 0 0 
0 0 0 0 0 
0 0 0 0 0 
0 0 0 0 0 
0 0 0 0 0 
0 0 0 0 0 
0 0 0 0 0 
0 0 0 0 0 
0 0 0 0 0 
0 0 0 0 0 
0 0 0 0 0 
0 0.02012384355743035 0 0 0 
0 0 0 0 0 
0.04592171639671965 0 0 0 0 
0 0 0 0 0 
0 0 0 0 0 
0 0 0 0 0 
0 0 0 0 0 
0 0 0 0 0 
0 0 0 0 0 
0 0 0 0 0 
0 0 0 0 0 
0 0 0 0 0 
0 0 0 0 0 
-0.08487223916255358 0 0 0 0 
0 0 0 0 0 
0 0.008922181566367648 0 0 0 
0 0 0 0 0 
0 0 0 0 0 
0 0 0 0 0 
0.3912230905146447 -0.3703748674796771 -0.1576552384391504 -0.3874136827347281 0 
-0.03510508130964555 0 0 0 0 
0 0 0.1700154260360606 -0.3486447059222421 -0.08703570812784728 
-0.09667919454248716 0.03840391071335110 -0.0002661071760763295 0.02798269865779408 0 
0 0 0 0 0 
0.09868638855146868 -0.03618329946332611 -0.008810069821006844 0 -0.09064994109763425 
-0.06444753953167184 0.008996530007022874 0.03352349385006181 0 0 
0 0 0 0 0 
-0.1719550496998085 0.2984216050459248 -0.9342457750304021 0.4234348151111265 -0.8437822552271248 
-0.07584860345023262 0 0 0 0 
0 0 0 0 0 
-0.03494777800063278 0.1440064430295397 0 0 3.128659753377012e-05 
-0.3315797969376263 0.5225234522252493 0 0 0.01110164874078701 
0 0 0 0 0 
0 0 0 0 0 
0 0 0 0 0 
0 0 0 0 0 
0 0 -0.01705016094139066 0 -0.03221586804603556 
0 0 0 0 0 
0 0 -0.02799178719948641 0.003048085961254305 -0.03007102061933298 
0.1610215369001343 0 -0.04647732761626205 0 0 
-0.09155564347485255 0.06666296993845376 0.09216164309434159 0.1241111294123660 0 
0 0 0 0 0 
0 0 0 0 0 
0 0 0 0 0 
0 0 0 0 0 
0 0 0 0 0 
-0.05108893275628502 0.06973426299501402 0.02860653296100154 0 0 
-0.6857398336186611 0.05142652124921273 0.3266483362561987 0 0 
-0.2051976354988979 0.2436530396857972 0.3944537361154119 0 0 
0 0 0 0 0 
0 0 0 0 0 
0 0 0 0 0 
0 0 0 0 0 
0 0 0 0 0 
0 0 0 0.06228909006119004 0 
0 0 0 0 0 
-0.1248366305628738 0 0.3668029995071860 0 0 
0 0 0 0 0 
-0.02389211036728368 0.04496729788635046 0.04298549971415978 0 -0.03129708944485937 
0 0 0 0 0 
0.002790884948284289 0 -0.01318601887103862 -0.03904822666404742 0.05469193838868198 
0 0 0 0 0 
0.007362375896034578 0 -0.01839934883556369 0 0.03926702401474958 
0 0 0 0 0 
1.157645827781759 0 0 0 0 
0 0 0 0 0 
0.04101924568010182 0 0 0 0 
-0.08068795090188167 -0.04563709277185246 0.01623754405407983 0.03638926052284301 0.2293582725636354 
-0.05843128822622172 -0.05067666094163967 0 0.01910308481880139 1.342937700643600e-05 
0.1025633627682420 0 0 0 -0.07153503289443473 
0 0 0 0 0 
0.07334475589344430 0 -0.1298115120970869 -0.1666559048257389 -0.4231733876431161 
-0.02560958760074497 0 0.06770450742809771 0 0 
0 0 0 0 0 
0 0 0 0 0 
0 0 0 0 0 
0 0 0 0 0 
0 0 0 0 0 
0.002095533396007376 0 0 0 0 
0 0 0 0 0 
0 0 0 0 0 
0 0 0 0 0 
0 0 0 0 0 
0 0 0 0 0 
0 0 0 0 0 
0 0 0 0 0 
0 0 0 0 0 
0 0 0 0 0 
0 0 0 0 0 
0 0 0 0 0 
0 0 0 0 0 
0 0 0 0 0 
0 0 0 0 0 
0 0 0 0 0 
0 0 0 0 0 
0 0 0 0 0 
0 0 0 0 0 
0 0 0 0 0 
0 0 0 0 0 
0 0 0 0 0 
0 0 0 0 0 
0 0 0 0 0 
0 0 0 0 0 
0 0 0 0 0 
0 0 0 0 0 
0 0 0 0 0 
-0.4004712461651604 0 0 0 0.1087788319993523 
0 0 0 0 0 
0 0 0 0 0 
0 0 0 0 0 
0 0 0 0 0 
0 0 0 0 0 
0 0 0 0 0 
0 0 0 0 0 
0 0 0 0 0 
0 0 0 0 0 
0 0 0 0 0 
0 0 0 0 0 
0 0 0 0 0 
0 0 0 0 0 
0 0 0 0 0 
0 0 0 0 0 
0 0 0 0 0 
0 0 0 0 0 
0 0 0 0 0 
0 0 0 0 0 
0 0 0 0 0 
0 0 0 0 0 
0 0 0 0 0 
0 0 0 0 0 
0 0 0 0 0 
0 0 0 0 0 
0 0 0 0 0 
0 0 0 0 0 
0 0 0 0 0 
0 0 0 0 0 
0 0 0 0 0 
0 0 0 0 0 
0 0 0 0 0 
0 0 0 0 0 
0 0 0 0 0 
-0.09421414761620084 0 0 0.1235011623124838 0 
0 0 0 0 0 
0 0 0 0 0 
0 0 0 0 0 
0 0 0 0 0 
0 0 0 0 0 
0 0 0 0 0 
0 0 0 0 0 
0 0 0 0 0 
0 0 0 0 0 
0 0 0 0 0 
0 0 0 0 0 
0 0 0 0 0 
0 0 0 0 0 
0 0 0 0 0 
0 0 0 0 0 
0 0 0 0 0 
0 0 0 0 0 
0 0 0 0 0 
0 0 0 0 0 
0 0 0 0 0 
0 0 0 0 0 
0 0 0 0 0 
0 0 0 0 0 
0 0 0 0 0 
0 0 0 0 0 
0 0 0 0 0 
0 0 0 0 0 
0 0 0 0 0 
0 0 0 0 0 
0 0 0 0 0 
0 0 0 0 0 
0 0 0 0 0 
0 0 0 0 0 
0 0 0 0 0 
0 0 0 0 0 
0 0 0 0 0 
0 0 0 0 0 
0 0 0 0 0 
0 0 0 0 0 
0 0 0.3917774655040215 0 0 
-0.3298497892091039 0 0.1341903387714689 0 0 
0 0 0 0 0 
0 0 0 0 0 
0 0 0 0 0 
0 0 0 0 0 
0 0 0 0 0 
0 0 0 0 0 
0 0 0 0 0 
0 0 0 0 0 
0 0 0 0 0 
0 0 0 0 0 
0 0 0 0 0 
0 0 0 0 0 
0 0 0 0 0 
0 0 0 0 0 
0 0 0 0 0 
0 0 0 0 0 
0 0 0 0 0 
0 0 0 0 0 
0 0 0 0 0 
0 0 0 0 0 
0 0 0 0 0 
0 0 0 0 0 
0 0 0 0 0 
0 0 0 0 0 
0 0 0 0 0 
0 0 0 0 0 
0 0 0 0 0 
0 0 0 0 0 
0 0 0 0 0 
0 0 0 0 0 
-0.09002909679629360 0 0.3734128803455477 0 0 
0 0 0 0 0 
0 0 0 0 0 
0 0 0 0 0 
0 0 0 0 0 
0 0 0 0 0 
0 0 0 0 0 
0 0 0 0 0 
0 0 0 0 0 
0 0 0 0 0 
0 0 0 0 0 
0 0 0 0 0 
0 0 0 0 0 
0 0 0 0 0 
0 0 0 0 0 
0 0 0 0 0 
0 0 0 0 0 
0 0 0 0 0 
0 0 0 0 0 
0 0 0 0 0 
0 0 0 0 0 
0 0 0 0 0 
0 0 0 0 0 
0 0 0 0 0 
0 0 0 0 0 
0 0 0 0 0 
0 0 0 0 0 
0 0 0 0 0 
0 0 0 0 0 
0 0 0 0 0 
0 0 0 0 0 
0 0 0 0 0 
0 0 0 0 0 
0 0 0 0 0 
0 0 0 0 0 
0 0 0 0 0 
0 0 0 0 0 
0 0 0 0 0 
0 0 0 0 0 
0 0 0 0 0 
0 0 0 0 0 
0 0 0 0 0 
0 0 0 0 0 
0 0 0 0 0 
0 0 0 0 0 
0 0 0 0 0 
0 0 0 0 0 
0 0 0 0 0 
0 0 0 0 0 
0 0 0 0 0 
0 0 0 0 0 
0 0 0 0 0 
-0.6065911447253581 0 0 0.5745196508258360 0 
0 0 0 0 0 
0 0 0 0 0 
0 0 0 0 0 
0 0 0 0 0 
0 0 0 0 0 
0 0 0 0 0 
0 0 0 0 0 
0 0 0 0 0 
0 0 0 0 0 
0 0 0 0 0 
0 0 0 0 0 
0 0 0 0 0 
0 0 0 0 0 
0 0 0 0 0 
0 0 0 0 0 
0 0 0 0 0 
0 0 0 0 0 
0 0 0 0 0 
0 0 0 0 0 
0 0 0 0 0 
0 0 0 0 0 
0 0 0 0 0 
0 0 0 0 0 
0 0 0 0 0 
0 0 0 0 0 
0 0 0 0 0 
0 0 0 0 0 
0 0 0 0 0 
0 0 0 0 0 
0 0 0 0 0 
0 0 0 0 0 
0 0 0 0 0 
0 0 0 0 0 
0 0 0 0 0 
0 0 0 0 0 
0 0 0 0 0 
0 0 0 0 0 
0 0 0 0 0 
0 0 0 0 0 
0 0 0 0 0 
0 0 0 0 0 
0 0 0 0 0 
0 0 0 0 0 
0 0 0 0 0 
0 0 0 0 0 
0 0 0 0 0 
0 0 0 0 0 
0 0 0 0 0 
0 0 0 0 0 
0 0 0 0 0 
0 0 0 0 0 
0 0 0 0 0 
0 0 0 0 0 
0 0 0 0 0 
0 0 0 0 0 
0 0 0 0 0 
0 0 0 0 0 
0 0 0 0 0 
0 0 0 0 0 
0 0 0 0 0 
0 0 0 0 0 
0 0 0 0 0 
0 0 0 0 0 
0 0 0 0 0 
0 0 0 0 0 
0 0 0 0 0 
0 0 0 0 0 
0 0 0 0 0 
0 0 0 0 0 
0 0 0 0 0 
0 0 0 0 0 
0 0 0 0 0 
0 0 0 0 0 
0 0 0 0 0 
0 0 0 0 0 
0 0 0 0 0 
0 0 0 0 0 
0 0 0 0 0 
0 0 0 0 0 
0 0 0 0 0 
0 0 0 0 0 
0 0 0 0 0 
0 0 0 0 0 
0 0 0 0 0 
0 0 0 0 0 
0 0 0 0 0 
0 0 0 0 0 
0 0 0 0 0 
0 0 0 0 0 
0 0 0 0 0 
0 0 0 0 0 
0 0 0 0 0 
0 0 0 0 0 
0 0 0 0 0 
0 0 0 0 0 
0 0 0 0 0 
0 0 0 0 0 
0 0 0 0 0 
0 0 0 0 0 
0 0 0 0 0 
0 0 0 0 0 
0 0 0 0 0 
0 0 0 0 0 
0 0 0 0 0 
0 0 0 0 0 
0 0 0 0 0 
0 0 0 0 0 
0 0 0 0 0 
0 0 0 0 0 
0 0 0 0 0 
0 0 0 0 0 
0 0 0 0 0 
0 0 0 0 0 
0 0 0 0 0 
0 0 0 0 0 
0 0 0 0 0 
0 0 0 0 0 
0 0 0 0 0 
0 0 0 0 0 
0 0 0 0 0 
0 0 0 0 0 
0 0 0 0 0 
0 0 0 0 0 
0 0 0 0 0 
0 0 0 0 0 
0 0 0 0 0 
0 0 0 0 0 
0 0 0 0 0 
0 0 0 0 0 
0 0 0 0 0 
0 0 0 0 0 
0 0 0 0 0 
0 0 0 0 0 
0 0 0 0 0 
0 0 0 0 0 
0 0 0 0 0 
0 0 0 0 0 
0 0 0 0 0 
0 0 0 0 0 
0 0 0 0 0 
0 0 0 0 0 
0 0 0 0 0 
0 0 0 0 0 
0 0 0 0 0 
0 0 0 0 0 
0 0 0 0 0 
0 0 0 0 0 
0 0 0 0 0 
0 0 0 0 0 
0 0 0 0 0 
0 0 0 0 0 
0 0 0 0 0 
0 0 0 0 0 
0 0 0 0 0 
0 0 0 0 0 
0 0 0 0 0 
0 0 0 0 0 
0 0 0 0 0 
0 0 0 0 0 
0 0 0 0 0 
0 0 0 0 0 
0 0 0 0 0 
0 0 0 0 0 
0 0 0 0 0 
0 0 0 0 0 
0 0 0 0 0 
0 0 0 0 0 
0 0 0 0 0 
0 0 0 0 0 
0 0 0 0 0 
0 0 0 0 0 
0 0 0 0 0 
0 0 0 0 0 
0 0 0 0 0 
0 0 0 0 0 
0 0 0 0 0 
0 0 0 0 0 
0 0 0 0 0 
0 0 0 0 0 
0 0 0 0 0 
0 0 0 0 0 
0 0 0 0 0 
0 0 0 0 0 
0 0 0 0 0 
0 0 0 0 0 
0 0 0 0 0 
0 0 0 0 0 
0 0 0 0 0 
0 0 0 0 0 
0 0 0 0 0 
0 0 0 0 0 
0 0 0 0 0 
0 0 0 0 0 
0 0 0 0 0 
0 0 0 0 0 
0 0 0 0 0 
0 0 0 0 0 
